<?xml version="1.0"?>
<opencv_storage>
<opencv_ml_svm>
  <format>3</format>
  <svmType>C_SVC</svmType>
  <kernel>
    <type>LINEAR</type></kernel>
  <C>1.</C>
  <term_criteria><iterations>10000</iterations></term_criteria>
  <var_count>1764</var_count>
  <class_count>4</class_count>
  <class_labels type_id="opencv-matrix">
    <rows>4</rows>
    <cols>1</cols>
    <dt>i</dt>
    <data>
      1 2 3 4</data></class_labels>
  <sv_total>6</sv_total>
  <support_vectors>
    <_>
      -9.53769684e-03 2.87938770e-02 -5.13629196e-03 -3.98853347e-02
      -3.53368707e-02 9.14824940e-03 1.28184427e-02 1.65046528e-02
      1.38746004e-03 1.09012155e-02 4.42957319e-02 1.24954591e-02
      1.28145413e-02 -4.65775654e-02 -1.05244303e-02 -7.73595041e-03
      6.72255410e-04 -1.53696118e-02 -8.33286904e-04 1.57960560e-02
      3.30693237e-02 -5.48022762e-02 -5.23605235e-02 -1.63163114e-02
      1.96214244e-02 2.14751493e-02 -4.54678573e-03 1.89242046e-02
      2.25232095e-02 2.78498121e-02 2.63627581e-02 -3.49834226e-02
      -1.01756267e-02 3.19859153e-03 9.04567540e-03 -1.97491571e-02
      2.10303925e-02 8.96549225e-03 -2.59800698e-03 7.07065733e-03
      -6.28737882e-02 -4.08070758e-02 -2.24587489e-02 -2.04170998e-02
      -2.83923969e-02 2.86140759e-02 -3.29401419e-02 -8.07052013e-03
      9.97296348e-03 -4.02089395e-02 -3.76367122e-02 -2.12574117e-02
      -3.67039703e-02 -7.44623272e-03 2.87720580e-02 -3.56632262e-03
      1.91742107e-02 -8.81651323e-03 -5.24020307e-02 -1.90269835e-02
      -2.17715409e-02 -1.32539971e-02 -5.74647589e-03 4.33648713e-02
      3.13798129e-03 1.55821666e-02 -1.19734583e-02 -6.57431781e-02
      -2.08353605e-02 9.02417675e-03 8.12998042e-03 2.90404968e-02
      1.19315963e-02 -6.90167770e-02 -8.39043260e-02 -4.32241149e-02
      -6.68802708e-02 -5.14651164e-02 -3.38540412e-02 -3.10995206e-02
      2.88351178e-02 4.85323854e-02 -4.80308160e-02 -6.68555573e-02
      -9.47374944e-03 -6.07929714e-02 -2.56358017e-03 1.99368298e-02
      2.32445803e-02 5.31493053e-02 3.22135277e-02 -4.06427756e-02
      -4.63332869e-02 -6.09444417e-02 -7.44065642e-02 -2.54334938e-02
      9.96338390e-03 2.98192613e-02 4.70594727e-02 5.08021563e-02
      -3.30725200e-02 -5.48226200e-02 -6.69042617e-02 -7.82420114e-02
      -1.15204370e-02 2.31517535e-02 6.23318590e-02 6.66149631e-02
      3.00338604e-02 -2.79839803e-02 -7.29654506e-02 -2.69357283e-02
      -6.82999492e-02 1.68931633e-02 2.10243370e-02 5.73564842e-02
      5.90007938e-02 5.18661365e-03 -5.55424904e-03 -2.56956983e-02
      3.21980356e-03 -1.78398285e-02 3.54430452e-02 1.62413120e-02
      4.67453711e-02 2.37270258e-02 4.88646887e-02 -1.35596320e-02
      -7.09343627e-02 -8.81462917e-02 -5.81871383e-02 3.04472931e-02
      3.57209966e-02 3.01541965e-02 4.95962203e-02 -1.31586310e-03
      -3.80622596e-02 -5.01656458e-02 -2.65883356e-02 -4.09542210e-02
      -3.84681625e-03 2.27901898e-02 2.43469677e-03 -6.10545231e-03
      -1.79872606e-02 -3.44107077e-02 -2.45490726e-02 -2.43570656e-02
      -2.39064451e-02 4.01086882e-02 2.17844415e-02 9.62871872e-03
      -1.79009675e-03 -1.45183569e-02 -4.56588604e-02 -3.59350815e-02
      1.46412486e-02 -2.12985333e-02 -5.61795849e-03 -1.15140276e-02
      -1.68128368e-02 -2.02966649e-02 -1.95625126e-02 -5.04752845e-02
      -4.36159596e-02 -2.69957595e-02 -3.69434580e-02 -1.82430691e-03
      2.31840871e-02 1.08506223e-02 1.78738998e-03 9.51307546e-03
      -1.79936364e-02 -4.22976352e-02 1.39376605e-02 -1.95329860e-02
      6.22429466e-03 1.60215737e-03 9.84280836e-03 2.23209336e-02
      -1.29339695e-02 -1.47698121e-02 -1.49002718e-02 -1.62988268e-02
      -4.25758585e-02 -1.71482880e-02 7.59173743e-03 -1.12719592e-02
      -1.18741747e-02 -1.56628024e-02 -2.64894366e-02 -9.48816352e-03
      -1.48822488e-02 -5.65521158e-02 -2.70249229e-03 1.64418144e-03
      -2.54036691e-02 -2.93348245e-02 2.97236908e-02 -9.85623337e-03
      -1.28708184e-02 1.20652951e-02 -1.07848309e-02 2.11422332e-02
      2.89078671e-02 2.84751505e-02 3.81952338e-02 -2.36791577e-02
      -2.02990808e-02 -3.35384044e-03 2.51765060e-03 -5.80258444e-02
      1.80661101e-02 2.74654329e-02 1.58182979e-02 -1.42788468e-02
      3.21057029e-02 -9.69437696e-03 4.95951483e-03 1.02476440e-02
      -1.22936452e-02 -8.33357684e-03 2.53249513e-04 -6.15322124e-03
      2.17255205e-02 1.48890726e-02 8.68785288e-03 -6.78857788e-03
      -1.86387019e-03 -4.00567278e-02 -1.82696488e-02 -1.67973917e-02
      -1.36088673e-02 4.07432839e-02 1.74903590e-02 -9.99873318e-03
      -4.57696663e-03 1.00961141e-02 -4.99420753e-03 2.00661216e-02
      3.55137289e-02 3.41955759e-02 3.10441293e-02 -8.43708962e-03
      9.26486589e-03 -4.64007221e-02 -7.96625949e-03 -4.37738709e-02
      -7.63099059e-04 7.30277225e-03 1.13897687e-02 3.12059429e-02
      -1.92549136e-02 -9.63961985e-03 -3.01699224e-03 -2.18978766e-02
      -6.39861003e-02 -1.33999055e-02 8.53622274e-04 7.87046831e-03
      -9.75111406e-03 1.31572867e-02 -4.35411604e-03 6.01926073e-03
      -5.89160528e-03 -5.01606800e-02 -1.27680702e-02 -2.52075233e-02
      -1.02372412e-02 -2.69814767e-02 1.20848184e-02 2.82310825e-02
      2.71848086e-02 -1.01011144e-02 -7.79509842e-02 -3.09791788e-03
      2.74781953e-03 5.16753178e-03 -7.65127921e-03 1.34156756e-02
      5.23208007e-02 2.30903942e-02 1.19684823e-02 -6.85882270e-02
      1.84601638e-03 9.31772776e-03 1.82215553e-02 -6.63988711e-03
      2.91472301e-02 2.21762396e-02 2.53600478e-02 -3.51595948e-03
      -5.76995350e-02 -1.00006675e-02 -4.53727692e-02 -2.31539290e-02
      -2.19590904e-04 4.73737158e-02 1.18707614e-02 -2.54388191e-02
      -5.35911284e-02 -1.14832193e-01 -3.97780128e-02 -6.17965497e-03
      3.59992753e-03 2.26905942e-02 3.11100632e-02 -1.05198538e-02
      -8.90604220e-03 -1.27781397e-02 -6.33423701e-02 1.08046187e-02
      4.34695557e-02 5.87906428e-02 9.66451783e-03 -1.73382871e-02
      -3.61155421e-02 -8.74733627e-02 -9.88925993e-02 -1.12498850e-01
      -5.45007251e-02 -1.27418442e-02 1.13645121e-02 3.80131556e-03
      4.25214283e-02 1.42161651e-02 -1.18751768e-02 -4.75890078e-02
      -4.89585511e-02 -1.05688171e-02 1.25269853e-02 3.67084183e-02
      5.21823317e-02 4.95956168e-02 1.62487440e-02 -1.72390342e-02
      -6.73797578e-02 -4.31348011e-02 3.44905257e-02 5.68788536e-02
      5.64814731e-02 4.57396358e-02 1.14508485e-02 -3.61570227e-03
      -4.13776226e-02 -8.17596093e-02 -7.78465420e-02 8.72970372e-03
      3.33950073e-02 4.09171470e-02 3.46833169e-02 1.77294482e-03
      1.08713005e-02 -3.98867764e-02 -9.40557048e-02 -9.75077227e-02
      -1.51533624e-02 5.47458306e-02 3.45906615e-03 1.46150840e-02
      3.01678423e-02 -1.11673097e-03 -4.06096317e-02 -8.09630752e-02
      -5.94773591e-02 4.36915457e-02 7.10767657e-02 3.77317108e-02
      3.90344858e-02 3.60960662e-02 -2.51983926e-02 -1.76362731e-02
      -5.00299502e-03 -4.14538719e-02 4.75665629e-02 3.08450330e-02
      2.62194593e-02 2.83702742e-02 -2.69173980e-02 -4.72624488e-02
      -6.05006926e-02 -8.06403831e-02 -1.28523394e-01 -1.09412347e-03
      4.52376679e-02 -1.56462286e-02 -1.93963852e-02 2.73637846e-03
      -3.31814066e-02 -4.20067459e-02 -5.44288605e-02 -9.56476852e-02
      -2.07949057e-02 -1.40914582e-02 7.46576814e-03 -2.59474106e-02
      2.39470345e-03 -9.59679298e-03 9.15353000e-03 3.45399766e-03
      -2.51087453e-02 2.48428769e-02 1.51244523e-02 1.43191982e-02
      1.12455972e-02 1.34237902e-02 -2.59952825e-02 -4.06177603e-02
      1.41090788e-02 -2.15628780e-02 3.39608490e-02 3.31033468e-02
      1.09585440e-02 3.09794340e-02 3.82079883e-03 -6.96662217e-02
      -5.65442964e-02 -4.43935432e-02 -6.73346221e-02 -3.04983575e-02
      -2.30447780e-02 -4.42910386e-04 -2.73725912e-02 -2.79455371e-02
      -9.08885822e-02 -7.86499158e-02 -2.22609583e-02 -7.46405646e-02
      -3.38952872e-03 2.70611029e-02 1.23184603e-02 -1.00164535e-03
      1.77494087e-03 -2.58639380e-02 -3.55219692e-02 -5.21502364e-03
      -1.22606726e-02 3.58435288e-02 3.88575196e-02 2.33904459e-03
      2.41891015e-02 -2.30138525e-02 -3.47537659e-02 -2.49379370e-02
      -3.94442212e-03 -2.91543081e-02 6.02127127e-02 3.29231881e-02
      4.03529145e-02 -7.50454469e-03 -1.99007802e-02 -6.49340823e-02
      -5.70603870e-02 1.84130971e-03 -2.86018886e-02 1.49463844e-02
      3.11452467e-02 2.16396712e-02 1.74513962e-02 -5.75192831e-02
      -7.36849830e-02 -8.03335831e-02 -2.77577750e-02 -2.33430825e-02
      5.45438938e-02 3.17993797e-02 2.05659978e-02 -1.98956802e-02
      -6.87382836e-03 3.04689398e-03 9.50855017e-03 2.55607516e-02
      1.95440203e-02 5.89194596e-02 5.55129535e-02 6.11653998e-02
      1.86198018e-02 -2.86320020e-02 1.25586726e-02 -3.75063694e-03
      2.48802453e-03 1.37393577e-02 1.70124602e-02 2.36529000e-02
      2.87704673e-02 -4.30378644e-03 -4.69569750e-02 -3.22243609e-02
      -8.84150527e-03 2.24770932e-03 4.26472165e-04 4.97183129e-02
      5.90251572e-02 4.91026193e-02 -1.63101237e-02 -6.42102808e-02
      -2.53539160e-03 3.85573530e-03 -1.04563283e-02 3.28649639e-06
      8.20511207e-03 3.62977348e-02 2.21280772e-02 -3.15571651e-02
      -2.19047181e-02 1.98799782e-02 3.58129032e-02 5.34110563e-03
      -6.30491748e-02 -1.29100010e-02 2.62750406e-02 6.13739248e-03
      -8.48991890e-03 -1.59993675e-02 7.27850338e-03 -2.78275553e-02
      -3.65303010e-02 -7.26721138e-02 2.36998554e-02 3.41054425e-02
      5.77258877e-02 -8.52579251e-03 -1.82539821e-02 1.52444523e-02
      4.37607095e-02 2.01027033e-05 -4.77583334e-02 4.51276079e-03
      3.25337462e-02 3.09137348e-02 -1.65355615e-02 -3.42082158e-02
      -3.23890336e-02 -3.79554071e-02 -6.75002262e-02 -9.58912075e-02
      -1.37134921e-02 4.88291830e-02 3.79924811e-02 -5.31515740e-02
      7.33028958e-03 -8.94426648e-03 -6.85002748e-03 -7.78346555e-03
      -4.93184812e-02 -3.99998948e-03 6.73820004e-02 6.58205971e-02
      9.19067673e-03 2.63627823e-02 -5.63915959e-03 -2.13583093e-02
      -6.38702065e-02 -8.93916041e-02 -1.83343012e-02 4.80952300e-02
      5.56415766e-02 8.39109067e-03 -3.76021117e-02 -3.90801877e-02
      -3.73008698e-02 -4.45005484e-02 -1.00443192e-01 -2.05259826e-02
      6.22769594e-02 3.64512317e-02 -2.96705067e-02 -1.18722068e-02
      -4.18710820e-02 -6.04149550e-02 -1.92600433e-02 -7.23738149e-02
      -2.41690390e-02 6.21965416e-02 7.71634579e-02 -1.35080740e-02
      1.64978504e-02 -1.64630320e-02 -4.37054709e-02 -7.28540421e-02
      -6.51999339e-02 1.61438957e-02 2.99843028e-02 1.60156544e-02
      2.18270998e-03 -5.29076811e-03 -1.52203972e-02 -4.07802053e-02
      -9.69223455e-02 -1.19864166e-01 3.50340977e-02 4.94345650e-03
      1.70513317e-02 2.14068242e-03 3.71791124e-02 -3.32698226e-02
      -4.94048409e-02 -3.58300470e-02 -5.41197807e-02 4.81044911e-02
      7.64060766e-02 7.69019574e-02 4.26278710e-02 7.43912824e-04
      -3.93490680e-02 -3.35310288e-02 -1.00712828e-01 -6.22757785e-02
      2.07478981e-02 1.47787081e-02 1.77869927e-02 1.32348910e-02
      -3.00694769e-03 3.55005078e-02 1.56891979e-02 -4.77892496e-02
      -6.01513423e-02 3.12536284e-02 2.00640820e-02 1.57122072e-02
      -1.13667836e-02 2.18430124e-02 -5.86549286e-04 -8.85867141e-03
      -5.74452765e-02 -8.19657221e-02 3.85621656e-03 3.26955281e-02
      3.93462256e-02 1.81462429e-02 3.42235784e-03 -1.16066989e-02
      4.82693454e-03 -7.42101297e-02 -6.07163832e-02 -4.23203362e-03
      2.40887851e-02 2.80139670e-02 1.60138414e-03 -1.52355721e-02
      -1.80415083e-02 -5.36781829e-03 -3.82058583e-02 -1.30757749e-01
      -3.71107198e-02 2.76945028e-02 5.43619171e-02 1.43626928e-02
      3.27621102e-02 -5.04300511e-03 1.32691823e-02 3.09945957e-04
      -3.72572616e-02 -2.30772160e-02 -2.70333188e-03 2.57062856e-02
      3.62296589e-02 3.18691395e-02 -1.14294258e-03 -4.34477720e-03
      -1.41793257e-03 -3.57266068e-02 8.79590493e-03 4.72075045e-02
      4.38614376e-02 3.77167799e-02 -3.79154943e-02 -5.15882485e-02
      -1.41161364e-02 -3.60485204e-02 -1.11077234e-01 -3.48438956e-02
      -3.12090339e-03 3.26019675e-02 -4.35844995e-03 -3.17801372e-03
      -3.90201584e-02 -8.32646433e-03 -3.03606447e-02 -9.18642804e-02
      -3.98761705e-02 2.29427945e-02 2.82362495e-02 7.85338879e-03
      -1.70529187e-02 -2.64921244e-02 -6.93150051e-03 -5.54882362e-03
      -4.55832481e-02 -7.18869828e-03 4.16271798e-02 3.85745354e-02
      1.33640422e-02 -1.49516920e-02 -4.94900718e-02 -4.74615246e-02
      2.03191321e-02 4.57977084e-03 4.05028909e-02 3.90623994e-02
      1.55751333e-02 -2.24354267e-02 -2.56034713e-02 -5.50576076e-02
      -4.83419653e-03 -3.44784483e-02 -4.86991219e-02 -2.51400843e-02
      2.39914786e-02 1.84325334e-02 -2.21238341e-02 -2.39235703e-02
      -4.17316891e-02 1.80403832e-02 -1.06536597e-03 4.96498495e-03
      5.82377873e-02 2.23724190e-02 -1.32305101e-02 -1.92678720e-02
      -4.75862287e-02 -2.41462514e-02 -1.93988699e-02 -6.30732020e-03
      9.71584022e-03 2.91747916e-02 4.46224920e-02 1.95462815e-02
      -3.88052836e-02 -4.54575755e-02 -3.81730720e-02 -1.00635104e-02
      7.96688255e-03 2.05762903e-04 2.65695173e-02 3.18541378e-02
      2.93135773e-02 -3.72564755e-02 -1.28551293e-02 -1.05557134e-02
      -1.73499342e-02 -1.63710434e-02 9.90058947e-03 4.46978919e-02
      3.11814956e-02 3.77789722e-04 -1.00073339e-02 8.65586568e-03
      -2.13171411e-02 -1.64787713e-02 5.02955541e-03 3.72359273e-03
      3.10853049e-02 5.49999513e-02 1.34923710e-02 -1.10876681e-02
      -2.21163556e-02 1.12545339e-03 1.30984420e-02 -1.41177315e-03
      -3.92943770e-02 2.46081110e-02 5.65045178e-02 4.63116765e-02
      -1.32706203e-02 -4.87883352e-02 -5.47543354e-02 -2.57289968e-02
      -5.75952008e-02 -1.05963647e-01 -3.10614193e-03 7.12711439e-02
      8.24322701e-02 -1.20272590e-02 -1.70322452e-02 -2.27298029e-02
      -1.31014111e-02 -9.91796050e-03 -4.29803841e-02 1.07645206e-02
      6.11406900e-02 6.16393313e-02 8.99846014e-03 -7.93229323e-03
      -4.05276418e-02 -1.41963903e-02 -2.32189633e-02 -7.17576817e-02
      -1.68226846e-02 4.13839780e-02 6.89832121e-02 1.74832083e-02
      -4.49796654e-02 -5.93814068e-02 -6.18510619e-02 -5.95066994e-02
      -1.58857435e-01 -4.54305559e-02 4.05025780e-02 4.10523042e-02
      -1.02866981e-02 -2.01060381e-02 -6.20936342e-02 -7.39172325e-02
      -3.88383083e-02 -9.82295051e-02 -2.58559529e-02 4.98199947e-02
      5.87613024e-02 -5.54488413e-03 -1.08436458e-02 -3.94915044e-02
      -3.86666693e-02 -1.72718335e-02 -9.98047888e-02 -6.61098436e-02
      1.07359383e-02 3.95867079e-02 2.77618356e-02 -6.76257815e-03
      -5.29539958e-02 -2.28371900e-02 6.60122931e-03 -9.79101881e-02
      -6.08450361e-02 8.94653890e-03 1.20477397e-02 2.98080351e-02
      -1.33021967e-02 -2.76107490e-02 -7.66567364e-02 -2.45120972e-02
      -1.05743676e-01 6.60506124e-03 2.58184709e-02 4.26320322e-02
      7.04856729e-03 -3.78664397e-03 -8.03827271e-02 -7.68909231e-02
      -6.37659803e-02 -1.13148443e-01 2.56816093e-02 7.85204861e-03
      1.19964583e-02 1.12528950e-02 -3.32613960e-02 -1.03244543e-01
      -6.10931441e-02 -4.14420851e-02 -1.06808029e-01 -1.32221291e-02
      1.76561363e-02 -6.14751014e-04 -1.28905447e-02 -3.62807810e-02
      -7.99326971e-02 -5.08268774e-02 -6.36551529e-02 -1.21234648e-01
      1.18034845e-02 4.18849774e-02 2.31063180e-02 -1.97864734e-02
      2.91239917e-02 -3.01060434e-02 1.50700891e-02 -5.65940440e-02
      -1.12607539e-01 -3.57880793e-03 6.67823944e-03 3.01655266e-03
      1.15007041e-02 -1.40597923e-02 -1.48854870e-02 -2.20341701e-02
      -7.06477091e-02 -1.33928150e-01 -4.13181111e-02 1.74006373e-02
      2.49077622e-02 -4.01924597e-04 2.49707699e-02 -2.67154258e-02
      -3.03309392e-02 -5.50965182e-02 -8.61197487e-02 3.15032117e-02
      6.12246320e-02 5.27635179e-02 2.90655512e-02 2.83588413e-02
      -4.10404103e-03 3.39875370e-03 -4.69557084e-02 -8.35422054e-02
      -1.67746982e-03 6.05433136e-02 5.67455143e-02 4.84894030e-02
      -2.50812545e-02 -2.41288971e-02 -2.35642958e-03 -4.56133820e-02
      -8.93319994e-02 -3.80268060e-02 3.41581404e-02 9.31788981e-03
      -1.06846998e-02 -5.89523790e-03 -1.76951326e-02 3.75638972e-03
      -3.16489823e-02 -6.21125214e-02 -1.88106075e-02 4.36091982e-02
      -1.81040377e-03 4.84054799e-05 3.72482873e-02 3.32738273e-02
      3.78469899e-02 -2.15355475e-02 -6.84017763e-02 -2.08636187e-02
      7.41636679e-02 4.79117446e-02 3.99422534e-02 3.62556614e-02
      4.03385982e-02 4.31642197e-02 -8.60918406e-03 -4.92091551e-02
      -7.38428906e-04 5.23778908e-02 2.30196398e-02 5.66246808e-02
      -2.23186091e-02 -2.03604661e-02 2.60658818e-03 -2.77958903e-02
      -5.04412092e-02 -2.08163299e-02 1.57202110e-02 2.47020996e-03
      -7.65544223e-03 6.09391555e-03 -1.63725019e-02 1.07233217e-02
      -9.27977823e-03 -1.63842682e-02 3.60101163e-02 2.01382004e-02
      4.69721592e-04 6.74502831e-03 -7.77028129e-03 5.93423424e-03
      3.49951349e-03 -1.98549051e-02 -4.66711782e-02 -2.37571169e-03
      1.85093507e-02 1.67026538e-02 1.65365152e-02 1.96672957e-02
      7.16726854e-03 1.34500209e-02 -3.48014273e-02 -9.93324537e-03
      1.67785082e-02 9.66020394e-03 -3.22573306e-03 -2.08159536e-03
      1.22896698e-03 -3.72781307e-02 -3.18060629e-02 -3.96054238e-02
      -2.75868811e-02 2.21468285e-02 1.33538002e-03 -3.24341543e-02
      1.01892864e-02 2.95996238e-02 -3.81569453e-02 -2.04640962e-02
      -1.38398102e-02 -3.42611223e-02 1.11642489e-02 1.17373373e-03
      -2.65106335e-02 4.27662171e-02 6.39724545e-04 -1.97302308e-02
      -1.36249410e-02 -2.96660904e-02 -3.57409343e-02 6.73953816e-03
      -4.68450785e-03 -3.24012674e-02 -1.58279967e-02 7.09306262e-03
      -1.91346053e-02 2.35057138e-02 -2.65121385e-02 -3.41722295e-02
      1.78039039e-03 -1.56808551e-02 -1.64806638e-02 3.88399838e-03
      -5.47521859e-02 -9.57282856e-02 -6.94887340e-02 -3.94461937e-02
      -7.67598376e-02 4.56387876e-03 5.17540537e-02 5.05649745e-02
      -2.21073125e-02 -7.58400187e-03 -7.48329312e-02 -5.13423495e-02
      -3.47642004e-02 -9.91000086e-02 -2.14949604e-02 2.56300829e-02
      6.99996352e-02 1.47376768e-02 -1.31184421e-02 -5.53381182e-02
      -3.53181437e-02 -7.70232524e-04 -6.06121235e-02 1.37954364e-02
      1.65493730e-02 4.51111048e-02 4.85509634e-03 -1.06285065e-02
      -4.74132746e-02 -3.29311341e-02 -2.61924509e-02 -7.22517371e-02
      -1.77505016e-02 2.67607160e-02 6.51612207e-02 3.06089427e-02
      -1.59796979e-02 -5.07942848e-02 -3.59937251e-02 -8.30470817e-05
      -8.92093331e-02 -5.54075688e-02 -2.14785039e-02 1.99586321e-02
      1.57882236e-02 -8.98096431e-03 -3.78982238e-02 -5.59272766e-02
      -1.51050109e-02 -1.15952112e-01 -6.20418228e-02 4.35214536e-03
      1.82325058e-02 1.54831242e-02 1.39386381e-03 -3.91685590e-02
      -3.05610374e-02 -2.11954881e-02 -5.78758679e-02 -8.31053872e-03
      9.33149364e-03 3.67660671e-02 1.82301607e-02 -2.13916097e-02
      -3.58010903e-02 -5.13410121e-02 -1.63765326e-02 -6.97121695e-02
      -6.12297468e-03 -3.95686785e-03 2.01237854e-02 -5.41215576e-03
      -1.79257840e-02 -5.30335456e-02 -3.77516225e-02 -7.72403404e-02
      -9.67623070e-02 -2.67239381e-02 2.17823032e-02 1.98027603e-02
      -7.43121374e-03 -3.77508476e-02 -7.49482512e-02 -6.96340054e-02
      -1.08244866e-01 -1.07428037e-01 1.12218717e-02 5.01067750e-02
      5.41528352e-02 -1.22987051e-02 -3.15550640e-02 -3.24417949e-02
      -4.26981039e-02 -4.00596261e-02 -8.05493593e-02 1.30829951e-02
      1.64372679e-02 1.63747687e-02 -2.31142505e-04 -2.71141045e-02
      -2.40428057e-02 -2.70083081e-02 -4.99087945e-02 -1.05413906e-01
      9.77640413e-03 4.09001559e-02 3.39938477e-02 -7.10946554e-03
      -1.45746991e-02 -1.28990551e-02 -6.37135208e-02 -9.78576615e-02
      -1.39979988e-01 -8.93181656e-03 3.15631479e-02 3.04722805e-02
      5.04324306e-03 -1.55426962e-02 -5.05364093e-04 -9.78056248e-03
      -4.58306558e-02 -1.18268564e-01 -3.72289568e-02 7.07453117e-03
      3.04609835e-02 7.27902073e-03 1.01811122e-02 1.22816646e-02
      8.87189992e-03 -4.48123217e-02 -1.11410566e-01 1.11166034e-02
      6.23876452e-02 5.87262772e-02 2.87680477e-02 -7.68339774e-03
      -1.52302561e-02 9.42652673e-03 -1.56296063e-02 -7.85487145e-02
      -3.39297131e-02 4.13476909e-03 9.09812097e-03 1.19734313e-02
      -3.09950951e-02 2.95339152e-03 1.68356195e-03 -2.93644685e-02
      -1.14897907e-01 -3.76438200e-02 1.03810066e-02 3.22799385e-02
      -1.05624069e-02 -1.50484880e-02 8.53832054e-04 3.53773404e-03
      -2.02247910e-02 -8.90356377e-02 -2.40328014e-02 1.07636573e-02
      1.22007225e-02 1.84208469e-03 7.51584768e-03 1.62060242e-02
      2.89276950e-02 -1.60402358e-02 -5.56210391e-02 -3.52565385e-02
      2.06966959e-02 2.12593284e-02 1.94449015e-02 1.97613444e-02
      2.63429713e-02 4.21188138e-02 -1.00060133e-02 -5.03667220e-02
      -6.98971155e-04 3.83257307e-03 2.92785689e-02 1.78361554e-02
      -2.59465147e-02 -1.23475250e-02 -5.43173810e-04 -3.18512470e-02
      -5.16906157e-02 -1.73081271e-02 -1.02298483e-02 -1.94723289e-02
      -1.54083930e-02 -2.11416483e-02 -2.29099430e-02 2.03762464e-02
      -5.10120541e-02 -4.38746139e-02 -1.62735824e-02 -4.61574532e-02
      -4.22709957e-02 -3.74237746e-02 2.48919278e-02 -7.28069153e-03
      9.63819388e-04 7.85523371e-05 -2.17681155e-02 -2.09631585e-02
      -3.00018750e-02 2.68551172e-03 2.62246616e-02 1.94083937e-02
      -3.23807378e-03 1.18308757e-02 -2.40425691e-02 -3.92782763e-02
      -1.77566567e-03 -4.97235917e-02 -3.56064513e-02 -7.73651409e-04
      -1.92529510e-03 -1.66815403e-03 1.38349943e-02 -3.07397004e-02
      -1.04581779e-02 -1.90404046e-03 -1.07770218e-02 -2.74926033e-02
      -8.48622527e-03 -4.84741060e-03 -1.00818044e-02 1.79831982e-02
      -3.86626385e-02 -6.30074888e-02 -1.23733087e-02 -1.37115559e-02
      -3.19769420e-02 -1.73959124e-03 2.98019107e-02 -7.56508764e-03
      2.42220033e-02 -5.85956965e-03 -2.77865154e-04 4.06279461e-03
      -1.95473433e-02 -1.46585852e-02 -2.44245566e-02 -2.56052036e-02
      -5.75067801e-03 1.39214573e-02 -3.08421217e-02 -4.56570089e-02
      -2.93394662e-02 -3.05672474e-02 -4.46618833e-02 -3.90124917e-02
      -6.33036578e-03 -3.06537990e-02 -2.87159886e-02 7.11964443e-03
      -2.73498986e-02 -1.89622138e-02 3.93825248e-02 2.61967760e-02
      -1.81312952e-02 -1.01886727e-02 -5.30235795e-03 -6.80901716e-03
      -2.05998700e-02 -2.97191888e-02 -1.98659059e-02 4.40581664e-02
      5.39295673e-02 1.50630642e-02 -4.96883094e-02 -3.49939466e-02
      -5.52482530e-02 -1.58648808e-02 -3.59032676e-02 -3.29356045e-02
      -3.75848869e-03 -1.40290335e-02 -3.72441970e-02 -1.94970556e-02
      -2.98997890e-02 -2.73246616e-02 -1.56412777e-02 -2.18001716e-02
      -3.18187363e-02 1.33901201e-02 -1.37123978e-02 -1.80235971e-02
      -6.09900663e-03 -2.91901994e-02 -1.07139582e-02 -3.54157835e-02
      -8.29563513e-02 -4.69355248e-02 1.84193365e-02 2.98816562e-02
      1.68590248e-02 -8.99253879e-03 -5.07942773e-02 -3.28071900e-02
      -2.85490174e-02 -5.40893339e-02 -1.02924611e-02 3.08173653e-02
      4.47754823e-02 1.63168702e-02 -4.08803150e-02 -4.81387191e-02
      -4.14351858e-02 -3.19374800e-02 -3.99420783e-02 -1.65278353e-02
      -2.44658510e-03 -4.28469442e-02 -4.07017358e-02 -4.87088263e-02
      -4.55442369e-02 -4.13175561e-02 -8.97862203e-03 -3.46069261e-02
      -2.14798693e-02 1.76599324e-02 2.01165327e-03 -2.30015423e-02
      -1.61906555e-02 -3.14268544e-02 -5.43384887e-02 -8.43441710e-02
      -7.61314705e-02 -2.06768271e-02 2.21146829e-02 2.31362935e-02
      1.39290839e-03 -9.89765674e-03 -7.92855024e-03 -1.86529830e-02
      -4.92636412e-02 -7.60813132e-02 -2.58837882e-02 2.76655564e-03
      3.45315970e-02 -6.27588620e-03 -2.60061044e-02 -1.74825210e-02
      -5.03812134e-02 -3.66612487e-02 -5.29679097e-02 -1.07459547e-02
      4.38550208e-03 4.02779989e-02 -4.24604584e-03 -1.50712319e-02
      -1.80305485e-02 7.99504016e-03 -1.59362871e-02 -4.55431230e-02
      7.00986537e-04 -3.20624653e-03 4.85932678e-02 5.52947342e-04
      -6.95047143e-04 -1.07120425e-02 5.00809029e-03 -3.49368043e-02
      -7.07613304e-02 -6.70229224e-03 1.92866090e-03 2.33557597e-02
      -6.31261012e-03 -1.37172788e-02 9.50916018e-03 -3.31672207e-02
      -3.62631790e-02 -7.69246966e-02 -4.31619026e-02 -1.97630953e-02
      -2.18209829e-02 2.31621019e-03 -8.29235278e-03 -1.74905714e-02
      1.95096601e-02 -8.02481081e-03 -3.65841761e-02 1.50771942e-02
      -1.23319589e-02 1.60237141e-02 1.27318641e-02 -2.75814086e-02
      -1.08923754e-02 -3.32977204e-03 -9.44132637e-03 -4.53734174e-02
      -5.45209274e-04 -4.88277934e-02 -3.00761741e-02 -2.51274416e-03
      -2.42484715e-02 -4.07065311e-03 -1.33374482e-02 -4.03760113e-02
      -7.58632496e-02 -3.01189702e-02 -9.90223140e-03 -8.18791520e-03
      6.16487209e-03 3.30509880e-04 -2.03513838e-02 -7.29741994e-03
      -2.73895189e-02 -7.27103576e-02 -2.63650659e-02 -2.39492748e-02
      8.20856635e-03 1.36067569e-02 -8.92133918e-03 -1.05586797e-02
      -1.05666481e-02 -3.75106111e-02 -5.87888174e-02 1.39732510e-02
      -2.94636469e-02 -3.74190994e-02 -3.07434401e-03 -2.67757569e-02
      -8.38598050e-03 3.13917175e-03 -1.54736461e-02 -1.55749796e-02
      1.74074005e-02 -1.69196557e-02 -1.42112104e-02 -2.37651076e-02
      2.50166673e-02 7.81365950e-03 1.94046833e-02 3.17515098e-02
      -1.35546585e-03 -1.53054101e-02 -3.86893228e-02 -3.17130657e-03
      3.02580073e-02 2.14940421e-02 -6.64713141e-03 -2.53722956e-03
      -4.63161357e-02 -3.09023615e-02 -1.55712003e-02 -4.41982597e-02
      -2.05594450e-02 2.25205310e-02 -2.79970877e-02 -1.48851480e-02
      -2.50504096e-03 1.51408808e-02 -8.17408133e-03 -7.89374392e-03
      -3.08553185e-02 -2.20761020e-02 -2.16988493e-02 -1.54450694e-02
      -2.99759340e-02 -4.04878929e-02 -9.19490159e-02 -4.18720469e-02
      -3.86208817e-02 -4.70024757e-02 -3.28976437e-02 -3.48969735e-02
      3.62343155e-02 1.18204346e-03 1.57852881e-02 -2.78044213e-03
      5.18549839e-03 -2.29464658e-02 -2.55964026e-02 -6.75369008e-03
      9.84379370e-03 -3.75428819e-03 -5.88337134e-04 1.63667265e-03
      -2.77108233e-02 -1.93736665e-02 -4.24370505e-02 -2.15594396e-02
      -2.79439706e-02 -9.68545955e-03 -3.65045271e-03 -2.85593867e-02
      -3.17010134e-02 -2.16876008e-02 5.96372550e-03 -3.39855440e-02
      -2.52018906e-02 -9.37684067e-03 -3.14177610e-02 -4.95183794e-03
      -4.85958084e-02 -5.60171604e-02 -2.78401971e-02 -1.78467147e-02
      2.37950985e-03 2.66869832e-03 -1.38022704e-02 -2.03307830e-02
      4.24783211e-03 1.88548595e-03 -2.88798232e-02 -2.03569550e-02
      -1.45499464e-02 -3.55766783e-03 1.17603987e-02 3.62090766e-02
      -9.43532970e-04 1.41589213e-02 -9.12080240e-03 -2.52062979e-04
      1.25944533e-03 2.16625631e-02 -2.30966741e-03 4.05246429e-02
      3.73302475e-02 1.16371736e-02 -1.29864141e-02 -2.48034904e-03
      -2.89665591e-02 -6.20885380e-02 -4.24131416e-02 -3.39662768e-02
      -1.13260932e-02 -1.81881562e-02 -2.78602969e-02 -2.15813108e-02
      1.51064340e-02 1.82848684e-02 -1.34227052e-02 -2.74747238e-02
      -4.89307046e-02 2.66089272e-02 1.06662384e-03 -1.80560742e-02
      -2.56781522e-02 -4.89119217e-02 -2.67793946e-02 -1.40326349e-02
      -3.05138249e-02 -5.50876744e-03 3.08582503e-02 8.22608825e-03
      -8.12717807e-03 -3.43593099e-04 -2.01147571e-02 -6.49568718e-03
      -1.90253258e-02 -1.68340746e-02 -8.47630482e-03 2.43263338e-02
      3.50770503e-02 2.36858968e-02 -6.12890348e-02 -2.46911235e-02
      -1.61059422e-03 -3.19200084e-02 -4.26742733e-02 -3.63728181e-02
      6.28258288e-03 6.86348882e-03 -1.56076364e-02 -2.95583438e-02
      -2.50924174e-02 -1.91982593e-02 -2.73106582e-02 2.00649886e-03
      -1.04447119e-02 4.76763863e-03 3.36383330e-03 -5.47920913e-03
      5.86481532e-04 6.15907702e-05 -6.90027373e-03 -4.20318060e-02
      -5.09904586e-02 -2.36531533e-02 -6.79568388e-03 4.47709560e-02
      3.19537334e-02 1.66481007e-02 1.46084288e-02 7.75950216e-03
      9.70486272e-03 -3.50892767e-02 2.30940292e-03 -3.14508425e-03
      2.32004579e-02 3.23457755e-02 -2.92908456e-02 -4.85311598e-02
      -4.57724109e-02 -3.78767662e-02 -2.82992441e-02 2.78799073e-03
      2.06137169e-02 -1.85031779e-02 -2.00153422e-02 -3.87765877e-02
      -4.49901074e-02 -2.94547621e-02 -6.69719465e-03 -5.00310846e-02
      -9.93276481e-03 -2.08468363e-02 -5.57371937e-02 -3.22079025e-02
      -2.26908876e-03 -1.93739578e-03 3.88963744e-02 2.99922321e-02
      -3.96546870e-02 5.53474249e-03 -1.20969778e-02 7.68014090e-03
      1.69804469e-02 -2.12142318e-02 -4.16408107e-03 2.51818877e-02
      2.77104806e-02 -3.11572812e-02 1.65076146e-03 -2.81333756e-02
      -5.66207245e-03 7.29016634e-03 -5.80707379e-02 -6.00539632e-02
      -2.08095666e-02 2.94410065e-03 -5.67742772e-02 -2.02980470e-02
      -4.42879610e-02 -4.77759726e-02 -5.78760877e-02 -6.89062923e-02
      -4.52618450e-02 -8.88399500e-03 1.91375799e-02 -2.01796871e-02
      -5.89367747e-03 -4.78091463e-02 -7.37574929e-03 -6.21236973e-02
      2.80730729e-03 -1.39538515e-02 2.67524249e-03 -6.11539837e-03
      -9.39761009e-03 2.28933687e-03 -3.09952945e-02 -2.40949914e-02
      1.06852530e-02 -2.36737058e-02 -2.05465797e-02 -1.19133554e-02
      9.23884381e-03 1.21758804e-02 3.01676546e-03 -2.43854187e-02
      -3.56879495e-02 -1.23042311e-03 -4.76585254e-02 -4.80262004e-02
      -1.16383890e-02 1.44120248e-03 -1.02809332e-02 -1.14751561e-02
      -3.81333306e-02 -1.55568318e-02 -4.02655080e-02 -4.87510227e-02
      -5.15089929e-02 1.32013913e-02 2.96648331e-02 7.73218321e-03
      -4.05825581e-03 -2.90863719e-02 -4.84705679e-02 -5.29815033e-02
      -2.35599466e-03 1.69111621e-02 3.14723440e-02 4.49904315e-02
      2.47584302e-02 -6.89951610e-03 -1.35450186e-02 -2.38108635e-02
      7.35895056e-03 8.90175719e-03 5.70414914e-03 2.08386965e-03
      -4.62576672e-02 -1.24244001e-02 -1.34412404e-02 -1.11678783e-02
      -3.87142785e-03 -9.24638566e-03 -2.85783261e-02 -5.52225858e-03
      2.16447581e-02 4.12361361e-02 1.20060621e-02 -2.37259641e-03
      -5.57987206e-03 -3.56004089e-02 -2.03880798e-02 -6.44111214e-03
      -2.84814946e-02 -3.55902053e-02 -3.48415859e-02 -6.54873578e-03
      -9.71018057e-03 -7.80520122e-03 -1.65765677e-02 -1.62471626e-02
      1.87697820e-02 -2.34693047e-02 -4.17168066e-02 -3.56808417e-02
      2.16232091e-02 -8.06186162e-03 5.68439346e-03 2.12170072e-02
      -8.06907937e-03 1.30448323e-02 -2.29081977e-02 -4.55633476e-02
      -4.70374664e-03 2.06334256e-02 2.01465283e-02 1.41698141e-02
      2.91387215e-02 1.80984184e-03 -1.28560618e-03 -3.23964953e-02
      -4.40551117e-02 -3.00703254e-02 1.33079542e-02 -1.74603779e-02
      -1.04656611e-02 3.86600778e-03 -7.42140645e-03 1.35658709e-02
      -1.43320346e-02 -1.99822821e-02 9.80812777e-03 2.20303666e-02
      4.85778932e-04 -2.69528199e-02 9.90489032e-03 -1.03650372e-02</_>
    <_>
      4.95489649e-02 2.94166561e-02 2.28936481e-03 1.64426323e-02
      3.77191380e-02 5.40505983e-02 3.58712673e-02 1.04991971e-02
      5.41018471e-02 -1.92651257e-03 -1.39927922e-03 -1.34223411e-02
      -2.47822213e-03 1.44091994e-02 2.25346480e-02 2.81090438e-02
      2.98509654e-02 -9.46532749e-03 9.55326762e-03 -1.80687793e-02
      1.52506065e-02 -3.12629566e-02 1.24027217e-02 3.06245256e-02
      1.66235026e-02 -3.47241876e-04 8.64814036e-03 -4.90142405e-02
      -4.76778522e-02 -5.92815541e-02 5.89090819e-03 5.24265040e-03
      4.36412506e-02 1.89700127e-02 1.64489988e-02 -5.55382520e-02
      -2.80011334e-02 -2.97762454e-03 2.86650173e-02 1.11235371e-02
      2.67933067e-02 -3.63791874e-03 3.05764261e-03 8.75532813e-03
      -5.21228537e-02 -5.34071513e-02 7.44980993e-03 4.69618253e-02
      3.18119675e-02 4.55634855e-02 -8.69696308e-03 -7.24343723e-03
      -4.34512878e-03 -7.61536658e-02 -6.46205917e-02 -8.68623029e-04
      4.97083850e-02 1.53786009e-02 3.16629484e-02 3.26165296e-02
      1.40479226e-02 -1.53799290e-02 -7.77375400e-02 -3.23028676e-02
      3.10440436e-02 5.77817634e-02 3.00962161e-02 2.62913946e-02
      1.96556188e-02 1.26219438e-02 -4.49786074e-02 -6.97501525e-02
      -1.53868841e-02 1.88323401e-03 1.37941670e-02 9.73318703e-03
      3.99502218e-02 1.65219314e-03 -1.12275193e-02 -8.77709500e-03
      -1.99096724e-02 -4.97636897e-03 -1.96509734e-02 -2.24584490e-02
      -5.04036285e-02 6.14037551e-02 3.40606868e-02 3.46332826e-02
      2.37202328e-02 3.86996730e-03 -2.33503152e-02 1.46340709e-02
      9.09089297e-03 -3.92185710e-02 7.09454855e-03 2.09317822e-02
      2.61872578e-02 -3.39953192e-02 -3.46081965e-02 -2.01443434e-02
      2.82007121e-02 2.32493766e-02 -6.64864630e-02 5.14402986e-02
      3.34261507e-02 4.39417623e-02 1.74984895e-02 -2.26802602e-02
      -2.26784460e-02 -1.49960518e-02 -5.73964790e-03 2.17514783e-02
      6.16417676e-02 6.05179816e-02 6.24146424e-02 7.41000995e-02
      -2.15861741e-02 -3.03655025e-02 1.07055251e-02 -6.23361673e-03
      -1.04987167e-03 1.18765431e-02 7.93708339e-02 7.74014071e-02
      7.93036148e-02 -1.61171034e-02 -4.14630286e-02 -1.01669598e-02
      2.85341553e-02 8.95280950e-03 7.36088082e-02 5.27883768e-02
      7.20207244e-02 2.68601906e-02 -1.49834557e-02 -4.27446999e-02
      -1.13245724e-02 -1.31634483e-02 -3.43809500e-02 -1.81970187e-02
      4.85645272e-02 8.57005492e-02 1.81826949e-02 -4.32081074e-02
      2.64216010e-02 1.70234882e-03 -1.68358963e-02 -1.24367280e-02
      1.22787477e-02 5.57366088e-02 8.21183771e-02 3.49960774e-02
      4.88951243e-03 4.60928082e-02 -1.18952971e-02 -2.42201071e-02
      -9.77149513e-03 -1.88451204e-02 1.89930461e-02 5.16288877e-02
      3.40807065e-03 4.57111234e-03 -1.77198723e-02 -3.08609381e-02
      -1.85031649e-02 -6.56975061e-02 -9.59522277e-03 3.85707580e-02
      6.93334192e-02 1.32861675e-03 -4.43791971e-02 1.91578157e-02
      -2.51524113e-02 1.12130633e-02 -4.81828600e-02 -1.80679467e-02
      2.25949828e-02 8.53369981e-02 9.19339340e-03 -2.68423222e-02
      2.95573613e-04 -2.16394756e-02 -6.39910996e-02 -5.66714406e-02
      -1.20766554e-02 -1.31867370e-02 7.46052852e-03 -1.09121716e-02
      -1.89532954e-02 1.17856842e-02 6.46482164e-04 2.85652336e-02
      4.29772250e-02 2.69389600e-02 -2.79701743e-02 -2.24089641e-02
      -2.42555048e-02 1.71047598e-02 -1.15527017e-02 -2.32539698e-02
      -1.81052983e-02 -4.85283211e-02 -1.49948252e-02 6.54749200e-03
      3.39376554e-02 1.61101129e-02 -2.97994586e-03 2.33748853e-02
      6.77865057e-04 1.46723967e-02 2.77891159e-02 2.93138903e-02
      1.50961243e-02 -4.66216850e-04 3.43734305e-03 3.81657742e-02
      3.54518220e-02 -1.62939448e-02 2.71582641e-02 4.23896350e-02
      5.37034832e-02 -6.77586347e-03 -1.66555345e-02 -3.31689999e-03
      4.24166135e-02 1.92573164e-02 -2.20468342e-02 -2.39261594e-02
      -9.46206599e-03 -2.17501801e-02 2.43290677e-03 -3.09633818e-02
      -2.66511217e-02 2.42277533e-02 4.82117832e-02 -3.17533575e-02
      1.07682487e-02 1.53789790e-02 6.06079251e-02 3.13093252e-02
      2.06095655e-03 1.65891442e-02 5.77189364e-02 -1.49524091e-02
      -2.40589734e-02 -6.12461530e-02 -3.23604681e-02 -9.56940115e-04
      1.06660211e-02 -8.65764450e-03 8.39577988e-03 2.18255650e-02
      -9.88805667e-03 -1.63574039e-03 2.27378365e-02 -1.54378489e-02
      -4.43255715e-03 8.11964646e-03 1.33364266e-02 -1.56680029e-02
      -6.80860085e-03 -4.97800522e-02 -2.57147290e-02 -2.64620818e-02
      -1.08203543e-02 3.42086144e-03 2.69351285e-02 1.28295617e-02
      -1.80852003e-02 -3.99824530e-02 -7.30775017e-03 5.53141423e-02
      7.03787878e-02 5.10105081e-02 1.35291070e-02 1.81383993e-02
      1.34043312e-02 7.52780493e-03 -2.23809220e-02 -3.93473692e-02
      6.46710992e-02 4.95534241e-02 5.55503219e-02 7.87399709e-03
      5.50444126e-02 5.05837053e-02 6.27289107e-03 -5.29344156e-02
      8.90369248e-03 8.38271305e-02 7.21387193e-02 2.64725368e-03
      4.94635664e-03 3.89033072e-02 7.09311431e-03 -1.80149060e-02
      -1.97302885e-02 -2.73056030e-02 2.51680668e-02 3.14332396e-02
      -3.47217880e-02 -1.33156022e-02 9.10477340e-03 2.19252873e-02
      -3.16196792e-02 -5.17744161e-02 -2.34209318e-02 1.74060613e-02
      6.30679056e-02 3.79176438e-02 4.88042645e-02 6.38907850e-02
      7.96119571e-02 2.47133896e-02 -3.70305777e-02 -7.72147924e-02
      -6.63222605e-03 2.95063034e-02 -1.80947110e-02 -7.72575056e-03
      1.80599820e-02 5.65924346e-02 7.84366950e-03 -7.97975138e-02
      -1.97606403e-02 2.67245192e-02 2.35370193e-02 -5.83434105e-02
      -7.92616699e-03 2.58688722e-02 3.18465866e-02 -1.57019049e-02
      -2.17273552e-02 -2.17149742e-02 3.87227461e-02 7.19859749e-02
      -3.70856188e-02 7.00538307e-02 2.81582065e-02 3.84691991e-02
      1.64175276e-02 -1.02229491e-02 -4.76057753e-02 6.68782275e-03
      2.53208801e-02 -5.27728647e-02 -1.92708541e-02 3.90753224e-02
      6.80791438e-02 3.22621129e-02 -4.75731641e-02 -3.89450341e-02
      4.36834581e-02 6.44533038e-02 2.74990182e-02 6.44851252e-02
      3.00776158e-02 6.40637055e-02 -6.47132937e-03 -6.14842884e-02
      -3.86075079e-02 -5.89621300e-03 3.04436591e-02 -9.31181666e-03
      5.01062609e-02 2.95320358e-02 6.15080371e-02 1.85875613e-02
      -2.41286326e-02 -6.06750809e-02 1.15593085e-02 2.77811028e-02
      -4.57471833e-02 -2.71317665e-03 4.26961072e-02 6.15449473e-02
      3.67876282e-03 -3.34119499e-02 -5.67165948e-02 2.12331004e-02
      7.84916133e-02 8.23430438e-03 3.97298522e-02 3.61964889e-02
      6.44110516e-02 -2.02156696e-02 -5.31307682e-02 -5.04081100e-02
      2.60521900e-02 6.75554797e-02 -6.19157478e-02 -1.80064142e-02
      3.45130712e-02 5.86725734e-02 -2.80232374e-02 -9.47421044e-02
      -3.40485238e-02 3.19745135e-03 2.50164606e-02 -4.25608791e-02
      3.81770055e-03 4.01856452e-02 4.69477624e-02 -2.46117581e-02
      -2.10696626e-02 1.69023667e-02 9.93465632e-03 1.08944662e-02
      -3.48306671e-02 5.59720118e-03 2.95784939e-02 5.65186627e-02
      -1.67416520e-02 3.79735082e-02 -2.75116097e-02 4.99690883e-03
      2.06895564e-02 -7.27293938e-02 -2.63462886e-02 -1.16394917e-02
      4.21136208e-02 -2.68850755e-02 -4.68968600e-02 -1.56470784e-03
      1.62319746e-02 1.44928163e-02 1.13592623e-02 1.49842175e-02
      9.95156355e-03 3.22551169e-02 -4.76263463e-03 -8.56291037e-03
      1.47956787e-02 -4.24262928e-03 -3.17314044e-02 -1.74152181e-02
      1.58817340e-02 1.22857103e-02 5.20282984e-02 -2.22969651e-02
      2.18699723e-02 3.99779752e-02 1.99174006e-02 -9.24604665e-03
      7.89881742e-04 2.10383274e-02 5.16556539e-02 2.57093478e-02
      3.28417942e-02 4.62577231e-02 -2.67391894e-02 -1.85867082e-02
      -1.42431911e-02 3.16070323e-03 -8.92053079e-03 -1.11835422e-02
      -1.60459708e-02 -1.11207534e-02 -1.57925785e-02 -2.79769283e-02
      -5.39322421e-02 -2.90956870e-02 -8.84776656e-03 -7.35335983e-03
      1.33993039e-02 5.50822355e-02 1.81075130e-02 5.77583164e-03
      3.45680676e-02 -6.97771262e-04 2.10382836e-03 1.64931752e-02
      5.50802648e-02 3.72128636e-02 1.53246932e-02 3.24620269e-02
      5.15004806e-02 -1.65496096e-02 6.57921424e-03 -4.09066901e-02
      -2.75779888e-02 1.18956584e-02 2.36908644e-02 1.10053299e-02
      2.07827389e-02 2.75517523e-04 -8.98017641e-03 -1.53136346e-02
      -1.42670395e-02 -2.41400450e-02 2.21466534e-02 -2.35152649e-04
      5.07643037e-02 3.45736630e-02 -4.93228319e-04 -5.49456030e-02
      8.87724943e-03 -3.71182151e-02 -2.61813104e-02 7.80226476e-03
      -2.80336849e-02 1.11970333e-02 -2.38621756e-02 -7.71088079e-02
      -2.15558279e-02 2.16710586e-02 3.57019566e-02 1.32440096e-02
      -1.77547559e-02 -4.66994047e-02 -4.61532176e-02 -2.10821256e-02
      -2.37790421e-02 -9.06318352e-02 -3.81394066e-02 -2.40250509e-02
      -1.46863749e-02 -2.77934410e-02 1.35531668e-02 2.70387400e-02
      1.36864865e-02 -7.26748705e-02 1.89915430e-02 4.10252661e-02
      4.28624824e-02 6.06820323e-02 -5.89924306e-02 -2.56024264e-02
      -1.99192632e-02 3.76834907e-03 6.16032258e-03 -1.52187357e-02
      8.10988247e-03 8.54453305e-04 7.52428593e-03 -3.62197459e-02
      -2.94473697e-03 3.28677818e-02 1.51789803e-02 -4.03389111e-02
      -6.73041046e-02 -1.38267381e-02 1.58391297e-02 -4.45078267e-03
      -1.62129477e-02 1.46561442e-02 7.50684664e-02 2.26820130e-02
      -5.06721251e-02 -7.08162561e-02 2.48977039e-02 -2.06456129e-02
      -4.70835418e-02 -2.85505373e-02 -1.25521170e-02 3.17873433e-02
      2.49810368e-02 -9.86689180e-02 -4.28457186e-02 1.56182311e-02
      1.48626249e-02 -3.81352343e-02 -1.25443581e-02 1.35738812e-02
      7.85483792e-02 -6.88191084e-03 -6.09300137e-02 -5.64417019e-02
      2.08003633e-02 -5.27223106e-03 -1.39975417e-02 1.98413916e-02
      1.60954390e-02 6.44538552e-02 -7.84454960e-03 -7.79522210e-02
      -6.72575533e-02 1.03393802e-02 -2.92893443e-02 -4.99006584e-02
      -7.07831979e-02 -2.32795198e-02 1.82597116e-02 1.23394821e-02
      -8.69730413e-02 -5.89942522e-02 2.74835210e-02 6.11708201e-02
      -2.10277624e-02 -5.97278215e-02 1.00524360e-02 3.40436287e-02
      -1.56898145e-02 -4.30995822e-02 -2.06811689e-02 2.84304619e-02
      5.28497845e-02 -6.64567295e-03 -2.24459786e-02 1.40797403e-02
      5.91166206e-02 1.67471748e-02 -4.87459414e-02 8.70007556e-03
      5.27281836e-02 9.47301984e-02 2.84945946e-02 2.35096947e-03
      2.07330808e-02 5.26729040e-02 -5.95190516e-03 -5.31147867e-02
      -7.13369399e-02 5.00039384e-02 8.09316859e-02 3.11039877e-03
      1.52981905e-02 2.85559781e-02 5.73688969e-02 9.35109798e-03
      -7.01557174e-02 -8.64797309e-02 9.46609396e-03 5.59168868e-02
      -2.41344869e-02 -5.71255945e-03 2.64190906e-03 4.89632748e-02
      -1.43765965e-02 -1.10578582e-01 -3.13215442e-02 4.57132980e-02
      9.99056622e-02 2.31336579e-02 8.44814535e-03 1.17279906e-02
      6.42430782e-02 1.62234865e-02 -5.11459485e-02 -6.30846694e-02
      1.16576916e-02 5.91373555e-02 9.20994207e-03 -2.16725003e-02
      2.15372201e-02 6.32756427e-02 -7.00814230e-03 -8.43040943e-02
      -4.13405299e-02 4.58632112e-02 4.27227914e-02 8.19693902e-04
      7.70835625e-03 -5.85725009e-02 2.01885048e-02 -2.46529859e-02
      -5.78118227e-02 -2.23658849e-02 4.80198003e-02 6.08906895e-02
      4.21658382e-02 2.42957938e-02 -1.89218372e-02 8.01821647e-04
      2.17966530e-02 -2.59529259e-02 -6.63610250e-02 -3.33609879e-02
      6.10050038e-02 1.63046140e-02 4.70041810e-03 1.87953487e-02
      6.51404709e-02 2.51741596e-02 -4.19699736e-02 -7.40647092e-02
      -4.63799126e-02 7.01976642e-02 2.84481086e-02 1.47739090e-02
      -2.78059226e-02 2.58090850e-02 2.20514666e-02 -6.98039234e-02
      -4.26068455e-02 1.75933056e-02 4.08335812e-02 2.52977312e-02
      1.85619853e-02 -1.66967865e-02 -4.23299056e-03 -2.44734949e-03
      -2.32448932e-02 -3.27986106e-02 -2.00047791e-02 1.12363454e-02
      2.72715501e-02 2.41849292e-02 1.10814231e-03 4.50279601e-02
      2.01691687e-03 -1.43291464e-03 -8.45326558e-02 -6.33902177e-02
      2.45155673e-02 1.11292703e-02 2.64165588e-02 -4.21770141e-02
      -3.50221735e-03 2.85920929e-02 -5.89674860e-02 -1.15397805e-02
      -1.64571386e-02 2.91820616e-02 3.82346511e-02 3.09207756e-02
      -9.38300416e-03 2.43067779e-02 1.55810229e-02 -7.60408211e-03
      -1.30182682e-02 2.15935428e-02 1.80118028e-02 7.95638771e-05
      1.32910004e-02 -1.30989542e-02 3.80795561e-02 1.05854394e-02
      -1.42352264e-02 -5.17503098e-02 -7.44397100e-03 5.34389867e-03
      7.62191927e-03 1.48552214e-03 -1.80911440e-02 1.33824686e-03
      -2.35926826e-02 -5.57702370e-02 -6.34514261e-03 3.69860232e-02
      2.44745035e-02 2.97846086e-02 4.61425297e-02 6.18799869e-03
      2.12085638e-02 2.89775264e-02 3.95310810e-03 -5.95824756e-02
      -2.05173017e-03 3.07398867e-02 3.11554223e-02 3.73582207e-02
      3.31969419e-03 5.61113618e-02 -7.50440778e-03 -4.23652641e-02
      8.75575002e-03 1.84975453e-02 2.30450686e-02 5.45489639e-02
      -3.75545807e-02 -1.88429630e-03 7.94180762e-03 2.27157846e-02
      2.81648636e-02 -2.22182032e-02 -3.97199998e-03 -1.46287447e-02
      -2.62150988e-02 -4.61932607e-02 -7.24705542e-03 6.07000403e-02
      5.40379547e-02 -1.64204519e-02 -1.22198025e-02 2.08720961e-03
      -9.28087253e-03 4.62955376e-03 -4.10609879e-02 -4.55529476e-03
      1.70728881e-02 3.91254760e-02 1.59394909e-02 -2.54120268e-02
      -8.00342020e-03 -5.43944426e-02 -6.44090399e-02 -1.07890494e-01
      -4.81916592e-02 -1.82809366e-03 1.56836323e-02 -2.20531914e-02
      -1.26762679e-02 -4.33285837e-04 -1.85282044e-02 -7.44706616e-02
      -1.06042869e-01 -4.44986969e-02 4.79506813e-02 2.82468777e-02
      -1.30020380e-02 -4.78857160e-02 -1.93415228e-02 -2.62761656e-02
      -6.23320304e-02 -8.98136497e-02 -3.58650903e-03 6.74688444e-02
      1.22485403e-02 -5.38006797e-02 -5.57471737e-02 -1.71320364e-02
      -4.10896204e-02 -9.99547988e-02 -9.77888554e-02 -6.88626543e-02
      2.43929848e-02 1.98713765e-02 -3.00527308e-02 2.11793045e-03
      3.09357196e-02 7.61363283e-02 8.21136497e-03 -5.06582111e-02
      -2.42531896e-02 3.43899168e-02 2.29958910e-02 -7.90796988e-03
      -6.17543459e-02 4.83562984e-03 -3.39130545e-03 -2.66757235e-02
      -1.10273555e-01 -1.80553272e-02 2.00764239e-02 -8.38996959e-04
      -6.74151555e-02 -3.67429368e-02 -4.47672280e-03 1.81687903e-02
      -4.70527783e-02 -1.10691607e-01 -2.57373136e-02 -8.90700240e-03
      -2.50061043e-02 -6.33200854e-02 -4.06351537e-02 3.59717314e-03
      2.32720971e-02 -2.63980757e-02 -1.01338647e-01 -1.81349628e-02
      2.06457283e-02 1.65194031e-02 -6.58455789e-02 -5.89699969e-02
      -4.54734359e-03 1.12721603e-02 -6.17856272e-02 -1.47202760e-01
      -3.70351523e-02 2.23718230e-02 1.37912482e-02 -6.73070475e-02
      -1.29016172e-02 2.77276263e-02 8.43000337e-02 -1.29973264e-02
      -8.41927305e-02 -4.35853899e-02 2.57404372e-02 -1.11972010e-02
      -5.60686365e-02 -8.46537873e-02 -2.55846605e-02 3.44937779e-02
      -3.39833796e-02 -5.33335879e-02 -1.68678071e-02 3.64156510e-03
      -4.56854254e-02 -7.64541253e-02 -1.83318537e-02 1.25594856e-02
      3.80647704e-02 -2.58219000e-02 -7.99297988e-02 -1.77107360e-02
      5.90586215e-02 3.62804942e-02 -3.23896930e-02 -3.86505015e-02
      2.58999947e-03 3.36828753e-02 -2.98353247e-02 -5.20320199e-02
      1.85973886e-02 5.82250096e-02 3.64023959e-03 -5.50181530e-02
      -7.95872733e-02 -2.03847308e-02 3.62157859e-02 3.90021480e-03
      -8.51715915e-03 -7.04863749e-04 3.23271342e-02 -2.17334833e-02
      -6.73347935e-02 -9.45886299e-02 -7.14262575e-02 3.60595994e-03
      2.27823742e-02 -9.13310517e-03 -2.63065547e-02 9.16586723e-03
      -2.48209434e-03 -6.64312094e-02 -5.42934798e-02 2.97082532e-02
      7.30955303e-02 1.13630444e-02 -3.57674714e-03 2.11501233e-02
      7.75979608e-02 4.97796759e-03 -3.62743363e-02 -5.41372299e-02
      3.00488211e-02 7.49820694e-02 6.32703900e-02 3.02814059e-02
      5.42763583e-02 4.06415984e-02 -6.31569140e-03 -4.76467498e-02
      -9.07410532e-02 -5.75503781e-02 1.51572877e-03 7.22967740e-03
      2.76964400e-02 -4.59587388e-02 -2.41342187e-03 7.91661814e-03
      -5.96013069e-02 -1.43596809e-02 -2.06761528e-02 8.53245612e-03
      2.39233989e-02 3.30326445e-02 -2.38855034e-02 7.97615107e-03
      1.97159667e-02 3.18657118e-03 -5.22460490e-02 6.20377576e-03
      3.96364406e-02 7.46744573e-02 1.54171484e-02 2.66772565e-02
      1.23476274e-02 1.15210991e-02 -4.34204005e-02 -1.40400799e-02
      2.69196257e-02 3.77381407e-02 4.54738885e-02 4.65648659e-02
      3.82758048e-03 -1.76266171e-02 2.22934596e-03 -3.47184055e-02
      -1.22232726e-02 4.96831536e-03 1.22389495e-02 2.59324368e-02
      2.89414581e-02 -1.03260996e-02 -2.02100649e-02 -6.54792134e-03
      -5.84610447e-04 -4.25425246e-02 -3.50772962e-02 6.85768062e-03
      4.19084877e-02 4.06123772e-02 -2.06690133e-02 -1.75436512e-02
      -3.55141908e-02 -3.27709019e-02 6.35479949e-03 2.12224349e-02
      2.16905158e-02 4.05425094e-02 2.38109007e-02 1.24388374e-02
      -4.28998247e-02 -1.47088952e-02 1.09496275e-02 -2.01610406e-03
      -1.00501375e-02 5.07392287e-02 5.01707159e-02 1.25521384e-02
      -2.54294481e-02 -5.48333265e-02 -4.60928455e-02 -1.50449835e-02
      -2.07444858e-02 1.42723741e-03 -2.30724588e-02 8.53143446e-03
      -3.56506668e-02 -1.74447298e-02 3.00910007e-02 2.18378250e-02
      -3.57659496e-02 -5.88526540e-02 -2.05040872e-02 -7.71089941e-02
      -8.11539516e-02 -1.19748272e-01 -3.12571861e-02 1.88785587e-02
      -1.48135694e-02 -6.99872524e-02 -2.35987548e-02 -5.81272971e-03
      3.67420539e-03 4.47438657e-02 -3.90427001e-03 1.42163616e-02
      3.87287117e-03 -3.37750954e-03 -2.02521235e-02 -3.54997218e-02
      1.84451528e-02 -3.46318558e-02 -2.33648065e-02 -4.41486090e-02
      -1.95891801e-02 4.03289720e-02 1.55250798e-03 -2.80315820e-02
      -5.76163977e-02 -5.72782476e-03 -2.83658430e-02 -6.33909404e-02
      -1.14502348e-01 -6.66203499e-02 -7.60036288e-03 -1.48892570e-02
      -4.93012182e-02 7.02015543e-03 4.73170094e-02 1.95516460e-02
      -2.60300320e-02 -1.20617315e-01 -3.04430928e-02 3.88597138e-02
      4.11350131e-02 -8.78380053e-03 -9.35699791e-03 2.28022765e-02
      2.34877765e-02 -1.18315928e-02 -5.34614287e-02 -1.65118482e-02
      3.78492847e-02 1.10505363e-02 -2.88790390e-02 -1.04802689e-02
      5.63480966e-02 -1.95716769e-02 -5.58988415e-02 -1.43158734e-01
      -5.70288636e-02 1.73947159e-02 5.72424941e-03 -3.76290977e-02
      1.10730240e-02 2.90534925e-02 1.32129248e-02 -3.25743109e-02
      -1.12174235e-01 -3.16889845e-02 2.15489008e-02 3.18939462e-02
      -4.71020676e-02 -3.44428271e-02 -4.36971989e-03 -2.37593595e-02
      -8.77150893e-02 -1.03635795e-01 1.65725295e-02 5.55221513e-02
      2.44658329e-02 -4.15408723e-02 -2.83832122e-02 2.83627789e-02
      -1.99536271e-02 -5.32179624e-02 -1.51664630e-01 -3.99501659e-02
      8.34800676e-03 -7.69521503e-05 -3.42212990e-02 -4.36039008e-02
      -1.10991113e-02 -7.04403669e-02 -7.26047903e-02 -1.09211139e-01
      1.11610405e-02 3.42816524e-02 6.08028984e-03 -4.44428064e-02
      -1.06672980e-02 2.96329223e-02 -2.94098314e-02 -6.28706068e-02
      -8.04739818e-02 6.28931122e-03 5.80864735e-02 -1.87259521e-02
      -4.29581031e-02 -4.57822494e-02 3.77398985e-03 9.93556436e-03
      -2.89379545e-02 -8.88279974e-02 -1.42988842e-02 2.51260493e-03
      -3.92334349e-02 -7.66588748e-02 -3.96297686e-02 -3.80024174e-03
      -1.01883532e-02 -1.54381152e-03 -6.66064918e-02 7.13923946e-05
      6.80429563e-02 3.60068381e-02 -3.60831581e-02 -5.86618371e-02
      -2.45175678e-02 2.88351229e-03 -1.93021842e-03 -7.41061047e-02
      -2.44037975e-02 9.75333527e-03 -3.10942773e-02 -7.54589438e-02
      -4.65054885e-02 1.00148628e-02 1.84950400e-02 -5.21579571e-03
      -5.36618829e-02 2.46090326e-03 2.78585441e-02 -3.47627955e-03
      -7.24842548e-02 -5.28020933e-02 1.26767776e-03 -5.03087509e-03
      1.13804936e-02 -2.04877835e-02 2.90087108e-02 -1.22404005e-03
      -1.86138935e-02 -6.34122044e-02 -4.90993075e-02 -1.84981674e-02
      2.69422606e-02 -3.32421809e-02 -7.65061229e-02 -2.78374683e-02
      -3.29103577e-03 -2.94895526e-02 -5.82461357e-02 -2.10494082e-02
      -5.53322490e-03 -1.07144145e-02 -1.30203161e-02 -5.84819913e-02
      4.69355844e-02 9.47297085e-03 -9.50861257e-03 -4.46406342e-02
      -2.52198409e-02 2.64870599e-02 -7.26319524e-03 1.73968673e-02
      -4.11138833e-02 6.57563936e-03 -2.99390256e-02 -3.35875973e-02
      -6.44093603e-02 -1.72249824e-02 7.73388334e-03 -1.99414399e-02
      -2.58103162e-02 -1.91554893e-02 -3.46308611e-02 -7.33302385e-02
      -4.00523171e-02 -4.05652188e-02 2.94351298e-03 3.32302451e-02
      -9.54536814e-03 -2.15752423e-02 -7.36710243e-03 2.46354248e-02
      -2.37857527e-03 -8.71366006e-04 -1.88129637e-02 -4.12524538e-03
      1.37118613e-02 -4.89235111e-02 -2.79539526e-02 -1.87724810e-02
      -1.56149371e-02 -7.95335844e-02 -3.09762470e-02 -2.13018041e-02
      -3.48364981e-03 2.08751205e-02 4.64467332e-03 1.04744192e-02
      5.93536114e-03 -3.04134563e-02 -5.11013567e-02 -3.03583257e-02
      2.84504541e-03 -2.00840887e-02 3.87624954e-03 1.29517820e-02
      1.87893733e-02 -2.23001055e-02 -4.98790219e-02 -4.33745794e-02
      -5.78636564e-02 1.59346163e-02 1.46465031e-02 -1.64634828e-03
      -6.85103610e-03 2.94397585e-02 2.00174451e-02 3.90141457e-03
      -3.46168466e-02 -1.65680703e-02 -4.58220439e-03 -2.35396866e-02
      -2.94711962e-02 8.31924006e-03 2.48233639e-02 -8.94874614e-03
      -2.48419475e-02 -2.98022572e-02 -4.39599752e-02 6.50067441e-03
      -2.28362028e-02 -8.51545669e-03 -1.96405761e-02 3.42461728e-02
      1.55265247e-02 5.54410508e-03 1.64610706e-02 2.17847005e-02
      -1.39778880e-02 -2.86768507e-02 2.12261453e-02 7.54300039e-03
      -2.34774053e-02 -2.16856059e-02 3.18265556e-05 4.52781133e-02
      4.98114191e-02 1.84383977e-03 -7.48417899e-02 -6.60856664e-02
      -2.64935363e-02 6.85537308e-02 2.04977347e-03 4.54401374e-02
      -6.20231312e-03 -2.30712704e-02 -6.54643178e-02 -9.02686492e-02
      -8.52008536e-02 -4.16013524e-02 -2.83768885e-02 -3.59594189e-02
      8.45645182e-03 1.93051193e-02 -4.58318219e-02 -6.52801394e-02
      3.20253335e-02 3.33171710e-02 4.88795266e-02 -1.02055417e-02
      -4.42174673e-02 -4.33433354e-02 3.50088887e-02 5.89530393e-02
      3.55925672e-02 -3.25292051e-02 2.60426924e-02 -1.85727812e-02
      -6.06605671e-02 -1.38521373e-01 -8.32509547e-02 2.89268345e-02
      6.13454953e-02 -3.19459401e-02 -4.71231006e-02 -4.13757898e-02
      -3.69891673e-02 -4.97143976e-02 -4.86814231e-02 1.16012748e-02
      -5.23574185e-03 6.57085184e-06 -2.74179466e-02 -5.18345162e-02
      -2.15357542e-02 -4.26947959e-02 -4.14884724e-02 -5.39774932e-02
      -1.46875102e-02 3.09841614e-02 2.94371545e-02 -3.06923948e-02
      -4.55091372e-02 3.43775004e-02 -4.31340970e-02 -4.00457941e-02
      -1.45738959e-01 -6.63587227e-02 2.09068153e-02 2.77159940e-02
      -6.04040250e-02 -1.16922772e-02 3.37542407e-02 -4.34609354e-02
      -6.27477020e-02 -7.12439790e-02 5.39915916e-03 2.65908968e-02
      3.03858537e-02 -1.64160784e-02 -2.52294037e-02 4.64566564e-03
      -4.00868617e-02 -5.40038534e-02 -8.42293650e-02 3.02675733e-04
      4.03282158e-02 4.15813811e-02 -1.05351359e-02 -4.36824840e-03
      2.49717198e-02 1.15698213e-02 -3.55075151e-02 -6.34475127e-02
      1.51855312e-02 1.98743660e-02 4.46284190e-02 4.28693788e-03
      -8.18614475e-03 1.77964289e-02 2.13154051e-02 -1.70228526e-03
      -2.37916671e-02 -2.46635322e-02 1.67595223e-02 1.38237691e-02
      -2.38529369e-02 -3.00743077e-02 -1.16169304e-02 -2.83335969e-02
      -7.70009831e-02 -9.13966298e-02 -5.44185471e-03 8.83806869e-03
      1.56307295e-02 -2.99791768e-02 -3.62551917e-04 1.83204201e-03
      2.90447306e-02 -3.94074172e-02 -4.19831350e-02 1.70695763e-02
      1.01149688e-02 1.71744935e-02 2.22786441e-02 -1.37505410e-02
      5.97018795e-03 -3.94941457e-02 -8.27449337e-02 -6.13639466e-02
      2.21532453e-02 -9.50242206e-03 -2.96256132e-02 -1.31356576e-03
      -2.86193211e-02 -2.92599574e-03 8.92128143e-03 -4.26739752e-02
      -5.66781387e-02 -1.67755429e-02 1.78914124e-04 -4.54257131e-02
      -4.41642143e-02 -2.84305792e-02 4.45049535e-03 5.94971469e-03
      -2.90335063e-02 -5.03916182e-02 3.00845620e-03 2.66793128e-02
      -4.06869799e-02 -2.76649203e-02 2.57820170e-03 1.23409228e-02
      -1.29649322e-02 -6.04289956e-02 -3.89248729e-02 2.55333129e-02
      -6.99839136e-03 -4.14791182e-02 -3.49707692e-03 -2.11422686e-02
      2.39702258e-02 2.29713582e-02 -3.16830166e-02 -2.96918806e-02
      -8.46376549e-03 -1.24182168e-03 -5.66726029e-02 -1.48124993e-02
      1.56871658e-02 3.05469781e-02 -1.06124124e-02 -2.60038041e-02
      -2.36170907e-02 4.20742435e-03 2.72496492e-02 -8.32170062e-03
      2.35071294e-02 -9.39887855e-03 -2.39769313e-02 -5.44414707e-02
      -3.54477242e-02 1.08601227e-02 -1.53342010e-02 -5.39400950e-02
      -2.28915662e-02 -5.21175051e-03 5.14455838e-03 3.33762877e-02
      2.51712520e-02 4.79704980e-03 -4.14184704e-02 1.33310435e-02
      -5.94366247e-05 -1.85809396e-02 -9.53403418e-04 -2.74789911e-02
      -3.52089703e-02 -1.76613107e-02 -2.35925196e-03 3.56982909e-02
      -2.07292084e-02 -3.56273130e-02 -1.48802018e-02 -2.68282667e-02
      2.37748865e-03 7.51053169e-03 8.45460501e-03 2.84417402e-02
      1.13571947e-02 -1.15119964e-02 -3.84939127e-02 -1.71385352e-02
      -9.59364604e-03 -8.13701190e-03 -2.83192750e-03 3.20063485e-03
      5.53104794e-03 3.67326499e-03 -3.60874459e-02 -3.96046937e-02
      -3.40693146e-02 1.94968842e-03 -2.05787625e-02 -3.51045877e-02
      -9.64681711e-03 1.61877871e-02 3.23368683e-02 -3.33640799e-02
      -1.53792528e-02 4.58051078e-03 6.35509472e-03 -2.49631424e-02
      -5.19105121e-02 -5.71799576e-02 -2.68288683e-02 8.11897963e-03
      -3.61653455e-02 -1.89634562e-02 -1.99336708e-02 1.12063957e-04
      -3.90930511e-02 -7.64910365e-03 -1.11392036e-03 7.18358085e-02
      4.00305353e-02 5.45075387e-02 5.12100682e-02 3.53162587e-02
      -5.49166314e-02 -5.25960140e-02 -4.67404686e-02 -2.69312449e-02
      -4.18827757e-02 -3.56287137e-02 2.98418403e-02 5.70749193e-02
      3.32008526e-02 -5.30723259e-02 -8.12548175e-02 -4.85568941e-02
      -3.12491264e-02 3.60063165e-02 2.73930095e-02 3.03126145e-02
      5.42119029e-04 -1.98342837e-02 -8.03611726e-02 -7.87394270e-02
      -2.37071123e-02 -6.53121844e-02 -2.76482720e-02 -4.52889912e-02
      7.63587980e-03 6.45198449e-02 4.55435887e-02 -4.18990925e-02
      -4.96019423e-02 -4.62593511e-02 -6.37080595e-02 -1.15445912e-01
      -7.59492218e-02 1.26454206e-02 2.23484803e-02 3.30312103e-02
      -3.49440612e-02 1.77193172e-02 -1.72064733e-02 -3.66436280e-02
      -7.76909664e-02 -4.19408232e-02 2.14062929e-02 5.06402291e-02
      7.53839612e-02 3.69152613e-02 -7.64381811e-02 -4.48094606e-02
      -8.33559781e-02 -8.41686353e-02 -5.21745086e-02 -3.11851990e-03
      4.65099849e-02 6.18241206e-02 -2.08465778e-03 -1.37548922e-02
      -3.56161632e-02 -4.48120832e-02 -1.03490025e-01 -6.20291680e-02
      -6.12275768e-03 3.10818590e-02 6.23423085e-02 7.10706320e-03
      -9.69387498e-03 1.01371827e-02 -8.68918002e-03 -7.67385587e-02
      -1.09964579e-01 -3.67195122e-02 1.58178063e-05 3.55210006e-02
      2.39545922e-03 -1.48637523e-03 6.31777756e-03 2.97987089e-02
      -3.60093303e-02 -5.11349775e-02 -2.90880352e-02 -7.54585071e-03
      8.31097271e-03 -2.17626542e-02 -4.64249216e-02 -5.41265830e-02
      -4.90166880e-02 -7.46782497e-02 -7.32211843e-02 -4.81703654e-02
      1.59994159e-02 7.80055299e-03 -2.81510316e-02 -5.67750372e-02
      -5.60606606e-02 -1.16989771e-02 -1.50480019e-02 -5.55081926e-02
      -4.04004678e-02 -2.99800420e-03 -3.95538211e-02 -2.17158794e-02
      4.60841111e-04 1.16790468e-02 4.53310087e-02 -6.87873224e-03
      -4.76352796e-02 -2.64018937e-03 1.20844636e-02 1.72710493e-02
      1.16931107e-02 -3.16361152e-02 1.73393637e-02 7.75800087e-03
      -2.50385124e-02 -4.84089442e-02 -2.08900757e-02 -2.36914475e-02
      -4.36933786e-02 -3.28151435e-02 -2.93802861e-02 -4.20029014e-02
      4.27335761e-02 -7.14067253e-04 -6.75378740e-02 -2.44955197e-02
      -7.34328106e-03 -2.10974701e-02 -1.75927859e-02 -5.36021441e-02
      1.14893075e-02 1.60112884e-02 4.24432661e-03 -3.62667106e-02
      -1.89817920e-02 -2.82036737e-02 -6.69361576e-02 -5.61788455e-02
      -1.66825559e-02 1.91944297e-02 -2.22634687e-03 -4.68298309e-02
      -2.01579370e-02 1.15957460e-03 -1.63053293e-02 -4.60677668e-02
      -1.57622378e-02 -3.34125198e-02 1.68081317e-02 3.15507390e-02
      1.01507166e-02 -1.96303111e-02 -2.13725143e-03 -1.98138375e-02
      -3.03501431e-02 -2.09855614e-03 -2.89787147e-02 2.67514810e-02
      4.05923203e-02 1.00075649e-02 2.00129114e-02 -2.71571032e-03
      -1.46538727e-02 -6.30536079e-02 -5.07765114e-02 -4.50633392e-02
      -6.26942422e-03 6.65303841e-02 6.05706200e-02 2.64471490e-02
      -2.21142033e-03 -2.23743990e-02 -4.95187789e-02 -5.27018048e-02
      -8.64655338e-03 2.90341489e-02 4.16862369e-02 4.74039204e-02
      1.27317505e-02 6.65479200e-03 -8.30968283e-03 -1.48036024e-02
      -1.79264275e-03 -2.92416103e-02 -5.86658232e-02 -2.81609613e-02
      -1.04739955e-02 1.73028409e-02 -1.60869099e-02 -6.46680407e-03
      -4.50036059e-05 -1.92253664e-02 -5.11070788e-02 -2.42637470e-02
      2.40315609e-02 4.86530215e-02 -2.09397040e-02 1.42987235e-03
      -2.34160037e-03 -4.11100276e-02 -4.99551967e-02 -4.68615294e-02
      -8.16044435e-02 -7.48870075e-02 3.42613389e-03 -3.51865514e-04
      -1.49118854e-02 -7.49557948e-05 -1.81921832e-02 -3.65085080e-02
      -1.37021311e-03 -5.88222034e-02 -1.22626191e-02 -3.16215232e-02
      3.45734395e-02 -1.05532650e-02 5.70040103e-03 2.89078970e-02
      1.45410346e-02 1.24453171e-03 -3.81362438e-02 -5.36440834e-02
      -2.51269173e-02 3.99136767e-02 -1.65057951e-03 -8.97475053e-03
      7.89633673e-03 1.87115688e-02 9.46454145e-03 -2.81141978e-02
      -3.50572765e-02 -1.87768210e-02 6.94450177e-03 -1.19707780e-02
      1.81030724e-02 3.00466362e-02 2.92014591e-02 1.57701503e-02
      -4.74242494e-02 -2.84567773e-02 -1.46738654e-02 4.14995849e-02
      -2.57129818e-02 -7.23368069e-03 -3.11662257e-03 7.95144588e-03</_>
    <_>
      3.75379110e-03 1.26962475e-02 -1.88803934e-02 -7.64796557e-03
      8.28261860e-03 -7.58910319e-03 3.35206423e-04 3.89197748e-03
      -4.16734052e-04 2.20840611e-02 1.84604723e-03 -1.37294717e-02
      -8.05546716e-03 3.73410969e-03 -4.15803939e-02 -2.83599552e-02
      -2.47109681e-02 -1.67925302e-02 -2.80504879e-02 -6.51300745e-03
      2.20098672e-03 -8.92471895e-03 1.41321896e-02 -1.81242526e-02
      -2.21436527e-02 -1.95279662e-02 -2.48230789e-02 -2.01886948e-02
      -1.40429987e-02 -8.43504537e-03 -6.19321456e-03 -8.25147703e-03
      -4.92709838e-02 -2.73118448e-02 -3.03317644e-02 -3.46440300e-02
      3.38610858e-02 1.08827036e-02 1.82343423e-02 -7.89739366e-04
      2.03021546e-03 -4.24423702e-02 -2.41369549e-02 -3.71408686e-02
      -1.61538236e-02 3.30106681e-03 -1.63135037e-03 3.05166282e-02
      2.91823933e-04 4.44056373e-03 -6.55833483e-02 -3.02905962e-02
      -4.86638211e-02 -3.06995735e-02 -1.47114228e-02 -2.14153733e-02
      1.35794180e-02 -1.36525752e-02 -1.70708783e-02 -4.91362847e-02
      -2.27176175e-02 -4.42075320e-02 -3.18274163e-02 -1.67248361e-02
      -1.99013874e-02 1.25668254e-02 -1.63189564e-02 -2.36681700e-02
      -7.40633085e-02 -3.46880630e-02 -5.05261458e-02 -3.04778032e-02
      1.51721109e-02 -9.17750876e-03 1.45641165e-02 1.20382337e-02
      1.86245386e-02 -5.02474941e-02 -3.15490961e-02 -3.09420042e-02
      1.29209170e-02 1.91293936e-02 -2.75697783e-02 -3.21033150e-02
      -1.75468270e-02 1.64181627e-02 -4.74151485e-02 -2.97704991e-02
      -2.93497927e-02 5.65354247e-03 -2.00671516e-02 -3.46928164e-02
      -1.31790759e-02 -1.49094025e-02 -7.43750017e-03 -6.22394569e-02
      -2.20993161e-02 -2.70983335e-02 -1.70733929e-02 -2.81631388e-02
      -3.30843814e-02 -2.65754145e-02 -4.33703251e-02 -3.35314940e-03
      -6.89221174e-02 -3.55658643e-02 -1.48311732e-02 -9.23004746e-03
      2.19170880e-02 -2.32130736e-02 -3.57974768e-02 -2.02192459e-02
      1.12899067e-02 -1.22123426e-02 -1.29763875e-02 1.19890217e-02
      2.52573378e-02 3.43846949e-03 -1.98463593e-02 -5.49002141e-02
      -2.94880345e-02 1.25018759e-02 1.11356908e-02 2.41657961e-02
      3.21513638e-02 2.41734292e-02 -8.10043979e-03 -2.68203542e-02
      -2.85499431e-02 -4.95092683e-02 5.12620527e-03 -2.58235466e-02
      -1.01907728e-02 8.11026024e-04 1.55608272e-02 -1.19416183e-02
      -3.80753241e-02 -3.19856033e-02 -4.88993488e-02 -8.77328496e-03
      -2.92386133e-02 5.91365527e-03 -5.31269796e-03 1.61337834e-02
      5.98210236e-03 -3.73437256e-02 -4.93929423e-02 -3.42944376e-02
      1.56289879e-02 2.56464109e-02 3.88311483e-02 1.44088194e-02
      2.76011005e-02 -7.12126680e-03 -4.06421237e-02 -5.39184883e-02
      -2.80391872e-02 -4.86664195e-03 -2.28159018e-02 1.55511256e-02
      -1.16418926e-02 2.74998765e-05 -9.70759150e-03 -3.35762538e-02
      -4.07656059e-02 -4.31137308e-02 -6.70294790e-03 -9.45844781e-03
      1.93393454e-02 -4.30401927e-03 1.21878535e-02 1.22755291e-02
      -3.55236456e-02 -2.03649607e-02 -2.79642027e-02 -4.61486168e-03
      -1.24026509e-02 1.38503965e-02 -7.47946836e-03 1.52778700e-02
      -1.10652922e-02 -3.52699198e-02 -4.95736077e-02 -1.60170477e-02
      1.40639413e-02 -3.04337256e-02 1.34326899e-02 2.71556061e-03
      8.21385160e-03 -1.03940144e-02 -4.06342484e-02 -3.77521925e-02
      -2.62598577e-03 1.82463918e-02 -2.19825190e-02 1.31887356e-02
      -1.68777688e-03 -6.71394635e-04 1.91878956e-02 -4.26261984e-02
      -2.92904172e-02 -1.03681479e-02 1.80009883e-02 -1.57859474e-02
      1.16184363e-02 1.42447930e-02 3.39154378e-02 2.94510666e-02
      -3.38336192e-02 -3.49829122e-02 -1.34369247e-02 2.31493190e-02
      -1.81233417e-02 1.37294130e-02 1.04979090e-02 3.40375789e-02
      -1.43849873e-03 -3.88725623e-02 -2.62596421e-02 5.59921330e-03
      1.58224236e-02 -7.74350297e-03 9.94578190e-03 -2.32561142e-03
      2.08587945e-03 -8.78277235e-03 -3.50807123e-02 -4.02077399e-02
      6.83484599e-03 2.35101897e-02 2.04426143e-02 9.18259379e-03
      5.52598713e-03 1.31690325e-02 1.57507528e-02 -3.11266128e-02
      -3.45504619e-02 -1.46710118e-02 2.28580851e-02 -1.39712524e-02
      2.08046529e-02 1.23616867e-02 2.22975705e-02 2.99741025e-03
      -2.17318498e-02 -4.29742225e-02 -1.20751867e-02 1.99844688e-02
      5.86322567e-04 1.61107276e-02 5.26831625e-03 1.50764445e-02
      -6.65554032e-03 -4.11577243e-03 2.09549791e-03 3.12749520e-02
      1.07807629e-02 -2.31923182e-02 -4.68798243e-02 -4.21770625e-02
      -1.15934759e-02 -1.57704893e-02 -1.25141358e-02 1.49474442e-02
      1.69832781e-02 -4.33922652e-03 -4.82443832e-02 -3.27581763e-02
      -3.78169939e-02 -2.96797119e-02 -9.17871390e-03 1.57802703e-03
      2.99645644e-02 3.83153185e-02 1.22992415e-02 -5.37009388e-02
      -3.63188088e-02 -5.22430688e-02 -2.13477258e-02 -1.97868086e-02
      1.55908074e-02 7.96766020e-03 1.59315858e-02 -1.52286198e-02
      -6.00383244e-02 -3.34353410e-02 -3.65302935e-02 -2.63938643e-02
      -1.05813332e-02 -2.25565513e-03 2.37117689e-02 1.05454363e-02
      -9.17134341e-03 -3.77319939e-02 -1.22931814e-02 -2.81211063e-02
      -1.41400816e-02 -3.70289870e-02 -1.88079923e-02 -1.09282071e-02
      -2.39354428e-02 -1.83169898e-02 -6.07339107e-02 -2.90846117e-02
      -2.74183452e-02 -1.66111030e-02 -2.05355603e-02 -3.15922201e-02
      -5.00776106e-03 -9.53802560e-03 -1.65724587e-02 -4.87803593e-02
      2.39425637e-02 -1.44119561e-03 -2.47893594e-02 -6.10123277e-02
      -5.27517907e-02 -1.19509408e-02 -3.19244415e-02 -2.60726288e-02
      -7.89454728e-02 -6.38517877e-03 -2.23448630e-02 -1.48563422e-02
      -2.01487448e-02 -1.26302172e-03 6.92327647e-03 -1.52789624e-02
      1.36075150e-02 -3.79497968e-02 -1.59208383e-02 -1.31134344e-02
      3.25167039e-03 -3.15341391e-02 -2.05025822e-02 -6.77543879e-03
      -4.80135307e-02 -3.26546072e-03 -5.27415164e-02 -9.47223138e-03
      -1.76100247e-02 -1.59178339e-02 -2.67140064e-02 -3.51124890e-02
      3.03234928e-03 -3.24948877e-02 1.14642514e-03 -3.46621424e-02
      9.21516400e-03 -3.72543489e-03 2.28858017e-03 -1.65744815e-02
      -1.12248398e-02 -4.60208888e-04 -3.78674902e-02 -1.22566046e-02
      -5.91249317e-02 -1.69365853e-02 -4.82065864e-02 -2.68838853e-02
      -1.19139813e-02 -2.15595085e-02 -3.28323022e-02 -4.79454808e-02
      -8.24307930e-03 -1.98564548e-02 1.04038361e-02 7.26273702e-03
      1.85453575e-02 -8.17609765e-03 -1.72530934e-02 -1.86009221e-02
      -3.82118113e-02 -6.68541063e-03 -2.84644794e-02 -1.04190186e-02
      -1.81840491e-02 1.23492926e-02 -1.29172411e-02 5.03248302e-03
      8.47439282e-03 -5.27321883e-02 -3.20016406e-02 -3.22030634e-02
      -4.36084066e-03 -3.64044048e-02 -1.50405327e-02 -8.98897124e-05
      -5.44209220e-03 -8.93115252e-03 -6.00467995e-02 -2.83221938e-02
      -4.83052693e-02 -2.33562328e-02 -5.02368212e-02 -1.42216766e-02
      1.39469430e-02 1.86286122e-03 -1.88650060e-02 -2.54450738e-02
      -3.23767774e-03 -1.49650946e-02 -2.43759397e-02 -2.54170951e-02
      1.67912189e-02 1.45881213e-02 -2.49267351e-02 -3.14506069e-02
      -2.55383942e-02 4.46669105e-03 -8.00160877e-03 -5.70870657e-03
      -1.60434823e-02 1.56751052e-02 7.27269193e-03 -1.89456642e-02
      -4.15726192e-02 -5.21059595e-02 4.02706163e-03 -4.37924452e-02
      -3.51994522e-02 -5.57212718e-02 -1.08374944e-02 -9.26043000e-03
      -3.61110680e-02 -1.39922379e-02 -2.21309084e-02 4.63547697e-03
      -4.07734998e-02 -1.04163857e-02 -4.90650050e-02 -9.19349492e-03
      1.24324653e-02 -4.38847654e-02 -5.01983538e-02 -2.88383830e-02
      1.34411054e-02 -7.83173088e-03 5.48159471e-03 -7.77235301e-03
      2.19434835e-02 1.30781168e-02 -4.06264439e-02 -4.60343361e-02
      -1.99093949e-02 5.71677415e-03 -1.43414224e-02 6.36722054e-03
      1.31256999e-02 1.96851343e-02 -5.22510521e-03 -4.12377901e-02
      -4.65259962e-02 -2.04275250e-02 2.07131971e-02 -2.84606703e-02
      -4.55819210e-03 -2.61498094e-02 -5.28874481e-03 -4.81548673e-03
      -4.31297645e-02 -4.22007367e-02 -3.90574560e-02 2.24664398e-02
      -2.66244728e-02 -4.85800998e-03 -3.79821751e-03 1.62800010e-02
      -2.60430970e-03 -2.20515151e-02 -3.68661359e-02 -1.57578923e-02
      2.57651731e-02 -9.67515726e-03 1.79506876e-02 1.76398791e-02
      1.59308352e-02 -5.76779759e-03 -1.55184232e-02 -4.81848791e-02
      -3.43837626e-02 1.87830981e-02 2.57488503e-03 1.68428700e-02
      8.82654637e-03 7.21433142e-04 -1.16867982e-02 -1.84313282e-02
      -4.65244465e-02 -4.43686768e-02 4.08799723e-02 -1.54432245e-02
      2.95416135e-02 -6.14556205e-03 1.24899345e-02 4.18798486e-03
      -3.27744638e-03 -2.89517455e-02 -2.50637047e-02 3.75475325e-02
      4.38822713e-03 1.52909141e-02 -2.55447719e-03 5.81217697e-03
      -8.42176285e-03 3.35649517e-03 2.96330396e-02 3.28475982e-02
      3.31908353e-02 -4.23751958e-02 -4.24139947e-02 -4.37232219e-02
      7.26922997e-04 -3.26148532e-02 -1.57184452e-02 -1.82383545e-02
      -5.90406684e-03 -2.02121329e-03 -5.31617142e-02 -4.04362641e-02
      -3.18061709e-02 -1.44854607e-02 -2.64548082e-02 -2.18402152e-03
      3.82468402e-02 2.56567691e-02 3.03617325e-02 -1.54994186e-02
      -5.51757365e-02 -4.36755084e-02 -3.26260924e-02 -3.19163576e-02
      -2.18793340e-02 2.56654457e-03 -1.18587920e-02 8.57491512e-03
      -5.03518693e-02 -6.32325560e-02 -6.76306114e-02 -4.51762453e-02
      -3.28111462e-02 -3.14461701e-02 -1.43543724e-02 -1.09617002e-02
      -9.59794037e-04 -5.43911941e-02 -3.38092027e-03 -5.67205576e-03
      -1.53948627e-02 -4.96365838e-02 -4.00155038e-02 -6.67625759e-03
      -4.15589362e-02 -1.51436906e-02 -6.77956939e-02 -2.37538293e-03
      -6.63203560e-03 -3.34720872e-02 -3.88954021e-02 -1.20057855e-02
      2.50352900e-02 -8.53456836e-03 1.94082293e-03 -5.68274446e-02
      -2.58937385e-02 -4.34756614e-02 -3.33553962e-02 -4.16836143e-02
      -1.83064267e-02 9.61866695e-03 -1.61011349e-02 1.60422716e-02
      -4.65400107e-02 -5.01642842e-03 -9.09796264e-03 -5.30126765e-02
      -2.57139411e-02 -2.25512758e-02 -1.82194430e-02 -4.45936285e-02
      -2.81695370e-02 -3.92474458e-02 -7.74640299e-04 -1.78818945e-02
      -4.55094762e-02 -3.26443426e-02 5.00235874e-05 -4.05843323e-03
      -4.32315394e-02 -5.21907620e-02 -6.49097040e-02 -4.94780168e-02
      -6.25323728e-02 -5.21397740e-02 -2.79702321e-02 -7.84631912e-03
      8.19942262e-03 -3.21037248e-02 -3.19092744e-03 -3.00644524e-02
      2.52619572e-02 -2.30400637e-02 -4.83456925e-02 -1.60638988e-02
      3.29860440e-03 9.47764982e-03 -2.99103670e-02 -2.76640691e-02
      -7.44684860e-02 -4.55999337e-02 -6.12811632e-02 -6.05767593e-02
      -6.05812669e-03 3.85996103e-02 2.17533782e-02 -1.78292766e-02
      5.81006473e-03 -1.89172197e-02 -1.05183600e-02 -2.45739669e-02
      -2.05322057e-02 -1.04036769e-02 -1.10786967e-02 -2.20396370e-02
      -6.05997071e-02 3.13364784e-03 -3.21792662e-02 -7.56176282e-03
      -2.34297216e-02 -3.14493962e-02 1.56433303e-02 1.03870612e-02
      2.44196579e-02 -1.20827463e-02 6.57554367e-04 -4.38857079e-02
      -9.38471779e-03 -1.89144332e-02 -2.63333563e-02 -7.87046924e-03
      -2.98633985e-02 -1.04938578e-02 -4.47229147e-02 -1.83773115e-02
      -5.15008196e-02 -2.66182087e-02 -2.38156859e-02 -2.96655744e-02
      3.27672809e-03 -1.95942563e-03 -1.15500959e-02 -1.95724703e-02
      2.18157414e-02 -3.19704525e-02 -2.79639773e-02 -2.57545542e-02
      -4.79007419e-03 -2.77316198e-03 -6.55350275e-03 -1.17110517e-02
      1.07829720e-02 3.87345739e-02 -2.80215107e-02 -1.45816142e-02
      -2.30501611e-02 -5.50191011e-03 -2.12663915e-02 -5.05772717e-02
      -2.21118219e-02 -1.39323911e-02 1.46154389e-02 -4.47788872e-02
      -3.62513699e-02 -3.74864154e-02 -1.70058310e-02 -4.24293987e-02
      -4.10933495e-02 5.12144016e-03 -6.59763021e-03 2.20866706e-02
      -5.40473126e-02 -3.24542150e-02 -4.69577424e-02 -2.88122203e-02
      4.56186885e-04 -9.16764699e-03 -2.10245531e-02 2.87199765e-03
      5.68967797e-02 -1.49702858e-02 -1.48673626e-02 -9.54693276e-03
      1.20993620e-02 -4.83090803e-03 -1.78017635e-02 -3.60231921e-02
      -1.26782926e-02 7.24973530e-02 2.73876387e-04 5.35460468e-03
      -3.03316931e-03 4.17110696e-03 -4.31352146e-02 -4.71945740e-02
      -4.11442220e-02 -1.19369254e-02 3.55613232e-02 -3.87091376e-02
      -1.54690351e-02 -1.66686028e-02 -3.54331136e-02 -3.19845416e-02
      -5.78840822e-02 -2.51974128e-02 -3.29569262e-03 4.03364152e-02
      -1.28203603e-02 -1.06699076e-02 -1.32936593e-02 -2.77232416e-02
      -1.77065358e-02 -2.35350765e-02 -2.88480967e-02 -1.55140599e-02
      5.46680838e-02 -6.65250409e-04 2.34724637e-02 -5.46748703e-03
      -6.39963662e-03 1.12268096e-02 -1.62674468e-02 -2.09617671e-02
      7.74042634e-03 4.40167263e-02 2.11941767e-02 -4.27109096e-03
      -1.04628680e-02 1.60518591e-03 -3.70486341e-02 -3.89552340e-02
      -2.68596224e-02 -2.02510748e-02 4.10500132e-02 -1.24942884e-02
      -3.02415201e-03 -7.23242946e-03 -3.27001289e-02 -1.42709697e-02
      -2.00205985e-02 -3.24421711e-02 -1.22288968e-02 4.25872244e-02
      -4.87497915e-03 1.25961630e-02 -2.16618516e-02 -2.10024603e-02
      -1.72025226e-02 -1.03409691e-02 7.82737788e-03 1.78207643e-02
      1.90873332e-02 -2.28178278e-02 -5.23245968e-02 -5.05498014e-02
      -2.63395421e-02 -2.35416740e-02 -3.29826400e-02 7.11405510e-03
      -8.57125968e-03 1.46137206e-02 -5.06389551e-02 -5.42875379e-02
      -5.55088483e-02 -3.85750905e-02 -2.03086790e-02 -1.18502351e-02
      4.42027580e-03 -5.84837561e-03 1.72081403e-03 -3.10892947e-02
      -2.70650741e-02 -1.76841859e-02 -9.28868540e-03 -2.29547005e-02
      -2.88312845e-02 5.43202413e-03 -1.31295519e-02 1.76780543e-03
      -4.81653847e-02 -5.63073233e-02 -2.31717527e-02 -1.88923217e-02
      -3.19358408e-02 -3.17500047e-02 -5.39777242e-03 -2.12623235e-02
      -2.03304421e-02 -5.47591969e-02 -6.11526743e-02 -3.83345708e-02
      -2.97606904e-02 -5.08690029e-02 -2.05295589e-02 4.37000890e-05
      -1.82431731e-02 -2.32541189e-02 -3.89398672e-02 -2.31706332e-02
      -3.32327895e-02 -4.84932512e-02 -2.58591883e-02 -3.02608814e-02
      -1.64874829e-02 -2.72387993e-02 -1.70946438e-02 -7.26078004e-02
      -6.36175200e-02 -1.74140185e-02 -8.29165615e-03 -2.44352184e-02
      -9.21061542e-03 2.32237689e-02 -2.04544943e-02 -2.37271525e-02
      -9.48931798e-02 -8.15189406e-02 -5.33250086e-02 -2.72056796e-02
      -3.96592356e-02 1.16532976e-02 3.53306951e-03 -1.49502000e-02
      -2.23285854e-02 -1.18204830e-02 1.16836862e-03 -3.09230592e-02
      -4.55256142e-02 -2.08083019e-02 -1.58938523e-02 -2.26451382e-02
      -2.90629007e-02 -4.75774594e-02 -3.51199582e-02 -3.32573168e-02
      -5.45822456e-02 -6.20708726e-02 -3.21422741e-02 -2.24221461e-02
      -1.15522984e-02 -3.56943645e-02 -3.95989195e-02 -6.16900139e-02
      -3.17790210e-02 -2.78540850e-02 -4.24009785e-02 -3.73099335e-02
      -3.83289680e-02 -5.81016093e-02 -5.48969619e-02 -5.69949187e-02
      -5.54034151e-02 2.21762573e-03 -1.52970543e-02 -3.32667790e-02
      2.25838348e-02 1.89114325e-02 1.81776732e-02 1.46503258e-03
      -1.26876570e-02 -3.51285860e-02 -5.02144406e-03 -2.27456614e-02
      -2.53437050e-02 -2.10050344e-02 -3.79852653e-02 -2.24238783e-02
      -4.42331508e-02 -4.21032906e-02 -5.99864274e-02 -2.99506318e-02
      -3.20122465e-02 -3.26800458e-02 2.93706660e-03 -7.42355501e-03
      -3.55071872e-02 -3.53897847e-02 -2.50082854e-02 -3.38136181e-02
      2.73264926e-02 9.03791934e-03 -1.08923495e-03 -2.20486615e-02
      -3.33145522e-02 -2.55220290e-02 -6.18645921e-02 -2.82624103e-02
      -6.98407888e-02 -5.10867918e-03 -5.26280189e-03 -2.06130706e-02
      -2.10544430e-02 -2.03516241e-02 4.54906933e-03 5.21483249e-04
      1.56635456e-02 -4.51504141e-02 -2.05183923e-02 -4.12562676e-02
      -3.38757485e-02 -3.55964117e-02 -2.61346530e-02 9.88921244e-03
      2.19039489e-02 2.79084016e-02 -5.61477914e-02 -3.61361913e-02
      -5.61489649e-02 -4.44432124e-02 -2.00824942e-02 -2.15835776e-02
      1.42418053e-02 -1.41018489e-02 7.74795469e-03 -5.34693748e-02
      2.18421649e-02 -6.17177365e-03 -1.08287660e-02 -3.82202081e-02
      -2.32144706e-02 9.73401684e-03 1.09258480e-02 1.27740465e-02
      -4.44362573e-02 -2.48923954e-02 -3.57272401e-02 -2.63508689e-02
      -2.45217029e-02 -2.86786817e-02 -2.39062384e-02 1.20385615e-02
      4.78521883e-02 -2.26447452e-02 -1.70054697e-02 -1.60166621e-02
      -3.05388663e-02 -2.34063193e-02 -3.11903879e-02 -1.14348317e-02
      1.30867278e-02 7.42900968e-02 -1.18074529e-02 -1.56897423e-03
      1.02122519e-02 -1.42521588e-02 -3.31942067e-02 -2.72368938e-02
      -1.02339843e-02 -8.79395381e-03 4.15179357e-02 -1.90300774e-02
      -1.37994410e-02 -1.66221466e-02 -1.93478707e-02 -1.89932194e-02
      -1.63182504e-02 6.94234017e-03 3.56669445e-03 7.13033080e-02
      -1.79087985e-02 -1.34248044e-02 -2.09165439e-02 -1.79785788e-02
      -2.62703858e-02 -2.96366755e-02 -2.19759662e-02 -2.17906125e-02
      3.69909368e-02 -1.22953402e-02 -8.94773845e-03 -9.07581113e-03
      -1.40087400e-02 -1.15880249e-02 -1.69860926e-02 -1.96352694e-02
      9.09553899e-04 5.25250658e-02 1.49257062e-03 5.17152296e-03
      -1.44682471e-02 -1.41119817e-03 -4.73231412e-02 -3.55295390e-02
      -1.11373654e-02 -8.33529420e-03 4.21797112e-02 -1.49160968e-02
      -2.93247066e-02 -3.37096602e-02 -2.34086663e-02 -1.89765785e-02
      -1.79333743e-02 3.18837687e-02 3.16535607e-02 5.72150648e-02
      -4.31232061e-03 -3.83336283e-02 -2.18385514e-02 -1.84777007e-02
      -4.19706851e-02 -2.80709751e-02 -1.26829296e-02 -4.17729374e-03
      -3.29214660e-03 -3.11511252e-02 1.15142688e-02 1.71779934e-02
      -1.59996152e-02 -4.80912812e-02 -4.77375463e-02 -9.73048795e-04
      -2.34018229e-02 -2.53999103e-02 -4.26410846e-02 -2.62328461e-02
      -1.39010865e-02 -3.22018862e-02 -4.32808436e-02 -4.18799631e-02
      -1.43779134e-02 -1.69431942e-03 4.97915258e-04 -3.54819223e-02
      -3.18679435e-04 -3.07580410e-03 -2.89593432e-02 -5.87980002e-02
      -3.59026492e-02 -1.93273500e-02 -4.25915532e-02 -1.90271810e-02
      -4.70388904e-02 -2.84324139e-02 -3.70734893e-02 -3.71626355e-02
      -1.95937753e-02 -7.59169809e-04 3.34709100e-02 -3.86891584e-03
      -3.25476099e-03 -3.10777090e-02 -3.09503488e-02 1.24617042e-02
      1.38494559e-02 -4.36120294e-03 1.19094234e-02 1.11571886e-02
      -3.86170708e-02 -3.18788551e-02 -7.16528073e-02 -2.87077967e-02
      -3.34090297e-03 -4.63938108e-03 -2.98825372e-02 -6.35242462e-03
      1.12360744e-02 -3.01931351e-02 -8.32307991e-03 -2.91522406e-02
      -2.01447457e-02 -2.51072161e-02 -3.53018753e-02 -5.40458225e-02
      -1.85323656e-02 -1.93325151e-02 -7.30240718e-02 -5.43713532e-02
      -6.47586733e-02 -1.67601258e-02 -2.84161456e-02 -5.35773933e-02
      1.25621995e-02 1.80956125e-02 2.33382937e-02 -4.27387748e-03
      1.36615697e-03 -4.59338352e-02 -2.05211900e-03 5.08948136e-03
      1.82625023e-04 -1.44144986e-03 -4.84008389e-03 -5.03833741e-02
      -3.96490023e-02 -1.53455501e-02 -2.02857237e-02 2.58220658e-02
      1.78520177e-02 -1.48354250e-03 -5.12932464e-02 -3.04625072e-02
      -9.14741028e-03 -3.76736857e-02 -5.98718412e-02 -5.84518276e-02
      -1.60036124e-02 -2.96202563e-02 -4.16308418e-02 -4.00241241e-02
      -4.48298305e-02 -5.75856641e-02 -5.37726358e-02 -4.97448221e-02
      -5.82343824e-02 -1.71682741e-02 -3.67932096e-02 -4.62553874e-02
      8.01276974e-03 1.55208157e-02 -3.61416340e-02 -3.74766700e-02
      -1.83970574e-02 -2.43505165e-02 2.82437634e-02 1.68139990e-02
      1.80653185e-02 -1.61191020e-02 -9.94468480e-03 2.90513714e-03
      -2.73932219e-02 -2.55671404e-02 -6.31580278e-02 -5.06838737e-03
      -6.28032675e-03 -3.17550823e-02 -3.70268673e-02 -2.27911025e-02
      -1.97653063e-02 -3.32851745e-02 -1.39931934e-02 -5.04426993e-02
      1.35300262e-02 -5.82644064e-03 -3.04759555e-02 -5.34790531e-02
      -3.48400660e-02 -2.98440810e-02 -4.11102399e-02 -1.18761975e-02
      -5.24995513e-02 -2.09039506e-02 -7.02881441e-03 -2.36045588e-02
      -2.00123675e-02 -1.83113441e-02 4.25245846e-03 -6.81401091e-03
      1.46361664e-02 -4.59831692e-02 1.29635138e-02 4.02872544e-03
      -2.50564571e-02 -4.22158726e-02 -3.73835973e-02 -1.52962906e-02
      -6.06999034e-03 2.55026985e-02 -3.10459360e-02 4.52391477e-03
      -2.35976800e-02 -1.61952749e-02 -1.62982885e-02 -1.57331508e-02
      -4.76503558e-02 -3.95551734e-02 1.54994922e-02 -5.31233288e-02
      2.15396867e-03 -9.72178858e-03 -5.21439500e-03 6.77403901e-03
      -2.69590877e-02 -2.05185581e-02 -1.70434769e-02 3.69684733e-02
      -3.08106188e-02 -4.97259153e-03 -2.20699552e-02 -3.46926809e-03
      -3.33432928e-02 -5.00734486e-02 -2.13824157e-02 -3.15976478e-02
      1.82282198e-02 -2.09634472e-02 -1.98861342e-02 -4.74322662e-02
      -2.44963113e-02 -3.71744484e-02 -4.35976237e-02 4.10349481e-03
      -9.93234944e-03 5.70550002e-02 -3.88445184e-02 -4.76000682e-02
      -6.32350817e-02 -2.70489678e-02 1.40583419e-04 -4.20094766e-02
      -2.78271884e-02 -3.91705409e-02 3.98323908e-02 -3.25095095e-02
      -1.80173162e-02 -3.99845205e-02 -1.50870532e-02 -1.08312191e-02
      -2.05766913e-02 -1.55309832e-03 1.07847387e-02 4.79580015e-02
      -4.68782298e-02 -6.74241409e-02 -6.32405579e-02 -1.75219234e-02
      -4.75309156e-02 -2.80802771e-02 2.96913683e-02 -2.36238629e-04
      4.24153358e-02 -3.38348188e-02 -4.23338003e-02 -4.66250665e-02
      -1.98151655e-02 -3.68581936e-02 -3.15745473e-02 3.75183783e-02
      2.15637553e-02 2.95762420e-02 -3.10078990e-02 -4.37727496e-02
      -2.78102737e-02 -1.71145499e-02 -1.68704037e-02 -2.50976924e-02
      2.86787469e-02 1.64084192e-02 2.93714702e-02 -5.11018895e-02
      -6.98814392e-02 -5.58834225e-02 -3.46303359e-02 -1.80238523e-02
      -2.83724703e-02 2.38970593e-02 1.13224573e-02 6.47245301e-03
      -3.81616913e-02 -5.21062128e-02 -3.24470811e-02 -2.03425065e-02
      -5.85685112e-03 -1.96326766e-02 1.21207982e-02 1.91541053e-02
      4.73722331e-02 -1.73804481e-02 1.14037236e-02 1.39308320e-02
      -6.63090264e-04 -3.20616812e-02 -1.25841172e-02 1.05517907e-02
      2.21070391e-03 3.86545621e-02 -2.02330668e-02 -1.96269341e-03
      -2.10813805e-03 -1.41534805e-02 -3.52203473e-02 -4.00071628e-02
      -2.85529699e-02 1.46171106e-02 2.83389110e-02 -1.87465325e-02
      -2.43287180e-02 -2.52057202e-02 -1.69083737e-02 -4.19318490e-02
      -5.78861758e-02 -4.72959392e-02 -1.04981819e-02 1.58339255e-02
      -2.65020598e-02 -3.21540236e-02 -3.71139236e-02 -3.24355960e-02
      1.98546443e-02 2.24445146e-02 5.11067398e-02 1.45921754e-02
      3.17814797e-02 -1.89657379e-02 4.53658216e-03 7.31586246e-03
      1.62691697e-02 -1.32012684e-02 1.26698171e-03 6.93130586e-03
      -2.99780052e-02 -1.25387497e-02 -4.08576764e-02 1.00018522e-02
      8.80465098e-03 -9.75977629e-03 -1.36422412e-02 -4.01478894e-02
      -5.04013151e-02 -1.89991407e-02 1.65322274e-02 -2.03171689e-02
      -1.47910358e-03 -1.10207228e-02 -1.84246823e-02 -2.57473364e-02
      -2.50377562e-02 -3.94688956e-02 -4.93330806e-02 -2.04046424e-02
      -6.01395331e-02 -8.88147578e-03 -1.68989860e-02 -1.56542994e-02
      1.39231449e-02 2.95378659e-02 7.87344761e-03 -1.41814668e-02
      -9.77858063e-03 -3.70411724e-02 -8.29855446e-03 -3.32676782e-03
      -4.41400800e-03 1.84916577e-03 1.75491832e-02 -7.38253351e-03
      -2.58667134e-02 2.22871769e-02 -3.25410701e-02 -2.90830736e-03
      -1.68212876e-02 -9.39441752e-03 3.69555259e-04 2.32408214e-02
      -1.96126718e-02 -5.08522019e-02 -1.48400199e-02 -4.28008176e-02
      -1.62947029e-02 3.08555621e-03 2.56115175e-03 2.96567148e-03
      1.30232694e-02 4.81850933e-03 -2.92670820e-02 1.32984612e-02
      -3.44118066e-02 -2.60106958e-02 -7.44043244e-03 2.02640993e-04
      -1.59172639e-02 -1.60967913e-02 1.02104864e-03 -2.02741381e-02
      3.47549804e-02 -3.15220058e-02 3.10272654e-03 -1.90066639e-02
      -1.85228456e-02 -1.22449463e-02 -8.58016079e-04 -4.17177863e-02
      -4.15417552e-02 3.75595950e-02 -2.64211427e-02 -4.64033429e-03
      6.02757558e-03 1.44065348e-02 -6.00999454e-04 -7.43718818e-03
      -3.09943571e-03 -2.44768076e-02 1.18105905e-02 -5.05895875e-02
      -2.92397514e-02 -2.00333577e-02 4.06483281e-03 4.65817237e-03
      1.59202341e-03 -2.76539959e-02 -2.63189822e-02 1.11266039e-02
      -6.19089641e-02 -3.91591415e-02 -2.58265100e-02 1.35903312e-02
      -5.31558879e-03 -1.07959298e-04 -2.77650692e-02 -3.28636654e-02
      3.23340148e-02 -3.34142335e-02 -1.37913795e-02 -1.80753078e-02
      -8.68540350e-03 7.95627944e-03 -5.91016700e-03 -1.38038071e-03
      4.43868013e-03 5.29171899e-02 -3.76542024e-02 -1.79452300e-02
      -3.30865197e-02 -1.81999989e-03 -1.82931032e-02 -2.77582314e-02
      -3.64256427e-02 -3.59272771e-02 1.76228322e-02 -4.60987017e-02
      -4.24596332e-02 -4.50333394e-02 -1.36174718e-02 -3.35114934e-02
      -1.20863291e-02 -6.57384424e-03 1.57078151e-02 4.55941968e-02
      -3.65245864e-02 -3.05563752e-02 -4.79605906e-02 -2.51824167e-02
      -2.08607526e-03 -2.38300133e-02 -1.26469107e-02 -1.35964537e-02
      3.73460986e-02 -3.38682979e-02 -1.30289663e-02 -3.00318860e-02
      -9.92625370e-04 -5.05801989e-03 -2.44994275e-02 -2.63596978e-03
      2.02070605e-02 5.13642468e-02 -5.29612005e-02 -5.05464301e-02
      -3.59598212e-02 -1.59377027e-02 -4.65259552e-02 -3.21751125e-02
      -1.93755496e-02 6.08261442e-03 2.17417087e-02 -3.92639190e-02
      -2.43982486e-02 -4.66928445e-02 -3.66931222e-02 -4.28824872e-02
      -8.08708556e-03 1.10609373e-02 2.24238057e-02 4.45039868e-02
      -5.51484525e-02 -3.92156094e-02 -4.04757857e-02 -4.53255847e-02
      4.13153693e-03 -1.40256053e-02 2.02658791e-02 3.46894264e-02
      2.83103064e-02 -4.93916385e-02 -6.48052320e-02 -3.28667052e-02
      -1.65380482e-02 -4.21987800e-03 -1.84579622e-02 1.27541907e-02
      8.97717103e-03 1.59195457e-02 -3.87362689e-02 -4.20539267e-02
      -2.09686756e-02 -3.43368971e-03 -4.45628613e-02 -1.62439719e-02
      -1.29403459e-04 1.94164217e-02 2.96214782e-02 -5.57405204e-02
      -4.25802059e-02 -2.50825603e-02 -3.58025841e-02 -3.52253430e-02
      -3.59302573e-02 -2.79260986e-02 6.00460405e-03 2.82744206e-02
      -2.80134752e-02 -3.11694741e-02 -1.87285207e-02 -8.92449636e-03
      4.28682985e-03 5.08448167e-04 -5.27921040e-03 2.68206745e-02
      3.14710625e-02 3.94172082e-03 -5.23201609e-03 3.08124116e-03
      1.97320692e-02 -5.70231024e-03 -1.75088830e-02 -3.77403796e-02
      -1.97312590e-02 3.26484516e-02 -9.93526261e-03 -4.41278005e-03
      -2.92675034e-03 2.74068723e-03 1.11769689e-02 1.46901514e-02
      1.43738929e-03 1.61844268e-02 3.32891606e-02 -1.05088567e-02
      -4.73316237e-02 -1.96838509e-02 1.01080714e-02 -9.29161534e-03
      1.14882411e-02 -1.97693855e-02 -2.81551220e-02 5.70435834e-04
      -1.94756761e-02 -2.57476419e-02 -1.35113476e-02 5.75028500e-03
      6.12833712e-04 -1.42597537e-02 -5.04753552e-02 -3.81406173e-02
      2.14490350e-02 -1.84216630e-03 8.95653665e-03 1.28217004e-02
      1.76516473e-02 1.26845734e-02 1.28804240e-03 -3.56512144e-02
      -6.29979447e-02 -1.41699854e-02 -4.32488583e-02 -2.14817189e-03
      6.11042697e-03 2.81855706e-02 6.66152569e-04 1.46890935e-02
      -1.21053932e-02 -4.68935631e-02 -1.12535094e-03 -1.11078871e-02
      1.56718716e-02 3.25073451e-02 2.32760552e-02 2.08021384e-02
      7.35970214e-03 -3.16930003e-02 -6.61133081e-02 -2.35901251e-02
      -5.15462868e-02 -6.56780368e-03 7.88024534e-03 2.46037878e-02
      2.48399489e-02 7.47466087e-03 -2.91776955e-02 -6.67235330e-02
      -3.08850501e-02 -6.45061061e-02 -2.49565411e-02 8.37055687e-03
      1.79819036e-02 1.41451545e-02 2.46471614e-02 -5.05219074e-03
      -2.47434657e-02 -6.22880179e-03 -6.24626949e-02 -4.84425686e-02
      -9.92512889e-03 -5.10462280e-03 2.70576365e-02 4.60802019e-03
      -1.83183867e-02 -5.56106754e-02 -3.42618972e-02 -5.81755415e-02
      1.36661427e-02 2.02430990e-02 2.51423381e-02 4.38198121e-03
      1.36484131e-02 -1.50241004e-03 -3.15985791e-02 -2.90841404e-02
      -7.31445551e-02 -1.09307282e-02 5.89683279e-03 1.84078440e-02
      2.03677341e-02 2.04056893e-02 3.52792884e-03 -5.47805894e-03
      3.68779525e-03 -4.85565364e-02 -4.06161547e-02 8.70820228e-03
      1.63419433e-02 2.26618685e-02 1.02492254e-02 -6.48907572e-03
      -1.37818372e-03 3.60004902e-02 -6.72338083e-02 -3.96549702e-02
      -1.60746779e-02 1.67063121e-02 2.49373559e-02 -6.38783211e-04
      -2.59231832e-02 -2.90822294e-02 -2.30625384e-02 -5.05643301e-02
      -2.07456704e-02 4.65997308e-03 1.79550853e-02 6.66218810e-03
      2.42311340e-02 -5.60051808e-03 1.66683290e-02 2.47754697e-02
      -5.56153804e-02 -4.44799177e-02 -1.36636030e-02 6.31208112e-03
      1.38912648e-02 -1.60165895e-02 -2.37363148e-02 -1.99181382e-02
      4.41478984e-03 -5.23752049e-02 -4.20409478e-02 -1.86717696e-02
      8.16385541e-03 -2.61216913e-03 -9.53067385e-04 -1.24627333e-02
      3.62150297e-02 4.22455184e-02 -2.11816113e-02 -2.55473796e-02
      -1.21292770e-02 2.05283077e-03 9.16379318e-03 1.40851289e-02
      -1.03697991e-02 -9.05556232e-03 1.48296412e-02 -6.11178987e-02
      -4.49979305e-02 -2.95160394e-02 2.10255734e-03 -3.87880509e-03
      2.08630897e-02 3.75810526e-02 4.79010977e-02 3.27036902e-02
      -5.02099693e-02 -3.62771675e-02 -1.88785344e-02 -4.56267456e-03
      -3.57039794e-02 6.88481494e-04 8.80074501e-03 3.19135748e-02
      2.67273504e-02 -3.38006839e-02 -3.07227988e-02 -3.41753028e-02
      -2.17040125e-02 -2.48498749e-02 9.20777326e-04 1.52865453e-02
      1.36864278e-02 4.77892794e-02 -5.07925376e-02 -4.21124883e-02
      -3.78358588e-02 -1.98132433e-02 -2.84008048e-02 -3.43034662e-05
      1.79282278e-02 2.97529008e-02 1.03403470e-02 -5.86888045e-02
      -3.58076617e-02 -3.19460966e-02 -3.06978896e-02 -1.48033192e-02
      5.64713823e-03 1.59095731e-02 1.76980719e-02 3.80138010e-02
      -5.54331020e-02 -4.42166887e-02 -3.29385325e-02 -2.03925986e-02
      -3.40808891e-02 -2.79489327e-02 -1.11930855e-02 -9.41747148e-03
      3.87114324e-02 -3.33623476e-02 -2.91705001e-02 -8.38655978e-03
      -3.05587184e-02 -3.50758284e-02 -4.09845263e-02 -2.33882442e-02
      6.07627816e-03 5.42957745e-02 -1.47463540e-02 -2.58423518e-02
      -6.14663539e-03 -1.22463349e-02 -1.16763050e-02 -2.45393894e-04
      2.22751051e-02 -4.65765782e-03 2.16348935e-02 -4.65282612e-02
      -3.39688286e-02 -1.56583246e-02 -3.18757398e-03 1.20883295e-02
      1.93305407e-02 3.84732746e-02 1.98071171e-02 4.14529033e-02
      -3.79480869e-02 -3.75747606e-02 -1.63507536e-02 2.05029510e-02</_>
    <_>
      2.71307565e-02 -7.58422306e-03 3.69115616e-04 6.69007599e-02
      6.09595887e-02 2.36430671e-02 1.43879186e-02 5.40266838e-03
      3.29453424e-02 -4.85181734e-02 -4.29367237e-02 -3.23697217e-02
      8.49947799e-03 4.94643189e-02 1.49985617e-02 1.90742109e-02
      1.57079883e-02 -3.35208252e-02 -7.32319150e-03 -9.14713740e-03
      1.28557198e-02 2.74646319e-02 6.35848939e-02 3.69611531e-02
      1.15427887e-02 -3.07354238e-03 -2.63784360e-03 -7.54550323e-02
      -5.34513220e-02 -7.86286891e-02 -1.52703989e-02 5.66850752e-02
      3.25740725e-02 2.18089353e-02 8.29632580e-03 -5.28304949e-02
      -6.34115487e-02 4.41018911e-03 2.04708166e-02 7.55716674e-03
      7.85689130e-02 2.63676364e-02 1.93498321e-02 1.92292072e-02
      -4.91754860e-02 -7.50122592e-02 4.39095087e-02 6.52118400e-02
      2.62945332e-02 6.04932792e-02 1.64624751e-02 1.61671434e-02
      2.83457804e-02 -8.23816210e-02 -8.88252482e-02 2.39383504e-02
      3.46701331e-02 2.73381677e-02 8.04315805e-02 3.55968550e-02
      3.32392380e-02 -9.85169224e-03 -6.71998337e-02 -5.47665022e-02
      6.25107363e-02 7.50444606e-02 4.60066311e-02 7.23786131e-02
      2.18697153e-02 2.84461454e-02 -1.23223253e-02 -6.45268336e-02
      -7.34557584e-02 4.22218256e-02 9.93066803e-02 4.36781608e-02
      6.78259581e-02 4.90940250e-02 1.16279209e-02 1.75419226e-02
      -8.71181116e-02 -1.04844637e-01 1.63966212e-02 6.59915507e-02
      -2.05842350e-02 9.28744078e-02 1.64032243e-02 1.59588829e-02
      2.98135774e-03 -1.02423228e-01 -7.47769549e-02 5.97345904e-02
      8.29740465e-02 8.44129734e-03 4.33921963e-02 2.76802052e-02
      2.95479316e-02 -2.98874900e-02 -8.20384100e-02 -1.04464456e-01
      7.15177581e-02 1.17400572e-01 3.88108604e-02 1.08281545e-01
      4.05731723e-02 3.95526327e-02 -3.15700173e-02 -1.08050287e-01
      -1.16258226e-01 1.67368911e-02 9.30716917e-02 4.60344777e-02
      1.20641775e-01 3.43560316e-02 4.04822081e-02 2.13771071e-02
      -1.15020916e-01 -6.79447576e-02 1.20665310e-02 5.30998036e-02
      -1.02231801e-02 3.88957262e-02 5.26502803e-02 6.30993396e-02
      3.98958363e-02 -6.94872886e-02 -1.21991828e-01 4.40613925e-02
      1.47278637e-01 1.00363471e-01 1.44374952e-01 3.81006151e-02
      4.19699512e-02 -2.77973395e-02 -9.19432938e-02 -6.59683049e-02
      3.56090255e-02 9.60426033e-02 -6.19068649e-03 5.23856133e-02
      4.37481515e-02 7.16630220e-02 5.97101357e-03 -4.22981605e-02
      6.68813800e-03 3.41387913e-02 3.32033075e-02 2.45537143e-03
      3.23346183e-02 4.63182926e-02 5.56924492e-02 2.57498752e-02
      -8.70633963e-03 2.49424372e-02 2.29980443e-02 4.03899103e-02
      -8.00681859e-03 5.40629169e-03 3.09969056e-02 6.61517009e-02
      1.84296258e-02 1.73639376e-02 -2.66084094e-02 1.06263980e-02
      4.54014540e-02 -1.93855260e-02 2.79054679e-02 4.01236229e-02
      5.83237559e-02 -3.13005014e-03 -4.58537824e-02 -2.23703776e-02
      -1.42596541e-02 6.77589923e-02 -2.19621100e-02 5.72942314e-04
      1.66693330e-02 6.24132864e-02 -5.24395471e-03 -4.38325927e-02
      -3.75280567e-02 -1.05478559e-02 -4.17872965e-02 -1.96152404e-02
      1.59646627e-02 4.87475982e-03 2.39035804e-02 6.66313991e-03
      -2.31086165e-02 2.79029598e-03 1.89866014e-02 3.49983834e-02
      4.63977456e-02 6.85198009e-02 -5.88971749e-03 -8.21383204e-03
      -5.59156109e-03 3.15542892e-02 -6.02606088e-02 -3.09513938e-02
      -2.79063871e-03 -4.43838798e-02 -1.04585802e-02 -1.92109291e-02
      9.04415362e-03 -1.80334225e-02 -4.21449803e-02 2.80768797e-02
      8.91576428e-03 2.12723352e-02 1.05996905e-02 4.27000597e-02
      3.83034302e-03 -2.44799769e-03 -9.90461279e-03 2.60277744e-02
      -8.20396375e-03 -7.76728056e-03 1.33247664e-02 8.06222763e-03
      5.52165285e-02 1.21448906e-02 -1.43704878e-03 2.03769444e-03
      9.21787135e-03 -9.54829343e-03 -2.71944497e-02 -2.62575177e-03
      -1.49402125e-02 -4.17691190e-03 9.89162736e-03 1.81730930e-03
      7.25582894e-03 -2.27364302e-02 5.70809841e-03 -9.79235303e-03
      2.17655543e-02 -5.47111873e-03 4.81363125e-02 3.30012845e-04
      -9.60049161e-04 -1.44318247e-03 1.36601701e-02 -3.98459956e-02
      -3.07906438e-02 1.69780583e-03 -2.38307342e-02 2.12613586e-02
      2.28092959e-03 1.91445407e-02 1.27819981e-02 -1.71153340e-02
      -1.05848461e-02 1.03134066e-02 1.12733189e-02 -1.68487318e-02
      3.66044901e-02 2.20101420e-02 1.85122602e-02 -1.23442644e-02
      4.02744208e-03 -6.80061504e-02 -2.28211842e-02 -4.62380014e-02
      -8.45392235e-03 5.55803962e-02 3.62409167e-02 3.47867161e-02
      -3.96259967e-03 -2.81350613e-02 -1.91398319e-02 3.73710915e-02
      2.91615389e-02 3.15601490e-02 6.60560578e-02 2.14564744e-02
      9.28875245e-03 9.80755780e-03 4.21379460e-03 -3.92858200e-02
      2.11766008e-02 3.35890912e-02 3.30579802e-02 6.04406223e-02
      5.85116260e-02 4.07557897e-02 -1.59424089e-03 -4.07446921e-02
      -2.81883590e-02 6.64703920e-02 6.42175451e-02 2.02337801e-02
      5.75565770e-02 4.24037091e-02 4.56318371e-02 8.55116523e-04
      -2.55578347e-02 -5.80275320e-02 1.91551503e-02 4.80918251e-02
      -1.83159020e-02 4.67290059e-02 1.65604930e-02 4.81769219e-02
      -6.75803400e-04 -5.20904772e-02 -4.68239971e-02 2.55696271e-02
      5.81138656e-02 5.06460406e-02 9.92088094e-02 5.77518009e-02
      4.67958637e-02 8.26063508e-04 -4.62998077e-02 -5.98696843e-02
      3.85855660e-02 9.43078622e-02 2.50188988e-02 4.95742597e-02
      5.35058491e-02 5.42855524e-02 2.16302723e-02 -8.02810639e-02
      -7.85754994e-02 -8.32582999e-04 3.31856944e-02 -4.98607866e-02
      -4.24552988e-03 3.47477496e-02 5.05516306e-02 1.27539281e-02
      -6.56237677e-02 -9.85902026e-02 3.90651599e-02 1.09715559e-01
      6.02993369e-02 9.49393660e-02 3.67015935e-02 3.47664393e-02
      -3.10729211e-03 -7.59542659e-02 -7.85403028e-02 2.71625780e-02
      6.57075644e-02 -3.09162680e-02 9.13819938e-04 4.30726185e-02
      5.03046699e-02 2.99072471e-02 -7.22608194e-02 -7.43894652e-02
      3.36368419e-02 9.71557647e-02 1.10650748e-01 1.33818895e-01
      5.57548590e-02 5.53583726e-02 2.65800729e-02 -7.61591569e-02
      -9.12316665e-02 3.65606025e-02 1.09279349e-01 9.62298512e-02
      1.20888680e-01 2.83839405e-02 2.66066100e-02 -1.54750403e-02
      -8.33998770e-02 -8.62371624e-02 2.42513809e-02 6.17235266e-02
      -3.19188312e-02 1.42880222e-02 -5.24728149e-02 1.38853118e-02
      -3.50031070e-02 -8.20091665e-02 -7.09086880e-02 6.91269264e-02
      1.37907520e-01 1.12639956e-01 1.68118015e-01 6.35654405e-02
      5.07079251e-02 7.13162730e-03 -6.05730861e-02 -8.91290829e-02
      5.07257432e-02 9.34328288e-02 5.83447330e-03 3.53155471e-02
      1.03902994e-02 6.25709444e-02 -3.81199084e-02 -1.06897384e-01
      -3.04450970e-02 -4.87368321e-03 2.59629209e-02 -4.60642390e-02
      3.34621710e-03 6.18120981e-03 3.01724486e-02 -2.21706964e-02
      -3.88263650e-02 1.19087123e-03 2.65645105e-02 5.62237799e-02
      -4.14564759e-02 7.00190954e-04 1.86411897e-03 2.45655663e-02
      -5.14738075e-03 7.62614282e-03 -4.83132228e-02 5.87260723e-02
      5.93052320e-02 -1.88008342e-02 3.61492001e-02 2.56500263e-02
      6.72432482e-02 -1.40990587e-02 -3.14985998e-02 6.80492539e-03
      6.81739300e-02 7.21542612e-02 1.28449863e-02 6.09858334e-02
      3.96368317e-02 4.02058177e-02 2.44650468e-02 1.97213539e-03
      1.75132714e-02 2.44359206e-02 1.38136437e-02 -2.44773179e-02
      6.76570600e-03 -2.33934335e-02 4.14902531e-03 -6.11050148e-03
      1.81232356e-02 7.17966557e-02 5.68949170e-02 3.48321795e-02
      -2.30920296e-02 1.46448025e-02 -3.92347079e-04 5.50259976e-03
      1.24476682e-02 6.37489408e-02 -1.13907596e-02 4.13168073e-02
      5.13678081e-02 -1.47567419e-02 1.92027469e-03 -3.65920365e-02
      -1.08192516e-02 -9.88692511e-03 -2.72290595e-02 2.62668002e-02
      4.25543152e-02 5.00975177e-02 5.93247067e-04 -1.54274749e-02
      -2.59991083e-02 2.42652074e-02 9.96299647e-03 2.42778240e-03
      3.25729512e-02 1.06223151e-02 3.06019024e-03 -1.44152725e-02
      1.91796347e-02 -2.13532187e-02 -1.56944655e-02 -9.42772627e-03
      2.97993105e-02 2.59465966e-02 8.14982131e-03 -2.57114582e-02
      -2.89706085e-02 -1.14769936e-02 -5.71464095e-03 1.27639370e-02
      1.89739503e-02 2.57571097e-02 1.33599909e-02 2.27274261e-02
      3.52513092e-03 -1.79504622e-02 8.69769510e-03 -4.10909243e-02
      -9.16834269e-03 -3.18124634e-03 1.42760947e-03 -1.02337135e-03
      1.63441878e-02 -5.16838729e-02 -4.49926145e-02 -2.01125387e-02
      -2.92944517e-02 9.25255707e-04 -1.54095842e-02 -4.08879556e-02
      -2.91769076e-02 2.52252184e-02 -2.41172826e-03 -1.52311483e-02
      2.31074635e-02 -2.83253249e-02 -5.53959906e-02 -3.49618085e-02
      -3.55245359e-02 -7.75448009e-02 -1.04228090e-02 -8.00706912e-03
      -8.32861289e-03 1.64986122e-02 -6.27560075e-03 -1.45954676e-02
      -1.99622381e-02 -7.77487233e-02 1.01140020e-02 4.47561592e-03
