<?xml version="1.0"?>
<opencv_storage>
<opencv_ml_svm>
  <format>3</format>
  <svmType>C_SVC</svmType>
  <kernel>
    <type>LINEAR</type></kernel>
  <C>1.</C>
  <term_criteria><iterations>10000</iterations></term_criteria>
  <var_count>1764</var_count>
  <class_count>4</class_count>
  <class_labels type_id="opencv-matrix">
    <rows>4</rows>
    <cols>1</cols>
    <dt>i</dt>
    <data>
      1 2 3 4</data></class_labels>
  <sv_total>6</sv_total>
  <support_vectors>
    <_>
      -7.55251944e-03 -3.50158438e-02 -1.45887509e-02 -1.63503941e-02
      -3.87252197e-02 -8.24413672e-02 -1.98701490e-02 -2.19288375e-02
      4.60511027e-03 -4.57675345e-02 1.09296935e-02 4.93689664e-02
      6.61289766e-02 2.04665102e-02 1.71047114e-02 4.36552204e-02
      -8.95360019e-03 -4.48853150e-02 -3.34639885e-02 -3.19743566e-02
      1.34417601e-02 -1.29994508e-02 -1.21919541e-02 -1.84274931e-02
      1.25083723e-04 -6.52640872e-03 1.96309090e-02 -9.55521241e-02
      -1.70609131e-02 1.93891283e-02 6.74737096e-02 5.31014912e-02
      4.64020781e-02 5.11036254e-02 -1.49163103e-03 -7.88068324e-02
      -8.72712657e-02 4.61303163e-03 6.53057322e-02 7.62815028e-02
      7.39034638e-03 2.06461512e-02 3.30555215e-02 -4.89946222e-03
      -1.17897205e-01 -9.80440676e-02 -1.52858933e-02 3.82030606e-02
      3.29425670e-02 -2.47985614e-03 2.95003373e-02 4.88511734e-02
      -2.94441171e-02 -1.03339016e-01 -1.13406211e-01 -3.26660722e-02
      2.93399487e-02 4.64996137e-02 3.54725011e-02 5.74549139e-02
      5.18105403e-02 5.62688708e-03 -1.09006368e-01 -9.37301666e-02
      -2.66580619e-02 -7.12285843e-03 3.82517129e-02 1.21052098e-02
      4.69861776e-02 6.42221048e-02 -2.28365269e-02 -5.26724234e-02
      -4.43750061e-02 5.97024616e-03 5.61807130e-04 1.45731764e-02
      9.47806612e-03 3.82632501e-02 4.83664423e-02 -1.28008397e-02
      -4.28766944e-02 2.68475944e-03 -1.10246586e-02 -6.58957437e-02
      -2.67314129e-02 -1.41923251e-02 -1.50418153e-03 1.76865421e-02
      9.33707878e-03 -2.26843115e-02 -1.84872225e-02 9.22890939e-03
      9.48862173e-03 2.84225717e-02 2.35103797e-02 4.65347916e-02
      7.37003461e-02 -1.11003537e-02 -1.16654597e-02 4.75470551e-05
      4.93359044e-02 -4.16601710e-02 -2.96078902e-02 -3.21075059e-02
      -1.62234753e-02 1.30813327e-02 6.53635571e-03 7.17719365e-03
      -8.89951456e-03 2.97539402e-03 -5.13325706e-02 -3.07419226e-02
      -5.07762320e-02 -2.62279455e-02 4.18891646e-02 5.67584112e-02
      1.34611214e-02 -4.98240292e-02 -1.19326171e-02 -3.61147802e-03
      -2.31462084e-02 -4.74936925e-02 5.27389953e-03 8.36165249e-02
      1.06112637e-01 -2.30214037e-02 -1.17900632e-02 6.56106323e-02
      -2.93498505e-02 -3.19154225e-02 -7.30036274e-02 -4.82217185e-02
      2.83840597e-02 4.39397916e-02 -3.39805469e-04 -5.01259975e-02
      1.62834600e-02 3.74057963e-02 -1.75791588e-02 -4.15081494e-02
      -3.14867012e-02 6.47808388e-02 6.51323050e-02 -1.22396937e-02
      -4.90481593e-02 -3.24119367e-02 1.49120232e-02 4.33817942e-04
      -9.34924632e-02 2.97045382e-03 8.36227164e-02 9.23009366e-02
      -4.63116579e-02 -3.20308320e-02 -5.91324121e-02 -4.69566230e-03
      -2.13953177e-03 7.42587028e-04 4.85542975e-02 9.80082825e-02
      4.31564450e-02 -9.10049828e-04 -8.23952034e-02 -5.81370899e-03
      6.62426576e-02 -1.26745030e-02 -9.18942317e-02 -1.55949248e-02
      7.27015436e-02 5.40451072e-02 -4.76174690e-02 -7.26721361e-02
      -1.31345028e-02 3.77311110e-02 -9.58486553e-03 -8.05876497e-03
      3.00652930e-04 6.30521327e-02 -1.47042330e-02 -5.44029102e-02
      -4.68497863e-03 -8.18805099e-02 -1.28715951e-02 -2.94005461e-02
      -2.15972512e-04 1.82809476e-02 5.74447438e-02 1.09652877e-02
      9.37304273e-03 -2.02993397e-02 -8.38881433e-02 -3.53540182e-02
      3.81921902e-02 6.47335872e-02 1.00130640e-01 3.39589491e-02
      -2.05215290e-02 8.70560016e-03 -4.58956771e-02 -1.72980670e-02
      1.83537900e-02 -5.24395220e-02 -1.57312769e-02 -2.28099246e-02
      5.44146448e-03 -2.29952652e-02 -5.66338748e-02 -3.36255915e-02
      -2.66172886e-02 -9.87653621e-03 5.70679605e-02 3.20142731e-02
      6.39131814e-02 3.77302580e-02 -4.82053292e-04 -4.43583094e-02
      -1.14586460e-03 -5.15901893e-02 -3.49652097e-02 3.37937884e-02
      3.43052074e-02 9.26663429e-02 -3.08811222e-03 -2.48095840e-02
      1.52070234e-02 -2.33370368e-03 1.29226046e-02 4.07636428e-04
      -3.33699100e-02 -1.05205504e-03 -2.60341596e-02 -2.70876382e-02
      -2.87814029e-02 6.40255306e-03 -2.23949775e-02 -4.12544385e-02
      4.83925175e-03 4.85873409e-02 5.27102612e-02 5.64033203e-02
      1.03139225e-02 1.68341969e-03 -4.38988172e-02 -1.75307523e-02
      8.17699544e-03 6.74202526e-03 -4.20506299e-02 -4.78677265e-03
      1.78924464e-02 -1.03353765e-02 -2.62472387e-02 -1.11913297e-03
      -3.04855183e-02 -3.64887826e-02 -3.54585797e-02 -6.39911443e-02
      -5.42125553e-02 1.42073780e-02 3.06715183e-02 1.75218959e-03
      2.02476364e-02 -7.91207254e-02 -3.73426154e-02 -1.79704539e-02
      4.85526398e-03 8.80422164e-03 6.70790821e-02 5.17821237e-02
      4.97101247e-02 -3.92057262e-02 -1.72652341e-02 -2.83564217e-02
      -3.84587348e-02 -8.79655480e-02 -2.78961193e-02 -2.12928802e-02
      2.36002617e-02 9.07336827e-03 -4.07815631e-03 -4.28454541e-02
      -3.43091898e-02 -2.56892703e-02 1.71366259e-02 1.47599280e-02
      4.42651771e-02 3.04488558e-02 4.30183448e-02 -7.25499019e-02
      -1.13247178e-01 -3.01418006e-02 -2.40333043e-02 -4.76992736e-03
      -6.62779261e-04 4.77432869e-02 4.38852534e-02 1.74005590e-02
      -7.51616359e-02 -6.72964081e-02 -2.50888821e-02 5.05893631e-03
      -1.78919937e-02 -1.06862923e-02 1.59266107e-02 1.09049594e-02
      -2.07148120e-02 -5.92042096e-02 -1.18753932e-01 -4.58444543e-02
      1.68830785e-03 1.43561047e-02 7.74072437e-03 5.05429432e-02
      2.13909131e-02 1.52549231e-02 -1.22845881e-01 -9.77043435e-02
      -3.67867984e-02 2.68308576e-02 -1.72631666e-02 -4.18105610e-02
      1.09855775e-02 1.39568560e-02 9.86500923e-03 -9.14041996e-02
      -3.35140675e-02 1.11895064e-02 2.40934957e-02 -1.14030740e-03
      -5.79294562e-03 1.64110977e-02 1.95160117e-02 -4.09491472e-02
      -5.38157672e-03 1.92844979e-02 5.24935685e-02 -4.48704660e-02
      -4.60336022e-02 -8.18523467e-02 -1.80708058e-02 -1.39846525e-03
      -3.27766761e-02 1.76245533e-02 -3.09172757e-02 1.25034750e-02
      4.92534116e-02 3.39613087e-03 -3.37189101e-02 2.30596401e-02
      8.56114272e-03 -1.41561553e-02 -2.24944055e-02 1.20144384e-02
      4.76668105e-02 -1.79362837e-02 -4.72262613e-02 -8.13358426e-02
      2.63352902e-03 -2.80441213e-02 -1.47094931e-02 -5.23692323e-03
      5.31723388e-02 7.63498470e-02 -1.73433218e-02 -5.16214110e-02
      -1.00779466e-01 -4.79179583e-02 7.29381945e-03 1.28984870e-02
      4.35238630e-02 -1.08207529e-03 3.17404605e-02 3.95363756e-02
      -5.19741178e-02 -8.71127322e-02 -3.60483266e-02 4.81128395e-02
      4.93256152e-02 -5.17850881e-03 3.09001338e-02 7.32982531e-02
      1.01293651e-02 -3.14091407e-02 -1.00141965e-01 -2.40041129e-02
      1.16803788e-03 3.93738179e-03 -1.53822089e-02 -2.97233984e-02
      7.47154802e-02 2.98859784e-03 -3.28551531e-02 -9.72367600e-02
      -1.13363657e-02 6.79425374e-02 4.46716417e-03 -7.39210099e-02
      -6.39830576e-03 5.94215356e-02 7.30027705e-02 -2.68389122e-03
      -1.27412960e-01 -1.94791816e-02 7.90075511e-02 1.01505958e-01
      -5.32745197e-03 -4.92114872e-02 7.95334205e-03 5.03231473e-02
      2.43884120e-02 -8.24046806e-02 -9.45538562e-03 5.76277412e-02
      3.35219689e-02 -3.31831388e-02 -2.30144011e-03 6.49399981e-02
      8.35526921e-03 -1.59886032e-02 -1.43125191e-01 -2.04204209e-03
      9.08447430e-02 6.00882657e-02 -4.85922731e-02 -6.16640151e-02
      2.87192012e-03 2.26270761e-02 -2.78164931e-02 -5.05326651e-02
      1.35347266e-02 7.14735910e-02 3.06295175e-02 -4.36885692e-02
      -3.79961468e-02 1.70636422e-03 1.27828484e-02 -4.15477864e-02
      -5.95261753e-02 -3.12890261e-02 2.06502061e-02 2.73787305e-02
      -2.97377240e-02 -1.98805183e-02 -1.48983495e-02 3.50419851e-03
      5.58269396e-02 6.22957796e-02 7.44597018e-02 5.34915403e-02
      2.83512846e-02 -1.83490887e-02 -5.44531904e-02 -4.13476452e-02
      2.93395892e-02 -7.15743080e-02 -5.58383763e-02 -4.13747225e-03
      3.78301702e-02 1.76905356e-02 -2.46443413e-02 -1.96919590e-02
      -2.68511511e-02 -3.05784866e-03 3.51840779e-02 7.21511543e-02
      8.98848325e-02 5.83585463e-02 4.39218769e-04 -6.00223802e-03
      -3.56271081e-02 -4.05995511e-02 -1.23171238e-02 4.83838320e-02
      5.93036525e-02 6.70062006e-02 3.85717005e-02 9.15509183e-03
      -4.05130684e-02 -3.63788530e-02 -1.72730628e-02 5.49796037e-03
      5.14131412e-03 -1.43431211e-02 -1.54023236e-02 -1.45024089e-02
      2.18194444e-03 -1.34313395e-02 -2.12958157e-02 -2.61010770e-02
      -3.56431045e-02 4.32077199e-02 4.58932370e-02 1.07403845e-01
      4.28309031e-02 -1.65635347e-02 -1.89500768e-02 -1.14417253e-02
      -2.52575874e-02 -3.41397617e-03 1.19764954e-02 -1.49981501e-02
      4.12173942e-03 5.67141734e-03 -1.25958184e-02 4.31550841e-04
      3.63915972e-03 -3.77026275e-02 -6.14295937e-02 -7.02475235e-02
      -4.79628146e-02 -1.79244243e-02 5.12229279e-02 5.20735309e-02
      1.39217097e-02 -5.77471629e-02 -2.59409659e-02 -2.03523822e-02
      3.48470882e-02 2.35436428e-02 5.23555540e-02 4.52686623e-02
      1.17454957e-02 -6.15751892e-02 7.53226643e-03 -3.32910605e-02
      -6.75760731e-02 -7.64904022e-02 -7.76048228e-02 3.74385668e-03
      5.21242768e-02 4.18597832e-02 3.44371237e-02 -5.12259677e-02
      -3.34342010e-02 -4.80021462e-02 2.67388392e-02 -2.12160349e-02
      6.84351996e-02 6.28741533e-02 2.96803005e-02 -5.29473573e-02
      -1.15688756e-01 -2.74621658e-02 1.05279218e-02 2.83201169e-02
      1.71928648e-02 5.54906242e-02 5.78536093e-02 2.36824863e-02
      -9.64811668e-02 -4.90180403e-02 -2.74357945e-02 3.38933617e-02
      4.24704049e-03 -7.59362150e-03 -2.13404186e-03 2.99654379e-02
      1.15834242e-02 -5.94262555e-02 -1.35464296e-01 -4.38738614e-02
      -1.81068555e-02 2.64937058e-02 5.22059912e-04 5.90634122e-02
      4.60304767e-02 1.12238834e-02 -1.06835939e-01 -1.01220936e-01
      9.11564473e-03 -4.03596908e-02 1.09816110e-02 3.59639968e-03
      2.75764801e-02 2.54309103e-02 7.41291977e-03 -6.92260489e-02
      1.22528225e-02 3.86227970e-04 3.19121848e-03 1.11333542e-02
      1.47305604e-03 8.15323368e-03 -4.28609550e-03 4.92111035e-03
      1.05787124e-02 4.32029814e-02 4.22770530e-02 -2.34537274e-02
      -2.64880601e-02 -5.39991334e-02 -1.81669630e-02 -4.09899987e-02
      4.03249683e-03 4.55492474e-02 -1.71505492e-02 2.37887334e-02
      -4.67136241e-02 1.07636545e-02 -7.71461567e-03 2.70506553e-02
      1.09525630e-02 3.71431652e-03 -1.95350721e-02 -1.98041834e-02
      3.56773734e-02 -3.22295912e-02 -4.29179668e-02 -5.03896475e-02
      -2.03954242e-02 -2.26113237e-02 -6.89895125e-03 1.27870422e-02
      2.91446559e-02 6.15544505e-02 1.90841630e-02 -1.10497111e-02
      -7.31129795e-02 -5.25874570e-02 -4.00193268e-03 2.59083211e-02
      2.54731476e-02 -4.30535413e-02 5.43752536e-02 -1.48222176e-02
      -8.11979733e-03 -7.46375173e-02 -2.66120452e-02 4.12476249e-02
      1.92033891e-02 -4.54777814e-02 2.26173401e-02 4.78845313e-02
      -1.78644788e-02 -2.85349991e-02 -5.70411272e-02 -4.92479876e-02
      1.17103253e-02 4.37629446e-02 -8.54794495e-03 -1.82952397e-02
      3.74275893e-02 -5.00301039e-03 -8.98219738e-03 -6.85234889e-02
      -3.13067734e-02 1.81834083e-02 4.61851098e-02 -4.56950553e-02
      -3.01714446e-02 6.74681813e-02 2.70126816e-02 2.47625820e-02
      -9.18721557e-02 -3.48094739e-02 2.89243031e-02 5.62528037e-02
      -2.79067159e-02 -3.89368273e-02 4.24447702e-03 3.94071080e-02
      -2.66327094e-02 -3.79263535e-02 -7.67468801e-03 3.99673842e-02
      3.12122852e-02 -2.51604300e-02 -1.85940694e-02 8.74020755e-02
      7.55815953e-02 1.70591678e-02 -9.27307904e-02 -1.59140732e-02
      5.13561070e-02 5.01843579e-02 -1.99644864e-02 -6.37713298e-02
      5.58091654e-03 6.32492229e-02 -3.61753926e-02 -5.68934344e-02
      1.27631584e-02 7.53375217e-02 3.76072563e-02 -1.55736925e-02
      -3.82337347e-02 -2.56296080e-02 -8.65078706e-04 -7.06384033e-02
      -6.14113137e-02 -1.19918091e-02 5.27772196e-02 3.35630728e-03
      -5.13663553e-02 -8.71074293e-03 1.86814461e-03 9.06392466e-04
      7.49367103e-02 8.72667283e-02 8.14715773e-02 5.87926209e-02
      -5.62244700e-03 -2.55066007e-02 -5.45718186e-02 -4.57368791e-03
      -7.30844587e-03 -8.96770209e-02 -5.22989668e-02 1.95801607e-03
      5.34945987e-02 2.12547686e-02 -4.62116674e-02 -3.31149176e-02
      3.30809914e-02 -1.39994975e-02 6.96601644e-02 6.26255497e-02
      7.34331757e-02 8.55188444e-02 1.06431935e-02 -2.40142327e-02
      -3.22697759e-02 -2.07692422e-02 -3.07638161e-02 6.56221285e-02
      5.79132251e-02 1.28129005e-01 3.94590795e-02 -2.47345418e-02
      -3.90516706e-02 -1.98419634e-02 -1.85279734e-02 -4.59845643e-03
      -9.69899073e-03 -9.05254297e-03 2.06070151e-02 6.88266300e-04
      -2.63719191e-03 -2.96183731e-02 -8.40725154e-02 -1.11514209e-02
      -1.11451764e-02 8.09870139e-02 8.08216035e-02 1.01712167e-01
      2.55651660e-02 -3.57611813e-02 -3.68653350e-02 -7.90331662e-02
      -2.15953290e-02 1.99102908e-02 1.03406385e-02 -5.98265615e-04
      -9.20968421e-04 -3.47923450e-02 -2.98821181e-02 -4.75555435e-02
      -9.93250171e-04 2.44703842e-03 -3.91170755e-02 -5.04107438e-02
      -6.18186072e-02 3.42374295e-02 3.86777110e-02 1.02058449e-03
      2.10847892e-02 -6.25532046e-02 -8.92505795e-03 -2.87343934e-02
      1.87111385e-02 -8.19282234e-03 6.13809489e-02 6.39447570e-02
      9.08859540e-03 -2.27588117e-02 -3.78643419e-03 -1.62478699e-03
      -5.56040481e-02 -6.05949499e-02 -4.23710942e-02 1.40749076e-02
      4.11553793e-02 3.26501913e-02 -3.86788335e-04 -7.37054422e-02
      -2.70688161e-02 -6.53396472e-02 3.62201477e-04 -2.01181552e-04
      8.54952186e-02 5.75116202e-02 2.74776667e-02 -3.80619802e-03
      -1.34518161e-01 -1.29122147e-02 -4.60645072e-02 -6.60120786e-05
      1.27557283e-02 6.94398582e-02 6.64889812e-02 5.06238081e-03
      -6.98021129e-02 -6.56339750e-02 3.46893258e-02 -3.45798507e-02
      -9.07123461e-03 -1.58943553e-02 2.72795875e-02 3.25056501e-02
      5.66644268e-03 -4.62051220e-02 -1.07914113e-01 -3.28593142e-02
      -2.93172747e-02 9.31951962e-03 -1.06223696e-03 6.34802058e-02
      4.77795899e-02 1.35479961e-02 -5.39542325e-02 -6.67380765e-02
      1.12589467e-02 1.45624531e-02 -1.96592864e-02 -4.55675609e-02
      3.95972189e-03 2.25218292e-02 2.08992176e-02 -5.97655736e-02
      -7.18245655e-03 4.62512150e-02 -2.10264511e-02 -2.57499926e-02
      -2.86246538e-02 1.94872599e-02 2.85919607e-02 1.88641306e-02
      1.18406210e-02 7.77961686e-03 5.20454757e-02 -3.77009101e-02
      -8.00377876e-02 -7.91469961e-02 1.30638536e-02 9.29946639e-03
      -1.46089485e-02 3.40347737e-02 -1.82845332e-02 1.91272572e-02
      3.14456262e-02 -4.11455110e-02 -3.68274413e-02 9.99272522e-03
      4.82187346e-02 4.65751328e-02 -6.45134319e-03 1.70126688e-02
      1.07095996e-02 -4.79195453e-02 -7.58585259e-02 -6.96154982e-02
      -1.34431385e-02 8.61406140e-03 5.38418908e-03 1.80996135e-02
      1.98403765e-02 5.18971235e-02 -3.56232636e-02 -4.42340448e-02
      -8.13841000e-02 -1.01435399e-02 3.37631069e-02 1.55285271e-02
      4.96447496e-02 1.56353461e-03 7.07732439e-02 5.71995368e-03
      -5.66621944e-02 -6.34723008e-02 -3.65638584e-02 2.45461725e-02
      3.09325159e-02 -3.70171992e-03 5.28909862e-02 3.56806181e-02
      -3.04163564e-02 -3.25006023e-02 -8.84056017e-02 -3.17553952e-02
      3.66992615e-02 3.60609312e-03 3.73626165e-02 2.35975310e-02
      2.94232797e-02 -2.10403185e-03 -5.97686730e-02 -9.69624072e-02
      -6.26419634e-02 3.07562184e-02 1.49682993e-02 3.26346350e-03
      -9.80071258e-04 6.71412498e-02 6.78752959e-02 -3.98776419e-02
      -8.76045078e-02 -1.57490876e-02 3.99766713e-02 5.89281097e-02
      -1.08054169e-02 -3.47189568e-02 -8.75643082e-03 4.31102440e-02
      -3.15376036e-02 -6.33404553e-02 8.79339129e-03 5.61183691e-02
      1.52388299e-02 -2.36370582e-02 3.80422547e-02 3.61724310e-02
      3.18317227e-02 -5.05918786e-02 -1.09985471e-01 -1.52771128e-04
      5.86435869e-02 5.92692979e-02 4.43410873e-03 -1.33502567e-02
      -1.86103694e-02 1.99551824e-02 -2.81531233e-02 -6.01538569e-02
      7.46568758e-03 4.81649600e-02 3.76263596e-02 -6.81843609e-03
      -3.95535156e-02 -1.85001700e-03 5.40499995e-03 -6.22630008e-02
      -3.26382965e-02 1.09825050e-02 4.92078625e-02 1.01375002e-02
      -4.40016687e-02 -4.53812554e-02 1.36900805e-02 -1.26694841e-02
      6.36467487e-02 6.02487288e-02 9.65902880e-02 6.52687773e-02
      2.16443073e-02 -2.76789498e-02 -2.06561126e-02 -4.77342643e-02
      -1.78631227e-02 -6.90223277e-02 -6.54890239e-02 8.27170815e-03
      5.20936213e-02 3.48306708e-02 -1.78654641e-02 -5.04318289e-02
      -3.01504973e-02 -1.33998115e-02 5.38350455e-02 1.80664863e-02
      9.18978378e-02 6.90387413e-02 7.59910699e-03 -4.36116308e-02
      -7.38003850e-02 8.41800123e-03 3.11749114e-04 7.87530616e-02
      9.82317924e-02 1.19770497e-01 8.29457119e-03 -4.05770279e-02
      -2.13553254e-02 -5.90746924e-02 -4.09130100e-03 3.23422886e-02
      2.18390934e-02 4.42293426e-03 -3.14091742e-02 -3.35537419e-02
      -6.83376193e-02 -4.28049378e-02 -6.00149706e-02 -3.44046205e-02
      -1.63773522e-02 9.10712332e-02 8.12391117e-02 1.21774927e-01
      3.16779166e-02 -5.52365705e-02 -4.04382236e-02 -2.52422821e-02
      -1.37493489e-02 8.39960855e-03 -7.78329885e-03 5.91766275e-03
      -5.48840826e-03 -3.21525820e-02 -5.87111451e-02 -5.02576027e-03
      -1.98810417e-02 -1.30522614e-02 -5.62670492e-02 -7.74626210e-02
      -3.55827436e-02 -1.06873168e-02 4.83148098e-02 5.20538464e-02
      -4.56558680e-03 -9.09265429e-02 -3.35377716e-02 -1.69983823e-02
      3.46805565e-02 2.53641494e-02 3.92207801e-02 5.79488613e-02
      5.30983210e-02 -1.24594346e-02 -9.93544981e-03 -3.15979682e-03
      -2.24657971e-02 -6.34633601e-02 -5.06121218e-02 -1.71580464e-02
      5.80541650e-03 1.58891752e-02 2.08273921e-02 -5.62982373e-02
      -2.13028565e-02 1.22631006e-02 6.52795099e-03 1.27602322e-02
      3.99624072e-02 6.51504919e-02 6.34998009e-02 -5.74505925e-02
      -1.31002858e-01 -3.86644043e-02 -8.81142542e-03 1.05973724e-02
      9.02832206e-03 3.24433148e-02 6.86120167e-02 3.03659923e-02
      -5.82296066e-02 -7.16059953e-02 -9.76225920e-03 3.15427519e-02
      -1.78324133e-02 -2.77023520e-02 -9.29298811e-04 2.63105482e-02
      1.07185533e-02 -5.22108823e-02 -8.35664794e-02 -1.72503304e-03
      3.63964960e-02 -1.45510146e-02 -8.15003179e-03 1.15610827e-02
      4.65245210e-02 3.59390453e-02 -9.80748013e-02 -5.39312251e-02
      7.98552390e-03 4.49594520e-02 -2.94959210e-02 -2.77465619e-02
      -2.49247011e-02 3.40183638e-02 3.39320302e-02 -5.79188764e-02
      -8.06506258e-03 1.49732258e-03 3.46738175e-02 -3.32656465e-02
      -3.21361609e-02 -8.23955983e-03 1.16931014e-02 1.75095014e-02
      -1.28309913e-02 -2.98004784e-03 2.96069076e-03 -2.74119992e-02
      -6.62308559e-02 -2.86706630e-02 -3.21893916e-02 -2.44244896e-02
      -9.26060509e-03 1.58011932e-02 2.28971932e-02 8.15592781e-02
      -5.13037550e-04 -5.00915125e-02 -5.89790121e-02 -1.75136644e-02
      -1.31933140e-02 2.96158716e-02 2.53502652e-02 2.52525751e-02
      -1.25367878e-04 -3.54281440e-02 -9.65253040e-02 -7.29069412e-02
      -1.52263939e-02 -3.38439159e-02 2.73868181e-02 3.90793756e-02
      1.53131941e-02 2.63532735e-02 3.67736234e-03 -2.08992269e-02
      -5.41090891e-02 -4.84932438e-02 2.71013868e-03 2.95265485e-02
      2.59457044e-02 -1.92690045e-02 3.24122123e-02 9.73186921e-03
      -5.29922359e-02 -8.67109299e-02 -5.79386279e-02 -7.20388070e-03
      -9.23935231e-03 -1.08400267e-03 5.13393134e-02 2.47091297e-02
      -1.17292330e-02 -5.30004203e-02 -8.07592496e-02 -1.59015525e-02
      2.44880877e-02 5.18558323e-02 6.23707026e-02 3.22818197e-02
      1.92131605e-02 -1.11324042e-02 -4.76601571e-02 -1.15700908e-01
      -7.79099241e-02 1.14937145e-02 4.00552042e-02 3.74595821e-02
      1.12474402e-02 2.61249226e-02 2.85692476e-02 -2.40677036e-02
      -7.71621615e-02 -2.51704436e-02 1.94500498e-02 2.79197115e-02
      -7.70488381e-03 -1.45532563e-02 -1.65874790e-02 -2.89396592e-03
      -1.28930388e-02 -5.41166291e-02 2.80675609e-02 3.09021771e-02
      2.85894293e-02 -1.56020224e-02 2.63453424e-02 -3.94459348e-03
      1.07970284e-02 -1.98606793e-02 -8.07245374e-02 5.01036644e-03
      6.18285686e-02 3.50368842e-02 2.28771772e-02 -4.43107933e-02
      1.37918090e-04 2.46201903e-02 -1.44346301e-02 -6.06538691e-02
      6.12385795e-02 9.40219834e-02 4.14066054e-02 -3.66446353e-03
      -2.53199171e-02 -4.86832373e-02 -3.18882912e-02 -4.77699898e-02
      -4.38544080e-02 4.20625322e-02 5.59308045e-02 3.99115793e-02
      -5.73050696e-03 -1.74218770e-02 -5.97779602e-02 -3.77824809e-03
      5.03273979e-02 3.58136296e-02 6.65370226e-02 5.86424395e-02
      7.09018530e-03 -5.38526513e-02 -6.00387156e-02 -3.76446769e-02
      1.95205789e-02 -1.49017237e-02 -5.23382910e-02 5.81811294e-02
      6.82367384e-02 4.92020324e-03 -3.22807133e-02 -2.62044687e-02
      -4.85362783e-02 1.33622279e-02 3.91128697e-02 4.00669873e-02
      8.05455521e-02 8.22659209e-02 2.18374804e-02 -4.24781591e-02
      -4.36150059e-02 -6.40384555e-02 -1.22730639e-02 4.89668772e-02
      1.01442166e-01 1.06780708e-01 4.46618274e-02 -2.96524726e-02
      -6.33311272e-02 -3.37949805e-02 -3.08778789e-02 6.22139312e-04
      -7.69663043e-03 1.60816889e-02 2.17711907e-02 -5.59198251e-03
      -1.21607296e-02 -5.37486887e-03 -4.56560813e-02 -5.44373654e-02
      2.60644611e-02 4.56398092e-02 6.35350198e-02 9.94911715e-02
      8.20236281e-02 -7.55093340e-03 -7.82845840e-02 -4.31722030e-02
      -3.73719111e-02 2.22024657e-02 -4.02159132e-02 -1.49934669e-03
      1.55188041e-02 2.08842419e-02 -6.51300838e-03 -3.65967378e-02
      -1.68908592e-02 -1.38868745e-02 -2.59326268e-02 -5.97421229e-02
      -7.02374950e-02 -1.02785798e-02 -3.50117870e-03 -1.73414648e-02
      -7.76149752e-03 -6.93247095e-02 -1.11562191e-02 3.27906720e-02
      3.27784382e-02 -3.08243651e-02 3.52818333e-02 3.92969958e-02
      8.39667744e-04 -5.81291318e-02 -1.57824717e-02 -3.11043859e-02
      -3.85376178e-02 -6.25096774e-03 -2.67202724e-02 -1.29799219e-02
      2.72599459e-02 1.17647527e-02 -5.71344467e-03 -8.66134390e-02
      -1.25224469e-02 1.70984231e-02 5.00639416e-02 5.17518260e-02
      -2.52574543e-03 6.15500174e-02 1.80073325e-02 -5.07928692e-02
      -7.58592784e-02 -1.08702555e-02 3.92038636e-02 1.96835008e-02
      -1.44310361e-02 -5.29560214e-03 1.25737377e-02 -2.39223074e-02
      -6.74099699e-02 -2.60865446e-02 1.43086687e-02 2.32580099e-02
      -1.48863820e-02 -1.36619834e-02 -4.14361618e-02 -6.79072365e-03
      -1.82587933e-02 -5.76631948e-02 -9.77028757e-02 1.10196578e-03
      2.91287806e-02 4.48589660e-02 2.33237110e-02 -2.91020013e-02
      -1.47771242e-03 -1.28488205e-02 -6.71714917e-02 -5.83136715e-02
      2.15241332e-02 -1.66904193e-03 3.18888612e-02 -2.08815206e-02
      -6.15000725e-02 -2.16902401e-02 -1.36637148e-02 -5.16236648e-02
      1.67382285e-02 2.99995374e-02 -1.18987747e-02 -2.49437597e-02
      -4.60519120e-02 -2.07999330e-02 -2.66909297e-03 1.17297359e-02
      2.12486666e-02 7.32751703e-03 1.03551324e-03 -4.82308902e-02
      -6.32196069e-02 -6.61234036e-02 1.81109610e-03 -1.08611966e-02
      1.64804552e-02 2.77101025e-02 1.26876850e-02 -1.28296958e-02
      -2.97842007e-02 -1.01579921e-02 -4.56073768e-02 -3.85808609e-02
      8.37889500e-03 3.43446508e-02 2.56223828e-02 1.33435344e-02
      -3.93303558e-02 -8.05640146e-02 -4.51890007e-02 -4.49141487e-02
      -3.29671949e-02 -1.74505152e-02 3.31202336e-02 6.67975396e-02
      2.87581533e-02 -8.53285380e-03 -3.06809172e-02 -5.02627604e-02
      -9.57176313e-02 -1.32425781e-02 2.34201197e-02 3.28894220e-02
      4.27237824e-02 3.12696882e-02 1.16399825e-02 -8.60614702e-03
      -6.55168965e-02 -1.04007274e-01 -7.37922937e-02 1.35977929e-02
      2.39058007e-02 3.30866463e-02 4.99424078e-02 4.35070554e-03
      -2.91892253e-02 -4.48900722e-02 -7.51021430e-02 -3.47574688e-02
      2.18749512e-03 3.45253795e-02 8.77325013e-02 4.79815528e-02
      2.46638525e-02 3.14824879e-02 -6.71836659e-02 -1.03816412e-01
      -4.70835976e-02 1.12021770e-02 3.02807149e-02 8.15423857e-03
      7.11476291e-03 1.56069566e-02 -4.01205209e-04 -3.35183591e-02
      -7.34787509e-02 -6.16104789e-02 3.40999290e-02 3.06320377e-02
      2.19589788e-02 -1.71576105e-02 -1.56783219e-02 -2.99164131e-02
      -6.34321198e-02 -6.17951788e-02 -2.86987261e-03 8.03917348e-02
      2.85567995e-02 -1.57384500e-02 7.09866034e-03 6.00063503e-02
      3.86570059e-02 -5.34257554e-02 -6.25855550e-02 -2.94192284e-02
      3.02219279e-02 4.10030894e-02 1.65026588e-03 -1.01291379e-02
      2.20625084e-02 -2.10568588e-02 -6.92739114e-02 -5.19445799e-02
      6.10521762e-03 5.51600866e-02 2.34503113e-02 -2.09594648e-02
      -3.41828316e-02 -2.87026428e-02 5.45775052e-03 -2.68947333e-02
      -4.34118733e-02 -1.53900578e-03 4.96397652e-02 8.14527459e-03
      -3.75442803e-02 -2.89468952e-02 -4.64458950e-02 6.56588934e-03
      4.55076881e-02 1.86897367e-02 1.48126185e-02 8.08303617e-03
      8.57001357e-03 -2.69796643e-02 -1.42273679e-02 -3.53858434e-02
      -2.43686475e-02 -5.45302629e-02 -5.55423787e-03 2.54493603e-03
      4.49258052e-02 3.48096006e-02 -1.42634539e-02 -1.65417697e-02
      -4.15125154e-02 -5.15820866e-04 5.73056042e-02 4.00613137e-02
      -1.23490151e-02 -5.78893535e-03 4.46746219e-03 -1.88418385e-02
      -3.06625068e-02 -2.37804912e-02 2.81107910e-02 6.43864498e-02
      5.96360862e-02 6.29383996e-02 2.76497100e-02 -1.63097009e-02
      -4.27421518e-02 -3.24118435e-02 -1.16451392e-02 6.99176593e-03
      -6.81138458e-03 9.76218563e-03 1.14825265e-02 -6.04940765e-03
      -3.89472283e-02 -4.20414694e-02 -3.13768201e-02 -1.99765991e-02
      6.49098260e-03 8.20824206e-02 9.31361318e-02 1.98174976e-02
      -9.66836512e-03 -3.25738527e-02 -2.98058428e-02 -1.79361086e-02
      -1.54589312e-02 -1.93159319e-02 2.62663998e-02 2.09458061e-02
      -1.71469082e-03 8.29117052e-05 -3.17535102e-02 -3.41468938e-02
      -4.06718114e-03 -4.16601188e-02 -7.07222447e-02 -2.99431235e-02
      1.87034218e-03 -3.34737785e-02 -2.41538917e-04 -1.95276365e-02
      -1.20985182e-02 -6.64219260e-02 -6.64702430e-02 -2.17383672e-02
      2.00824495e-02 8.87693539e-02 -6.25498453e-03 2.47582216e-02
      8.57607089e-03 -2.30835769e-02 3.60870808e-02 -3.53685990e-02
      -7.29635730e-02 -1.44415069e-02 -3.43427509e-02 -6.77462667e-02
      -2.53822356e-02 -3.05005945e-02 1.12385862e-02 -3.29339765e-02
      -5.46323992e-02 -7.11704567e-02 1.45215797e-03 4.08569686e-02
      3.89391370e-02 2.20962279e-02 -6.99683744e-03 -6.04138616e-03
      -1.01045839e-01 -2.09972113e-02 6.73796330e-03 2.31085531e-02
      4.58990894e-02 2.80630798e-03 8.28940980e-03 3.44739929e-02
      -3.73774245e-02 -6.84629977e-02 5.35457209e-03 -5.47801405e-02
      1.83055028e-02 -8.18812102e-03 -2.75653470e-02 -3.23729105e-02
      1.91977918e-02 -6.09352160e-03 -8.28718990e-02 -5.41563295e-02
      -6.89000934e-02 1.05021792e-02 1.79104563e-02 2.24156417e-02
      2.63618566e-02 1.03547145e-02 -2.50166561e-02 -6.32758439e-02
      -3.25674415e-02 -7.18270168e-02 -3.20723727e-02 -2.56768800e-02
      8.11904576e-03 -1.35338642e-02 7.82749336e-03 -2.05600373e-02
      3.96467745e-03 1.40932817e-02 -5.36531769e-02 1.61081478e-02
      4.58595064e-03 -3.15096565e-02 -5.99562889e-03 3.77928205e-02
      3.33259031e-02 3.76608968e-02 -3.28928116e-03 -5.23387305e-02
      -3.64894681e-02 -7.18240812e-03 -5.01423478e-02 -1.13975434e-02
      1.86151676e-02 5.06419055e-02 2.18125712e-03 -4.42182791e-04
      -4.15264368e-02 -3.49895246e-02 -1.46678379e-02 -4.11490491e-03
      2.73620747e-02 2.23836303e-02 2.29381118e-02 -2.39219191e-03
      -1.98482331e-02 -5.04205599e-02 -5.94095550e-02 -2.45780721e-02
      -1.25609543e-02 1.96989626e-03 1.56726674e-04 7.05386978e-03
      5.98349534e-02 1.92009974e-02 -1.53614674e-03 -4.86960970e-02
      -5.76790981e-02 -4.37436923e-02 1.26177222e-02 3.08118872e-02
      6.11586310e-02 3.75627913e-02 1.44703938e-02 1.73971225e-02
      -6.75763935e-02 -1.03022233e-01 -1.98316313e-02 3.30968038e-03
      1.48167834e-02 1.66024435e-02 3.05566173e-02 3.44896726e-02
      -2.08534040e-02 -7.05012381e-02 -4.35237810e-02 -4.80735069e-03
      2.23581586e-02 2.44285371e-02 2.52889041e-02 1.39682256e-02
      5.29192500e-02 1.31605112e-03 -4.70072813e-02 -6.61317632e-02
      -2.28519216e-02 8.59982613e-03 3.24077229e-03 -7.46944128e-03
      2.11303774e-02 2.38937773e-02 7.80727202e-03 -1.61200631e-02
      -9.03655663e-02 -2.04596072e-02 1.74407810e-02 8.53791833e-03
      -2.34423317e-02 1.09614814e-02 4.93263500e-03 8.48987955e-04
      -1.44941248e-02 -3.50124426e-02 1.40255103e-02 2.25427989e-02
      -2.20606439e-02 -1.21921757e-02 -4.36548253e-05 1.92910135e-02
      1.49358418e-02 -3.28557496e-03 -7.21733645e-02 -6.92538684e-03
      1.95866376e-02 -1.29672484e-02 -1.97536554e-02 -1.92469768e-02
      -1.02201607e-02 4.57213707e-02 -2.54737977e-02 -5.05874725e-03
      9.69911169e-04 1.19476663e-02 -2.10906807e-02 -1.18081821e-02
      -4.94696945e-03 -1.74421165e-02 1.07786674e-02 -3.80048566e-02
      8.04649387e-03 2.48690955e-02 5.30517623e-02 -3.75725655e-03
      -1.45048657e-02 -2.01796256e-02 -2.96594929e-02 3.82981775e-03
      2.43788753e-02 5.15429266e-02 -1.22401929e-02 -1.33010689e-02
      -1.13640074e-02 -2.11401600e-02 -4.72804084e-02 -2.24900413e-02
      5.74190877e-02 -2.41343863e-02 -4.89998423e-03 8.14558193e-03
      2.62250733e-02 9.30854958e-03 -2.21485291e-02 -3.05183772e-02
      -2.07619090e-02 1.99593920e-02 1.34125771e-02 2.11231504e-02
      2.42885854e-02 1.49932341e-03 -2.28758864e-02 -5.26369624e-02
      -1.47577012e-02 -2.09077355e-02 1.72313899e-02 5.03567941e-02
      5.76452464e-02 9.73074976e-03 -1.32655883e-02 -1.53926965e-02
      -9.30712745e-03 -1.62249152e-03 -9.62348562e-03 -1.49595058e-02
      1.06910681e-02 -8.54889490e-03 8.61229934e-03 -1.34725473e-03
      -9.26068518e-03 -2.23374665e-02 -2.41729850e-03 -3.80648905e-03
      1.84258856e-02 2.05697361e-02 1.20835239e-03 5.58699667e-02
      1.58109777e-02 -2.83928309e-02 -1.78316068e-02 -7.56384013e-03
      -1.09277926e-02 2.99738161e-02 -2.01760624e-02 -2.09778571e-03
      2.36736368e-02 -1.01679126e-02 -3.50879170e-02 -2.65405383e-02</_>
    <_>
      -1.53998043e-02 5.67266531e-03 2.55525634e-02 8.89662839e-03
      -7.19593884e-03 1.43620800e-02 2.22515631e-02 1.70136821e-02
      2.82514445e-03 -3.42890322e-02 1.21605338e-03 6.18682168e-02
      5.67642339e-02 8.53756350e-03 -8.78939312e-03 3.20779048e-02
      1.10691898e-02 -1.29529284e-02 -4.11494970e-02 -1.00990199e-03
      3.50108556e-02 2.81316545e-02 -1.79720521e-02 1.66451223e-02
      2.78654806e-02 -3.12159886e-03 -2.00562123e-02 -6.60033971e-02
      -1.12895882e-02 3.71278673e-02 4.34451103e-02 1.74521506e-02
      1.71296783e-02 3.62834334e-02 -1.33211445e-02 -5.07005304e-02
      -3.22226137e-02 -6.89623295e-04 1.55069092e-02 3.38851586e-02
      -3.34409135e-03 -2.05270527e-03 2.20962074e-02 -8.91918223e-03
      -2.69551575e-02 -1.76285747e-02 3.40554601e-04 -8.36304389e-03
      -4.01277235e-03 1.34056704e-02 4.32983339e-02 2.79325545e-02
      -3.94964144e-02 -2.85949353e-02 -5.27466536e-02 1.83649384e-03
      1.92181673e-02 2.73743700e-02 3.27989757e-02 2.97930371e-02
      3.68933380e-02 -8.07243399e-03 -4.79882509e-02 -3.94176021e-02
      -2.43925280e-03 -7.72943301e-03 1.09182689e-02 2.78782994e-02
      5.43949306e-02 4.27434891e-02 -2.55815778e-02 -1.48457466e-02
      -1.21276071e-02 -2.36619208e-02 -1.50762657e-02 -1.72562636e-02
      3.98850767e-03 3.12266089e-02 2.47115456e-02 -1.49154570e-02
      -1.34822121e-03 3.40120979e-02 -3.96959968e-02 -1.98678039e-02
      -2.83174179e-02 -1.86774861e-02 3.08508822e-03 2.59588584e-02
      2.92860027e-02 3.57945412e-02 -7.17292773e-03 -8.65724869e-03
      -1.00740669e-02 1.92849245e-03 1.86263602e-02 3.80230173e-02
      2.97753830e-02 -5.80676971e-03 1.57000795e-02 1.92061141e-02
      6.81061670e-03 -2.40463018e-02 -1.03320405e-02 -3.01720630e-02
      2.51736084e-04 1.63709614e-02 3.03449966e-02 4.39590737e-02
      3.50993350e-02 -1.49615146e-02 4.24916297e-03 -1.84806734e-02
      -4.76735979e-02 -1.09811313e-02 3.49360332e-02 4.73933928e-02
      5.30092977e-02 4.85461066e-03 1.35367655e-03 1.72877777e-02
      1.22497007e-02 -3.36432159e-02 8.87045544e-03 6.01017475e-02
      6.61983863e-02 2.66796574e-02 6.23453595e-03 8.13447312e-03
      6.41994365e-03 -1.22343134e-02 -6.60403743e-02 -1.62566472e-02
      4.44400907e-02 5.02387099e-02 3.41423266e-02 -3.21141295e-02
      1.74100848e-03 2.42997874e-02 3.47046414e-03 -5.51832430e-02
      3.10421479e-03 7.14012012e-02 7.05802962e-02 2.09067557e-02
      -2.31556837e-02 -1.72635242e-02 1.97414737e-02 6.29226631e-03
      -4.38118167e-02 -9.46335681e-03 3.43825966e-02 4.95309457e-02
      -9.69072431e-03 -2.77936384e-02 -2.25375593e-02 2.73617525e-02
      2.72148717e-02 3.30475345e-02 4.44279052e-02 2.50461232e-02
      2.57771257e-02 -1.33276982e-02 -4.31064740e-02 -7.02900253e-03
      1.44447479e-02 -1.97438784e-02 -4.84118499e-02 4.68958839e-04
      4.64369059e-02 3.53392251e-02 -2.41716336e-02 -5.07924594e-02
      -4.39589191e-03 3.17201428e-02 2.85253059e-02 1.25259524e-02
      2.55823527e-02 3.09696961e-02 1.77623667e-02 -3.07903793e-02
      -2.92962939e-02 -2.92675681e-02 9.68573149e-03 1.33663882e-02
      2.03651469e-02 3.85960750e-02 2.08966434e-02 7.75184715e-03
      -1.27244024e-02 -2.87734941e-02 -3.94192077e-02 -9.21439566e-03
      1.73149556e-02 2.42679864e-02 5.08503877e-02 2.75929216e-02
      3.29273380e-03 -7.04316935e-03 -4.93828356e-02 -9.37436894e-03
      2.80558858e-02 1.81634370e-02 1.58769526e-02 1.96737107e-02
      5.75600797e-03 8.52161646e-03 -2.60256343e-02 -4.19837646e-02
      -2.45315935e-02 5.65569103e-03 1.27790989e-02 2.20684335e-02
      5.06034382e-02 3.21292132e-02 7.61402957e-03 -2.67028883e-02
      1.82830985e-03 -9.89081990e-03 1.69937834e-02 5.16178943e-02
      -1.23444311e-02 3.84602509e-02 1.66652463e-02 5.89456782e-03
      9.03340988e-03 2.54927482e-02 1.13630826e-02 2.41490621e-02
      3.68623026e-02 -1.64001528e-02 -8.05791561e-03 2.39763781e-02
      4.62877797e-03 1.89830735e-02 -7.04617519e-03 -2.45875423e-03
      2.42353976e-02 2.65582632e-02 -5.75746642e-03 4.93455715e-02
      2.99795624e-02 2.00985111e-02 -1.17576364e-02 1.37573984e-02
      2.34210603e-02 2.41532940e-02 1.92094352e-02 -2.20770072e-02
      1.03214495e-02 2.98958942e-02 2.08859723e-02 6.77666441e-03
      -3.79964709e-02 -1.74185038e-02 1.85990296e-02 1.09288059e-02
      -1.76626779e-02 2.17614062e-02 2.60211807e-02 1.27910972e-02
      -2.11191066e-02 -6.64024651e-02 -8.33946653e-03 1.04717202e-02
      4.99871783e-02 6.65774336e-03 4.58370000e-02 4.38126810e-02
      3.90534252e-02 -4.02015038e-02 -2.57999450e-02 -1.34400195e-02
      -3.31481756e-03 -6.04903605e-03 -4.27407166e-03 3.73676009e-02
      3.45078819e-02 2.34975331e-02 -1.24366516e-02 -3.98237333e-02
      -1.93090569e-02 2.69806292e-02 3.91202122e-02 2.11739950e-02
      2.51090359e-02 3.73893455e-02 4.32328284e-02 -1.75806507e-02
      -6.22628517e-02 -2.05598678e-02 -2.57622767e-02 2.93025076e-02
      1.14502460e-02 4.17199247e-02 5.44994213e-02 2.50525605e-02
      -4.21842337e-02 -4.19167839e-02 -8.06995761e-03 -1.27855428e-02
      4.57405532e-03 3.81224905e-03 3.25930454e-02 3.59857008e-02
      -2.93439580e-03 -2.48251613e-02 -4.79612015e-02 -1.78598799e-02
      -5.01189148e-03 2.36860141e-02 -1.03403553e-02 9.29722004e-03
      2.70853229e-02 3.23742703e-02 -2.46882662e-02 -2.59261578e-02
      4.80870716e-03 -1.09183881e-02 9.21434909e-03 -1.30477152e-03
      2.47873068e-02 3.08002159e-02 2.12723501e-02 -1.66671257e-02
      -9.15225409e-03 -3.92669055e-04 -1.77741167e-03 -4.45613405e-03
      -9.39186662e-03 2.21402720e-02 2.26045214e-02 2.79941270e-03
      1.92417745e-02 2.55032368e-02 -7.94750731e-03 -3.46690081e-02
      -2.14348603e-02 -5.02001978e-02 -2.86138691e-02 7.40962476e-03
      2.21727993e-02 3.24211754e-02 -6.30499620e-04 3.77350632e-04
      1.51789505e-02 1.79891996e-02 -7.81279709e-03 2.47888900e-02
      1.84976384e-02 2.94015538e-02 2.69122683e-02 1.92790795e-02
      9.24571790e-03 -3.08035351e-02 -2.84266435e-02 -4.50145118e-02
      -7.30368635e-03 1.27270781e-02 4.26501855e-02 5.38975708e-02
      9.70853120e-03 -2.92191724e-03 -1.59802921e-02 -1.94812417e-02
      -5.04824258e-02 -3.57885733e-02 1.38675906e-02 3.36927921e-02
      3.44901085e-02 -1.69474576e-02 -9.21236072e-03 2.83306483e-02
      -2.07458418e-02 -5.69281764e-02 -1.24489039e-03 4.66512218e-02
      6.77168518e-02 2.55212951e-02 3.64271142e-02 6.55749720e-03
      -4.88909893e-03 -2.27548387e-02 -2.80925371e-02 -1.63219143e-02
      1.00615770e-02 4.96697128e-02 4.49135751e-02 7.04463944e-03
      2.86048912e-02 2.35612076e-02 -2.31158156e-02 -5.44851273e-02
      3.46011110e-03 3.39638144e-02 6.56008795e-02 3.69330496e-02
      -1.87155362e-02 1.14984494e-02 3.31914015e-02 -1.09928027e-02
      -5.15547059e-02 1.23402593e-03 3.93199734e-02 5.56391552e-02
      -1.02696959e-02 -3.23992185e-02 1.06448308e-02 3.84557918e-02
      4.39916775e-02 -2.71072220e-02 1.16580110e-02 2.17671487e-02
      1.68686993e-02 -3.16839404e-02 -1.45792784e-02 1.32441847e-02
      1.17505919e-02 -3.54412459e-02 -7.51000941e-02 -3.08434409e-03
      4.07537222e-02 6.75650090e-02 1.53146349e-02 -3.26144397e-02
      -2.88027804e-03 2.36488506e-02 5.78541681e-03 -3.00331414e-02
      1.91004649e-02 4.89451475e-02 4.70482446e-02 -1.75183155e-02
      -2.82654241e-02 1.32847927e-04 2.08179783e-02 2.58549228e-02
      -2.29828581e-02 9.25530400e-03 1.12932594e-02 2.75669284e-02
      -1.81524344e-02 -2.38976870e-02 -6.78408984e-03 4.96170903e-03
      2.33842768e-02 2.54967045e-02 6.39279410e-02 2.40910426e-02
      1.41339572e-02 -2.56392583e-02 -2.30375715e-02 -9.65544581e-03
      9.46864113e-03 -1.42336369e-03 -1.89628662e-03 2.01574191e-02
      3.30090560e-02 4.00900804e-02 -1.69373211e-02 -3.27573009e-02
      -4.75625129e-04 7.93895032e-03 2.15865057e-02 3.35236080e-02
      5.42236380e-02 3.57711017e-02 1.95196420e-02 -2.96311695e-02
      -5.19511849e-03 1.57401823e-02 2.40884889e-02 3.69240455e-02
      -5.13004046e-03 5.16246259e-02 3.38830277e-02 2.18114052e-02
      -1.14095118e-02 9.92869725e-04 2.76311692e-02 3.22713815e-02
      3.47601436e-02 -2.05887072e-02 1.27906660e-02 3.30206566e-02
      3.87049280e-02 6.97142957e-03 -5.25140809e-03 2.82516070e-02
      4.11168300e-02 5.35789393e-02 -7.86732230e-03 5.03938161e-02
      4.70106378e-02 2.39562988e-02 -1.50432456e-02 -3.94915289e-04
      3.06211766e-02 4.63575907e-02 5.21607660e-02 -1.42194685e-02
      2.10988312e-03 5.75523823e-02 3.21619362e-02 2.39994866e-03
      -2.96330657e-02 -2.19225883e-02 -1.36498932e-03 -7.97872432e-03
      1.17797125e-02 4.49672528e-02 3.90764959e-02 2.89904047e-02
      -1.67528596e-02 -4.99605276e-02 -2.16813553e-02 2.70262398e-02
      3.60410362e-02 9.32266656e-03 4.53584082e-02 5.46342023e-02
      3.92859019e-02 -2.22446490e-02 -2.62912028e-02 -3.55898403e-02
      -6.20672014e-03 -8.34287331e-03 -7.19634059e-04 4.62051556e-02
      6.37754425e-02 3.97445671e-02 -1.58172976e-02 -4.84021567e-02
      -3.73359658e-02 3.58901150e-03 2.55338121e-02 2.25222437e-03
      4.17715237e-02 6.78223372e-02 5.41831516e-02 -2.72268318e-02
      -5.38061745e-02 -2.85114106e-02 -1.26002282e-02 2.31021084e-02
      -9.80041642e-03 3.74357589e-02 5.14906533e-02 4.10921685e-02
      -1.02426363e-02 -1.29435565e-02 -1.92550439e-02 -1.47915892e-02
      3.04120593e-03 1.01136249e-02 2.33121701e-02 3.24166566e-02
      1.19044194e-02 -8.59815907e-03 -5.45873195e-02 -5.12894467e-02
      -2.99064480e-02 1.16907181e-02 -1.09015424e-02 2.01288164e-02
      4.64189686e-02 3.92333679e-02 -1.96807366e-02 -2.50760820e-02
      -2.36685593e-02 -3.93610373e-02 -2.53877393e-03 -2.52199546e-03
      3.36403064e-02 3.97146679e-02 1.57630965e-02 -3.00015230e-03
      1.20793199e-02 -1.13464687e-02 6.93346234e-03 1.08056804e-02
      4.53113066e-03 1.72069911e-02 7.36495433e-03 1.21952873e-02
      1.03455829e-02 3.51007022e-02 -6.98511302e-03 -2.57980078e-02
      -2.53451746e-02 -3.22275572e-02 -2.94596143e-03 1.43411267e-03
      2.92056147e-02 3.62066068e-02 4.33093496e-03 -7.55288452e-03
      -1.17217768e-02 -1.47263912e-04 -5.34674292e-03 2.64496561e-02
      2.69370750e-02 7.71219190e-03 3.03302682e-03 6.96767727e-03
      -1.07691260e-02 -2.81830486e-02 -3.87302116e-02 -3.28112654e-02
      1.49058970e-03 2.68350728e-02 3.12039442e-02 3.56968045e-02
      3.92838866e-02 1.74896102e-02 4.69983788e-03 -2.13705916e-02
      -2.01708488e-02 -8.83428846e-03 5.82333421e-03 4.63703163e-02
      4.41429913e-02 1.28824497e-02 9.35574714e-03 3.60573754e-02
      -1.40097924e-02 -5.83734810e-02 1.53363135e-03 2.85334047e-02
      6.04226738e-02 3.34964320e-02 4.95546237e-02 -8.88359034e-04
      -1.36975935e-02 -2.42671333e-02 -2.69921385e-02 -1.36258667e-02
      2.24251598e-02 5.17124794e-02 4.82137017e-02 8.74346215e-03
      7.80698669e-04 2.31282748e-02 -1.07305571e-02 -6.09173700e-02
      -1.97559875e-02 2.61387434e-02 5.89904524e-02 2.80421674e-02
      -1.74646098e-02 -2.85603059e-03 2.09648423e-02 8.96260515e-03
      -5.65726496e-02 1.58441532e-03 3.98408957e-02 5.88128306e-02
      1.93260796e-02 -3.28366049e-02 -1.75378297e-03 3.28921638e-02
      2.56771110e-02 -8.61741230e-03 5.41419424e-02 5.49816340e-02
      5.35247922e-02 6.46706764e-03 -3.47080342e-02 -1.55428168e-03
      3.80003005e-02 -7.33186956e-03 -6.75807968e-02 -7.00854883e-03
      3.67301777e-02 4.41644564e-02 9.81871132e-03 -6.26567155e-02
      -1.44802900e-02 3.43244225e-02 1.97134055e-02 -2.59119142e-02
      5.55645898e-02 6.92015812e-02 4.39857915e-02 5.42565854e-03
      -2.82235648e-02 -1.49004320e-02 2.07661954e-03 -1.97804812e-03
      1.36717106e-03 3.78582776e-02 3.79699245e-02 2.94132866e-02
      -2.90090963e-02 -3.28432098e-02 -1.61850534e-03 1.72652807e-02
      4.03290801e-02 3.84398848e-02 3.46177369e-02 2.85518970e-02
      1.29200611e-02 -5.08720055e-02 -4.31957990e-02 -1.33700622e-02
      -2.18580384e-03 2.63584778e-03 4.22172714e-03 3.79394032e-02
      4.86230254e-02 3.66643444e-02 -1.38818007e-02 -5.50997742e-02
      -1.08061275e-02 1.28061911e-02 4.36300077e-02 3.52018066e-02
      3.05349827e-02 4.18867171e-02 2.33736932e-02 -3.10253948e-02
      -1.81520078e-02 1.68377329e-02 3.29130180e-02 6.29868805e-02
      -4.48004715e-03 4.06318903e-02 5.46226241e-02 2.41649784e-02
      -2.42803618e-02 -6.84844609e-03 1.29681965e-02 2.50737201e-02
      5.00449091e-02 -8.09712894e-03 2.25754292e-03 5.16363718e-02
      3.01189460e-02 -1.29234251e-02 -2.65137982e-02 1.94411110e-02
      3.73497605e-02 6.74144253e-02 1.11952249e-03 3.77230607e-02
      5.54599576e-02 2.50786431e-02 -1.43304549e-03 -2.80254614e-03
      1.85294226e-02 3.60172540e-02 5.46496809e-02 -8.17548670e-03
      6.40939223e-04 4.91534770e-02 2.95971408e-02 6.52417820e-03
      -2.55732425e-02 -2.40990166e-02 4.34030546e-03 -1.20205861e-02
      -2.49895267e-02 2.51210500e-02 4.52541113e-02 2.44167875e-02
      -1.85370364e-03 -4.06102352e-02 -3.71979773e-02 -2.38536228e-03
      2.21135933e-02 -2.71894434e-03 2.75664777e-02 5.96480146e-02
      3.80218998e-02 -1.18221641e-02 -1.10107288e-02 -2.46465113e-02
      -2.63590249e-03 -1.63896964e-03 -2.14820020e-02 2.27344148e-02
      4.92549166e-02 4.12770621e-02 9.47645213e-03 -2.79617216e-02
      -5.28851263e-02 -8.71388800e-03 2.93261223e-02 1.83041021e-02
      2.38236357e-02 5.09809665e-02 2.24328339e-02 6.84973598e-03
      -5.13809994e-02 -4.40567285e-02 -3.23311612e-02 1.03739128e-02
      -4.22765082e-03 3.93237323e-02 5.64997382e-02 3.04160342e-02
      -8.08693189e-03 -2.37908401e-02 -3.95558923e-02 -2.35417746e-02
      -1.29763540e-02 -3.00034881e-03 3.82012762e-02 3.53864096e-02
      1.03662498e-02 -4.75279381e-03 -3.99792865e-02 -5.93546592e-02
      -8.56922194e-03 2.45601423e-02 1.25446562e-02 2.87865885e-02
      3.02574132e-02 1.03986803e-02 -1.01118553e-02 -3.23837511e-02
      -3.58519517e-02 -2.95913126e-03 -1.72123089e-02 -6.01148140e-03
      2.88758855e-02 1.80256981e-02 1.48339465e-03 -2.17926670e-02
      1.51345478e-02 -1.43263731e-02 -1.25094298e-02 -2.47716755e-02
      -1.22900307e-02 3.64250056e-02 3.37114185e-02 2.10007299e-02
      2.84280833e-02 3.03406101e-02 -1.34561090e-02 -3.79147567e-02
      -6.14599027e-02 -3.70680913e-02 1.50974467e-02 3.72702032e-02
      3.39814387e-02 6.18269853e-02 -1.27819637e-02 -1.35226827e-02
      -1.73506874e-03 -2.69022305e-02 -1.39950095e-02 2.37736776e-02
      2.86548808e-02 1.37171876e-02 1.28329294e-02 8.10078532e-03
      -1.71182286e-02 -3.46348099e-02 -3.24620530e-02 -4.92299385e-02
      -1.04244268e-02 2.50459164e-02 3.21452357e-02 3.86047550e-02
      7.37560913e-02 3.30872979e-04 -5.09951077e-03 -3.55369300e-02
      -4.13945429e-02 9.58436693e-04 4.12308127e-02 5.16139977e-02
      7.92498738e-02 4.81199957e-02 5.20170550e-04 1.55375395e-02
      -3.65071446e-02 -7.53610432e-02 -1.89599432e-02 3.23171504e-02
      4.69569899e-02 3.94152738e-02 3.73832285e-02 -3.73338466e-03
      1.91043154e-03 -9.28955711e-03 -3.14509496e-02 4.49752249e-03
      4.20588143e-02 5.01302630e-02 5.92008345e-02 2.92124748e-02
      -8.62217974e-03 1.63143277e-02 -3.59419100e-02 -9.68388021e-02
      -8.27044435e-03 3.30699682e-02 4.69630174e-02 2.84196921e-02
      -2.57991836e-03 -7.83636048e-03 3.73019613e-02 -2.64376570e-02
      -7.39730969e-02 -1.32513391e-02 3.26109305e-02 3.51303667e-02
      1.46262366e-02 -2.23354828e-02 -1.26679391e-02 3.25635411e-02
      3.78439762e-02 -7.91602954e-03 4.66500856e-02 6.24894127e-02
      4.37965244e-02 1.04824556e-02 3.60976532e-03 -1.02945780e-02
      1.63958147e-02 -3.36933546e-02 -7.15107098e-02 -1.62937120e-02
      3.92180607e-02 4.65151705e-02 1.51061406e-02 -1.48657970e-02
      -1.24888206e-02 9.19581763e-03 2.60331221e-02 -1.11941760e-02
      2.44856700e-02 4.83087637e-02 5.64702824e-02 1.44100084e-03
      -3.69890593e-02 -2.31304150e-02 -6.55774307e-03 2.04772241e-02
      9.93729942e-03 2.70483792e-02 4.94183972e-02 3.71625125e-02
      -8.94593820e-03 -5.21453843e-02 -2.73510627e-02 1.67268037e-03
      3.44046056e-02 1.50479544e-02 3.31809148e-02 3.82554792e-02
      2.31151693e-02 -7.71620683e-03 -4.24669832e-02 -4.13465016e-02
      -1.79576315e-02 1.15616452e-02 -6.26558950e-03 1.62212458e-02
      4.25823294e-02 4.04342040e-02 -1.50291761e-02 -6.34051561e-02
      -4.95177805e-02 -1.39781171e-02 1.07883476e-02 -2.07036734e-03
      4.78910170e-02 4.43900824e-02 1.63486879e-02 -2.19510179e-02
      -2.49766223e-02 6.85978588e-03 2.84273159e-02 4.33124118e-02
      -9.97147709e-03 4.10931706e-02 3.84656861e-02 4.11937432e-03
      -7.08945561e-03 -6.23442116e-04 8.32813047e-03 3.27838436e-02
      4.26261164e-02 -1.79104768e-02 -2.05905735e-02 3.27095017e-02
      -3.29248491e-04 3.84643354e-04 -1.83097944e-02 -1.13907484e-02
      1.18290382e-02 3.14655229e-02 -1.05727306e-02 4.07103486e-02
      5.01498319e-02 6.04387512e-03 -2.19686609e-03 3.09221353e-02
      1.70158967e-02 2.75315512e-02 2.25123484e-02 -1.70632321e-02
      -1.68043803e-02 4.58085351e-02 2.52041174e-03 2.15007626e-02
      -2.84583215e-02 -5.11338152e-02 -1.70871913e-02 8.98493640e-03
      -1.80328526e-02 3.07526346e-03 4.05259170e-02 2.21509393e-02
      3.86774424e-03 -4.89493906e-02 -7.22481087e-02 -1.10455621e-02
      4.18823101e-02 1.16753699e-02 2.30869427e-02 2.36198176e-02
      1.64715424e-02 -6.11343246e-04 -1.89714022e-02 -2.17714924e-02
      -7.01657869e-03 1.13459798e-02 8.12055450e-03 3.46734934e-02
      4.33610864e-02 1.45186624e-02 2.64642481e-02 -2.06983332e-02
      -4.24825735e-02 1.27724307e-02 5.02432249e-02 2.48323772e-02
      4.07610312e-02 2.68636774e-02 2.12401450e-02 -3.58692533e-03
      -7.03549758e-02 -7.15892687e-02 -1.80706512e-02 1.45429447e-02
      4.04835679e-04 2.78814416e-02 2.54750140e-02 1.39231095e-02
      -1.90286543e-02 -3.05603035e-02 -3.20111401e-02 -7.75642740e-03
      -2.53854897e-02 -1.42448498e-02 4.81625507e-03 1.49535052e-02
      1.16095124e-02 -1.57423094e-02 -2.13841703e-02 -3.10109947e-02
      2.30166595e-02 8.90164636e-03 1.22397197e-02 2.50522383e-02
      2.14004442e-02 1.02963345e-02 -2.12233029e-02 -1.06776552e-02
      -1.47133358e-02 1.99875738e-02 -1.68885496e-02 2.80503562e-04
      1.55014442e-02 5.25957420e-02 2.31112298e-02 -1.17323492e-02
      -6.21341914e-03 -8.66821315e-03 -4.48334776e-03 -3.16309258e-02
      -2.95238160e-02 5.31468308e-03 1.76489111e-02 1.28624756e-02
      3.27191921e-03 1.27831986e-02 -2.66821757e-02 -3.24917249e-02
      -3.97129804e-02 -4.34846431e-02 -2.06023157e-02 3.45716649e-03
      9.03141499e-03 2.78412718e-02 9.73637309e-03 1.13103190e-03
      -1.08284000e-02 -2.24260446e-02 -1.27655379e-02 2.56318115e-02
      3.55079509e-02 1.64977945e-02 2.83823144e-02 2.97296476e-02
      -1.44703705e-02 -3.94227281e-02 -3.83816473e-02 -3.15399840e-02
      1.00812130e-02 9.52157658e-03 2.24706270e-02 5.97089268e-02
      3.36287431e-02 -1.47575866e-02 4.05186415e-03 -2.09275614e-02
      -3.13758701e-02 -4.72051883e-03 2.08385848e-02 3.69245186e-02
      5.33432886e-02 1.03101721e-02 -1.01056863e-02 2.13410985e-02
      -4.15527597e-02 -7.45008513e-02 -1.84475221e-02 1.88032705e-02
      2.89350171e-02 2.15085819e-02 5.38181141e-02 5.05360588e-03
      -1.42541789e-02 -1.28363064e-02 -2.30916850e-02 1.59481764e-02
      4.10645753e-02 3.93075794e-02 6.33262545e-02 2.57674176e-02
      -2.45132786e-03 7.50397518e-03 -2.89626028e-02 -5.66647835e-02
      2.61789700e-03 5.30843772e-02 5.09146340e-02 4.32178974e-02
      -1.08648231e-02 -1.69392359e-02 9.82595887e-03 -3.89005616e-02
      -5.77095039e-02 -1.34540591e-02 3.06610707e-02 3.66981290e-02
      -8.95328194e-05 -1.52520090e-02 -1.52836908e-02 9.08688176e-03
      1.62212383e-02 -2.56407913e-02 2.93847807e-02 3.96338105e-02
      4.52170558e-02 1.63039647e-03 4.59882710e-03 -1.73210781e-02
      5.13972156e-03 -2.83626486e-02 -3.68389487e-02 8.59324448e-03
      5.91791011e-02 4.97688055e-02 1.60987210e-02 -1.57541968e-02
      -5.80328144e-03 1.76211726e-02 2.46122591e-02 -8.87734443e-03
      4.49631959e-02 7.14861825e-02 5.56606613e-02 1.38817262e-02
      -2.57795732e-02 -3.61009873e-02 -2.36143786e-02 1.12094283e-02
      3.67073854e-03 1.79310963e-02 1.81645211e-02 1.98482927e-02
      -1.46748554e-02 -4.33688127e-02 -4.89006676e-02 -3.25248688e-02
      6.56481646e-03 1.54533358e-02 4.69662361e-02 2.64005996e-02
      1.52257578e-02 -1.87625345e-02 -2.81578600e-02 -1.93789750e-02
      2.30249905e-04 2.50049699e-02 7.87467230e-03 3.51846889e-02
      3.29219773e-02 1.91182736e-02 -1.52511010e-02 -3.69971283e-02
      -3.86651456e-02 -7.80205708e-03 2.82304771e-02 3.22525091e-02
      5.77048138e-02 4.49992865e-02 2.51808204e-02 -2.18359828e-02
      -8.19168892e-03 -3.09878550e-02 -1.75375137e-02 1.70134939e-02
      -7.93458149e-03 2.50096321e-02 4.49094474e-02 1.87617224e-02
      4.32406180e-03 3.00994609e-02 -5.29024459e-04 1.75210892e-03
      1.25088859e-02 -2.20565181e-02 -1.68645699e-02 3.53683420e-02
      1.54246902e-02 1.85851250e-02 2.04522978e-03 -1.86372530e-02
      -4.45260899e-03 2.81614345e-02 5.03531331e-03 4.28417139e-02
      5.39743863e-02 3.11353002e-02 -7.88899080e-04 2.33309027e-02
      -8.75375583e-04 7.96927081e-04 5.13439812e-03 -1.84484329e-02
      -1.28683634e-03 2.82342508e-02 2.06022020e-02 1.28968451e-02
      -4.27231155e-02 -3.91481183e-02 -1.72797889e-02 -3.69517994e-03
      -2.03150511e-02 2.60683484e-02 2.70386450e-02 -4.03603772e-04
      -2.17342004e-03 -3.79709862e-02 -1.61769204e-02 2.08101533e-02
      6.49476722e-02 -3.93087510e-03 3.11016832e-02 1.48991151e-02
      -4.43075318e-03 -8.39904509e-03 -3.29727903e-02 -3.66831720e-02
      -3.40587646e-02 1.21604018e-02 -2.08369717e-02 2.80744713e-02
      2.65009906e-02 -8.18756060e-04 -1.61666833e-02 -5.00136875e-02
      -3.64251286e-02 1.33723989e-02 5.46070784e-02 3.78045999e-02
      1.56596415e-02 2.91675292e-02 -1.09619915e-03 -2.25343462e-02
      -4.79652174e-02 -3.54955122e-02 -1.87837856e-03 2.47626230e-02
      3.17567261e-03 2.03872155e-02 2.39000283e-02 2.00623763e-03
      -1.23779988e-02 -2.24478673e-02 -4.36035283e-02 -4.22890531e-03
      -5.75104635e-03 -2.38465401e-03 1.96808279e-02 4.30696867e-02
      6.39583450e-03 -2.12228987e-02 -6.29802719e-02 -5.72017804e-02
      -5.58929378e-03 3.68423946e-02 4.02638223e-03 1.35989049e-02
      2.60155220e-02 5.38985245e-03 -3.12618427e-02 -3.12289074e-02
      -9.05929506e-03 -7.55969388e-03 1.83492415e-02 -1.44998059e-02
      1.89115964e-02 3.16380858e-02 -1.14579629e-02 -2.46712267e-02
      -2.05313857e-03 -1.84627343e-02 -5.94972353e-03 -6.88618701e-03
      -3.29778483e-03 2.75441185e-02 3.09849344e-02 8.10047798e-03
      1.16903344e-02 -7.47687358e-04 -4.00619023e-02 -4.32372130e-02
      -2.85330862e-02 -2.09580790e-02 2.72966046e-02 7.82051124e-04
      7.97993038e-03 3.48112583e-02 1.08156381e-02 -1.82041582e-02
      -6.38239691e-03 5.88827115e-03 -1.41815823e-02 1.39358286e-02
      1.82588138e-02 2.29964051e-02 3.51370573e-02 1.33184837e-02
      -3.46843340e-02 -4.87592556e-02 -8.39020777e-03 -2.25114431e-02
      6.24499097e-03 -2.03327201e-02 2.68972423e-02 5.82194366e-02
      1.45191336e-02 -1.79663617e-02 -2.86568925e-02 -2.75318380e-02
      -2.99962256e-02 1.27296355e-02 1.22666508e-02 1.82452761e-02
      3.16692404e-02 8.86130799e-03 -2.65462702e-04 3.13686905e-03
      -3.73495072e-02 -5.26442900e-02 -2.61621494e-02 2.96089388e-02
      2.97014657e-02 1.49820093e-02 2.66379323e-02 -1.19635388e-02
      -2.55414955e-02 -4.10983665e-03 -2.13091169e-02 -2.42613512e-03
      4.71127219e-03 2.06503645e-02 5.67918606e-02 8.36150907e-03
      1.15462905e-02 2.99263652e-03 -1.33431675e-02 -6.56132251e-02
      -2.03534309e-02 1.51768336e-02 3.98984328e-02 2.03378052e-02
      -2.28967015e-02 -9.63359047e-03 -7.44380895e-03 -3.42302807e-02
      -4.93769459e-02 -2.82865781e-02 3.41628268e-02 2.85610296e-02
      3.87082831e-03 -2.24443488e-02 -1.35685690e-02 -1.60104390e-02
      -1.58002339e-02 -2.64895558e-02 1.71757378e-02 6.10241294e-02
      3.17345671e-02 3.18103528e-04 -1.97939724e-02 1.43885603e-02
      -3.57678393e-03 -2.54773609e-02 -4.23874334e-02 -2.22122446e-02
      1.76303349e-02 3.07071432e-02 -1.16045307e-03 -2.37162728e-02
      -3.27395811e-03 -1.79124549e-02 -2.92369481e-02 -5.02613792e-03
      4.00440730e-02 5.15079051e-02 3.74429934e-02 2.75438488e-03
      -2.13009622e-02 -2.58575827e-02 -2.13489542e-03 2.12303852e-03
      -1.17938668e-02 1.57940369e-02 4.16036844e-02 1.55716529e-02
      -1.37983533e-02 -4.42302935e-02 -5.94330281e-02 -1.94355603e-02
      7.78140314e-03 8.58269911e-03 3.10913362e-02 2.64259540e-02
      1.31215723e-02 -2.23507676e-02 -2.16586497e-02 -2.12736949e-02
      -1.24667650e-02 -1.62589364e-02 2.16149930e-02 2.30834279e-02
      3.73962447e-02 1.97346471e-02 -9.02210269e-03 -3.59690972e-02
      -4.68974076e-02 -1.55908866e-02 7.43909413e-03 1.49715422e-02
      1.97188719e-03 2.37794630e-02 -8.85775406e-03 -1.55668706e-02
      -1.17544699e-02 -1.60237551e-02 1.44884186e-02 3.99351083e-02
      5.63433859e-03 3.59489545e-02 3.38603258e-02 1.68883689e-02
      -9.55836906e-04 1.18419426e-02 -2.92924629e-03 1.32482508e-02
      2.39164922e-02 -1.26726842e-02 -8.16846266e-03 2.11301278e-02
      -1.07356824e-03 3.35046137e-03 -6.12520939e-03 -1.64945237e-02
      2.65855361e-02 4.42993194e-02 -3.65301524e-03 1.30345700e-02
      2.75514498e-02 1.05930818e-02 1.08857304e-02 1.48476008e-02
      -1.15902666e-02 2.51186211e-02 3.10140904e-02 -2.44548507e-02
      -1.79531872e-02 3.05228103e-02 1.72474552e-02 5.90305449e-03
      -2.05227956e-02 -3.15602608e-02 -3.30875218e-02 -7.18469219e-03
      -1.35787698e-02 1.58202350e-02 1.69351585e-02 -3.61495907e-03
      -2.69725546e-02 -4.75432351e-02 -4.84297611e-02 -3.01193516e-03
      5.57918064e-02 4.25533839e-02 1.48292584e-02 2.67753527e-02
      1.61207169e-02 -2.76240371e-02 -2.19482165e-02 -4.14290130e-02
      -2.68700346e-02 -1.41948694e-02 -9.91388690e-03 1.28223235e-02
      3.08790486e-02 8.63015279e-03 -4.62137582e-03 -2.88438071e-02
      -4.21758890e-02 -3.89357917e-02 1.73667595e-02 3.44871096e-02
      4.68010418e-02 3.27729583e-02 1.80463698e-02 -6.76219165e-03
      -5.12325726e-02 -5.02170846e-02 -2.14952528e-02 2.97373217e-02
      3.22627164e-02 3.23115103e-02 2.60898620e-02 2.75411084e-02
      -2.07814258e-02 -3.08746956e-02 -3.51754054e-02 -2.37746406e-02
      1.57569088e-02 1.29711581e-02 2.05269195e-02 7.79557135e-03
      3.04867746e-03 -7.27780815e-03 -4.85536493e-02 -4.58847359e-02
      -5.68561293e-02 -3.81097011e-03 2.37286389e-02 4.93666679e-02
      2.75672823e-02 1.34930955e-02 -2.65043862e-02 -4.24400195e-02
      -3.47339921e-02 -4.79012802e-02 -2.94385981e-02 1.63493250e-02
      3.81070152e-02 1.13333354e-03 -2.74255429e-03 -2.36338936e-02
      6.07044948e-03 -1.92063525e-02 -1.96038429e-02 1.34117715e-02
      1.52200030e-03 1.47718871e-02 3.37812887e-03 1.77846421e-02
      2.79628839e-02 2.47131325e-02 -2.04149447e-02 -3.89508791e-02
      -3.03694676e-03 -1.85523778e-02 3.52827301e-05 -7.91302882e-03
      1.94904879e-02 3.83288302e-02 -1.84356198e-02 -3.05552576e-02
      -4.59452160e-02 -2.88418420e-02 1.02721574e-02 4.40699533e-02
      2.67585665e-02 1.52449841e-02 1.32208858e-02 -4.60229581e-03
      -3.13714333e-02 -4.37285118e-02 -3.98534834e-02 -1.80162266e-02
      2.48945523e-02 1.96244475e-02 2.36389767e-02 1.42989559e-02
      3.85342017e-02 -9.61332873e-04 -2.35293191e-02 5.64859482e-03
      -3.67590226e-02 -7.44003756e-03 1.54810920e-02 2.60983929e-02
      3.01178712e-02 6.86391070e-03 1.25345988e-02 -2.66728248e-03
      -1.25680817e-02 -4.70517799e-02 2.42756284e-03 1.15375910e-02
      2.42924169e-02 6.14948664e-03 1.19335167e-02 6.69065956e-03
      -2.89535485e-02 -2.37729829e-02 -2.97022797e-02 1.69502795e-02
      3.82307023e-02 3.29636037e-02 1.55729204e-02 2.69821216e-03
      3.04326564e-02 -5.50665334e-03 -5.22758765e-03 -4.38308194e-02
      2.70084590e-02 2.88507547e-02 1.49264373e-02 -6.61840255e-04
      -2.34638005e-02 1.16641179e-03 -1.81254651e-02 -1.97122209e-02
      -3.52738276e-02 -1.92692864e-03 4.11906512e-03 2.32869666e-03
      -1.96157191e-02 -3.20541747e-02 -1.78816151e-02 -2.74677984e-02
      -1.46618327e-02 2.74953358e-02 5.30184880e-02 3.98871563e-02
      2.53038164e-02 -5.15799550e-03 -2.99211014e-02 7.45756505e-03
      1.12624594e-03 -8.57267249e-03 -2.54346598e-02 1.18288593e-02
      4.53768065e-03 -6.40950073e-03 -2.51703002e-02 -3.89198288e-02
      -7.32649071e-03 -1.66001380e-03 -1.93961884e-03 3.40652764e-02
      4.45433967e-02 2.12588180e-02 1.41307283e-02 -1.86448377e-02
      -2.74328999e-02 -2.68885382e-02 -2.49380432e-02 -7.15117296e-03
      4.13309075e-02 4.05797511e-02 4.55924161e-02 1.96046755e-02
      -1.10532083e-02 -1.99359972e-02 -3.82676236e-02 -2.13408135e-02
      -3.04767885e-03 3.02759446e-02 4.97395918e-03 -6.62069069e-04
      -8.39979202e-03 -9.20537952e-03 -4.28270884e-02 -3.23466435e-02
      -6.93290820e-03 7.61931250e-03 3.19928639e-02 4.07937430e-02
      3.12847830e-02 1.77286491e-02 -1.70546528e-02 -3.77998762e-02
      -4.50376049e-02 -3.14215645e-02 2.76185153e-03 1.70491785e-02
      2.22408548e-02 2.04191096e-02 -1.47727469e-03 -2.05657650e-02
      9.33534652e-03 -6.84806192e-03 2.22030468e-02 2.89940834e-02
      -4.22281539e-03 7.73675833e-03 1.75028332e-02 1.61419231e-02
      1.69208869e-02 2.03247797e-02 -7.53554236e-03 2.49420609e-02
      2.88392156e-02 -2.52340436e-02 -1.77871492e-02 3.05435024e-02
      2.52590347e-02 1.11376476e-02 4.22804587e-04 -1.54567836e-02
      2.45191026e-02 2.45800838e-02 -4.37886128e-03 2.57067010e-02
      3.24325785e-02 1.95699669e-02 1.43463425e-02 1.42305437e-02
      -6.73204835e-04 4.99823168e-02 7.99707882e-03 -1.29925916e-02
      -1.10424953e-02 2.76982598e-02 1.50656961e-02 1.14707546e-02</_>
    <_>
      -5.35833053e-02 -4.81986888e-02 7.46246878e-05 3.15718837e-02
      2.33531687e-02 -4.54839261e-04 -2.87227649e-02 -4.53006253e-02
      -4.04581763e-02 -5.48149645e-02 -9.09424294e-03 2.96221115e-02
      1.12922937e-01 4.03436385e-02 4.94360849e-02 7.83373043e-03
      -4.01679277e-02 -2.61236038e-02 -8.25042650e-02 -4.84602451e-02
      6.98456634e-03 4.86775972e-02 1.71880946e-02 5.35672531e-02
      1.85761321e-02 -4.46742587e-02 -6.08870648e-02 -8.02635923e-02
      -1.81477554e-02 -9.08155576e-04 9.36810076e-02 5.30640855e-02
      8.63413885e-02 5.36873937e-02 -1.97623037e-02 -5.08547872e-02
      -5.32270633e-02 2.26208032e-03 2.74939630e-02 9.26124528e-02
      5.64952195e-03 2.37387717e-02 -9.98978131e-03 -4.50909324e-02
      -5.15078828e-02 -3.66129950e-02 2.10190844e-02 8.04042351e-03
      -8.14498123e-03 -5.28817251e-02 -1.88249582e-03 -1.79366637e-02
      -4.59904559e-02 -3.41646299e-02 -8.08487236e-02 -1.81658659e-02
      1.20632648e-02 5.76752536e-02 1.14704231e-02 7.21151233e-02
      4.02228869e-02 -1.01503562e-02 -6.07721694e-02 -4.18290682e-02
      1.06451090e-03 -2.25226525e-02 2.71560531e-02 -4.14172038e-02
      1.84842367e-02 1.41018899e-02 -1.64578725e-02 5.13692386e-04
      3.22365463e-02 3.49102058e-02 1.61632001e-02 -2.17872504e-02
      -6.63591400e-02 -2.78098620e-02 -3.82641293e-02 -1.44329574e-02
      2.00818088e-02 7.52298385e-02 4.13529798e-02 -1.22547532e-02
      -5.39266095e-02 -8.68629366e-02 -3.65496613e-02 -4.54870053e-02
      2.55454867e-03 3.46878357e-02 4.98231947e-02 1.79818571e-02
      -6.18427014e-03 1.68710444e-02 -6.87881336e-02 -1.29619902e-02
      -4.46425332e-03 1.08329365e-02 6.53091520e-02 6.20749146e-02
      5.40394336e-02 2.66652182e-03 -4.73799109e-02 -8.96917731e-02
      -3.87721136e-02 -4.73079905e-02 1.79071017e-02 5.51193990e-02
      5.96075058e-02 1.56158675e-02 -4.45746407e-02 -5.22955917e-02
      -9.87414569e-02 -1.36840409e-02 -4.57810797e-03 2.22498104e-02
      6.93611056e-02 3.45530249e-02 8.48904252e-03 -2.13810243e-02
      -3.94868664e-02 -6.22453466e-02 1.88929588e-02 3.88652422e-02
      3.75354029e-02 3.77028622e-02 4.11539413e-02 5.65214530e-02
      1.18790718e-03 -2.22142022e-02 -1.07186139e-01 -5.32729663e-02
      -2.43982077e-02 1.17616057e-02 2.67318804e-02 1.88610442e-02
      3.44944485e-02 2.71907300e-02 -2.21982244e-02 -5.32908142e-02
      -7.19575062e-02 -2.60627531e-02 8.39491747e-03 7.59087875e-03
      7.24790571e-03 -3.46791148e-02 -1.39461057e-02 -1.62671059e-02
      -6.61210045e-02 1.77212488e-02 4.43375409e-02 5.02269566e-02
      1.02842720e-02 -5.15180314e-03 -4.43782955e-02 -3.30080353e-02
      -7.88899325e-03 -3.95594649e-02 -1.58730627e-03 5.32569028e-02
      2.32748259e-02 -4.13718540e-03 -2.72434633e-02 3.37265548e-03
      2.89768297e-02 -1.17808785e-02 -4.84099686e-02 -3.31846960e-02
      5.72031224e-03 1.38068367e-02 -5.97190997e-03 -5.62428199e-02
      1.29066072e-02 1.78712420e-02 2.85691436e-04 -1.68166831e-02
      -1.18774092e-02 3.88784185e-02 7.47747347e-03 -3.81017141e-02
      1.61135774e-02 -3.20679322e-02 -4.17116145e-03 9.99382231e-03
      -2.40912177e-02 3.82048823e-03 5.43106683e-02 2.12474819e-03
      2.21082475e-02 3.94573156e-03 -3.72965708e-02 -4.21783365e-02
      9.58064944e-03 3.80683877e-03 4.14920896e-02 1.93819758e-02
      -2.99200322e-02 1.72707494e-02 -5.31357061e-03 1.22682517e-02
      3.74296606e-02 2.95988307e-03 -6.71681110e-03 -9.58418008e-03
      2.10321834e-03 2.02984107e-03 -4.40735836e-03 -6.95384899e-03
      -1.51501959e-02 -1.37999253e-02 2.50018537e-02 -1.37454204e-04
      2.20930111e-02 1.67523476e-03 -2.64092796e-02 -8.64183996e-03
      1.91198662e-02 1.82204973e-02 -6.24819333e-03 2.21648607e-02
      9.99550708e-03 4.04916741e-02 -5.18822623e-03 -4.37066704e-02
      1.23942858e-02 -7.29225576e-03 4.22715396e-02 2.01483294e-02
      1.04408674e-02 4.06199275e-03 1.62700936e-02 -8.79757758e-03
      -6.44243509e-02 -7.58555671e-03 1.32932439e-02 4.69534099e-03
      9.63763148e-03 2.64808312e-02 2.15300135e-02 4.50952351e-02
      -1.48980590e-02 -1.61550418e-02 -6.63188007e-03 -4.92077926e-03
      -1.61599461e-03 7.18338229e-03 4.51955060e-03 1.35809127e-02
      4.17842157e-02 5.98007254e-03 -2.66017113e-02 6.81072380e-03
      -6.23973571e-02 -4.04771082e-02 -2.74511259e-02 1.91625934e-02
      -1.28626153e-02 5.26115522e-02 4.56546471e-02 1.01020047e-03
      -4.18927893e-02 -5.76509386e-02 -5.55600598e-03 -1.34229977e-02
      6.37687892e-02 -1.19798898e-03 5.47926761e-02 5.84715605e-02
      3.43911164e-02 -2.57329326e-02 -5.19812442e-02 -1.95997953e-02
      -4.50963452e-02 -2.54522637e-03 2.11389810e-02 9.53185745e-03
      1.47560472e-02 3.19657032e-03 -5.90545647e-02 -3.68626416e-02
      6.14778837e-03 -6.91238744e-03 5.26879244e-02 1.99757963e-02
      4.83957753e-02 3.03430818e-02 1.79172028e-02 -5.95914982e-02
      -6.42707124e-02 -1.19629148e-02 -2.33475268e-02 3.08578219e-02
      -1.27652576e-02 2.43527070e-02 6.53593838e-02 1.47991814e-02
      -2.48302147e-02 -1.62609443e-02 6.10908307e-03 -2.10117158e-02
      -1.24977706e-02 -5.52836284e-02 2.70540034e-03 7.75052048e-03
      -3.13344033e-04 7.80374277e-03 -4.82678525e-02 -2.05406547e-02
      -3.02699842e-02 9.59722977e-03 -3.89167927e-02 1.20530035e-02
      1.83702074e-02 6.44540833e-03 -5.54489195e-02 -5.65532874e-03
      3.11172847e-03 -1.28860269e-02 -1.54839382e-02 -1.07792906e-01
      -1.89688075e-02 -4.51743882e-03 7.48711172e-03 -6.77423831e-03
      3.93430293e-02 2.17899550e-02 -3.65189579e-03 -2.75012180e-02
      -5.77079020e-02 -1.63937826e-02 -1.14503931e-02 3.52939451e-03
      6.28100112e-02 5.88343926e-02 4.03147079e-02 -4.30084541e-02
      -6.70892298e-02 -8.92690346e-02 -3.65022048e-02 -3.53414826e-02
      7.27185840e-03 5.29264882e-02 2.91745421e-02 5.52876107e-03
      2.10734066e-02 -1.26199871e-02 -1.04114331e-01 -7.87712820e-03
      -1.92120555e-04 -4.07471042e-03 5.00247702e-02 4.37344536e-02
      1.65244695e-02 -5.75414523e-02 -8.30268860e-02 -1.07087441e-01
      -2.42205989e-02 -3.41736898e-02 1.17077604e-02 6.11101724e-02
      8.07036534e-02 6.32109642e-02 -3.42018791e-02 -3.53362747e-02
      -8.89626220e-02 -4.81138788e-02 -4.30264510e-02 3.24965152e-03
      4.61871140e-02 5.47089316e-02 3.78174558e-02 8.98702908e-03
      -2.74124555e-02 -7.65949115e-02 -5.49837686e-02 -2.75485963e-02
      1.91669650e-02 -1.89743144e-03 8.13920125e-02 4.61474769e-02
      -7.03364983e-02 -8.19512978e-02 -7.38914534e-02 -4.12380807e-02
      -4.90263961e-02 4.59978869e-03 4.30339724e-02 4.09191288e-02
      4.17569950e-02 -5.08707128e-02 -5.83750792e-02 -7.41773099e-02
      -2.94198953e-02 -5.43093961e-03 2.41738409e-02 -4.70373221e-03
      7.32493994e-04 3.40920873e-02 1.90058611e-02 -3.78269632e-03
      -3.74631919e-02 -3.01140957e-02 4.24475269e-03 3.01688462e-02
      -1.04563544e-02 -4.32911217e-02 1.24758240e-02 1.31036574e-02
      3.47053669e-02 -4.63966839e-02 -2.20864136e-02 9.07677226e-03
      8.77084583e-03 -2.32463479e-02 4.62205429e-03 3.34198102e-02
      -2.81315949e-02 -2.38034371e-02 -4.72514704e-02 -4.94064251e-03
      2.29973011e-02 1.65940896e-02 -1.56137906e-02 -5.75855747e-02
      -3.18165384e-02 -1.58359166e-02 -3.16701122e-02 -4.70005088e-02
      1.06116533e-02 2.13656109e-02 2.36204010e-03 -2.95593943e-02
      -6.19636197e-03 4.62924466e-02 2.49382239e-02 3.22812498e-02
      -2.01764703e-02 -2.21983455e-02 1.00466004e-02 3.25815678e-02
      1.16537418e-02 2.95653008e-03 -3.06133297e-03 -7.42075313e-03
      3.36511098e-02 1.75311435e-02 1.74683779e-02 -9.56708845e-03
      9.23693646e-03 8.27059988e-03 -4.93831597e-02 -4.26482260e-02
      2.43941378e-02 -3.70043539e-03 -1.76990442e-02 -2.97843455e-03
      1.55112417e-02 5.21233045e-02 -5.67163201e-03 -4.38078046e-02
      -4.64717075e-02 -4.61021112e-03 2.70876195e-02 3.32491137e-02
      9.41326004e-03 4.25812136e-03 2.73187179e-02 -3.31989191e-02
      1.03538996e-02 -4.30094451e-03 -4.62324638e-03 2.59682331e-02
      4.38178219e-02 5.85088618e-02 -1.64130051e-02 -1.88446965e-03
      -3.22350860e-03 -1.93596072e-02 -1.88309718e-02 7.47520616e-03
      2.88141295e-02 1.47197414e-02 3.18926834e-02 -1.09529104e-02
      -2.26902254e-02 -6.07036240e-03 -2.21602935e-02 -7.96714984e-03
      1.87499244e-02 5.32890297e-02 5.08842058e-02 6.62521496e-02
      -3.98596795e-03 5.05067594e-03 -4.04710658e-02 -3.49265784e-02
      -2.92142630e-02 2.28083879e-02 4.56820466e-02 2.83243619e-02
      4.13736589e-02 8.22771899e-03 -6.93414081e-03 -2.43122373e-02
      -4.91432771e-02 -9.35087819e-03 6.18158188e-03 2.76422594e-02
      5.51419258e-02 3.28642912e-02 9.81815532e-03 1.09393690e-02
      -5.64103238e-02 -3.46973166e-02 -4.86357650e-03 1.53584769e-02
      6.98792338e-02 6.90899342e-02 8.49403739e-02 2.84387879e-02
      -2.64886804e-02 -5.68198040e-02 -3.04858889e-02 -5.68045229e-02
      2.04752609e-02 3.47281359e-02 1.55756865e-02 4.54931110e-02
      3.82407904e-02 -2.41305842e-03 -3.91104259e-02 -4.15699929e-02
      -1.72237456e-02 2.50419192e-02 6.58605918e-02 5.10404967e-02
      8.35502967e-02 4.31135818e-02 2.04762793e-03 -4.36143912e-02
      -3.92128117e-02 -1.26380846e-02 1.18946899e-02 4.46302071e-02
      2.56213006e-02 5.50212450e-02 3.84027027e-02 -1.94691739e-03
      -3.14777680e-02 1.44446185e-02 -1.48020573e-02 2.95179617e-02
      1.34993177e-02 -4.92455587e-02 -6.79091970e-03 1.79017950e-02
      1.25127612e-03 1.53016793e-02 -6.47296607e-02 -2.04379205e-03
      3.86080593e-02 3.46052051e-02 -1.93360762e-03 1.67427883e-02
      1.93930268e-02 -3.35281231e-02 -4.10903357e-02 -2.34963559e-02
      -1.31942369e-02 -9.30333976e-03 7.09853601e-03 -2.52771061e-02
      5.57162054e-03 1.69957392e-02 -7.70371687e-03 -1.06857261e-02
      4.06478792e-02 -2.07734574e-02 6.32190984e-03 5.66346222e-04
      -5.81405163e-02 -6.90269191e-03 1.32257957e-02 -8.84384941e-03
      5.86353987e-02 6.70696720e-02 6.84682699e-03 -2.27719713e-02
      -4.05176617e-02 -7.22318515e-02 -1.19697338e-03 -1.64322760e-02
      1.47301739e-03 7.08794445e-02 1.43780429e-02 -6.39606081e-03
      -4.64142524e-02 -3.22826952e-02 -2.38070004e-02 1.42152812e-02
      2.05766745e-02 -3.66928452e-03 1.47006465e-02 4.06248085e-02
      1.36591271e-02 -3.07794437e-02 -5.01800403e-02 -5.62064201e-02
      -8.23811442e-03 -2.61609931e-03 1.44876400e-03 3.54157090e-02
      7.46996328e-02 2.94636935e-02 -2.44488250e-02 -6.61600307e-02
      -6.37546480e-02 -3.49585451e-02 -3.40573825e-02 -5.69411507e-03
      6.05479181e-02 4.44644205e-02 1.64024308e-02 -2.71421596e-02
      -3.25771943e-02 -3.21131870e-02 -2.49613430e-02 9.35156550e-03
      2.49082670e-02 2.44050883e-02 7.07164407e-02 4.59293509e-03
      -2.41095778e-02 -5.25692105e-02 -6.22029193e-02 -3.59765552e-02
      -1.37010310e-02 -2.45667342e-03 2.11492665e-02 4.38162126e-02
      6.10381179e-03 -2.89378259e-02 -2.39046030e-02 -2.71787457e-02
      -3.71798538e-02 -9.85569693e-03 2.14528237e-02 1.64072122e-02
      -1.78085174e-02 5.30160172e-03 -7.93331955e-03 7.48297060e-03
      9.82894003e-03 2.13531479e-02 2.31904946e-02 2.29072254e-02
      9.28886794e-03 -7.08527640e-02 -4.57888655e-02 -6.54212199e-03
      7.83587061e-03 2.03694180e-02 5.88406622e-02 4.22315598e-02
      -3.15563846e-03 -2.05241218e-02 -2.19535977e-02 -1.86220035e-02
      -1.84470136e-02 -4.58372786e-04 1.44404266e-02 1.19782612e-02
      1.97686460e-02 3.69571969e-02 1.98435523e-02 -8.81744102e-02
      -6.61812872e-02 -9.82927904e-03 9.32444260e-03 1.22063514e-02
      5.36846444e-02 3.02642845e-02 1.51567906e-02 -1.30619099e-02
      -3.88349704e-02 -5.03907986e-02 5.59514342e-03 3.28130722e-02
      3.50179560e-02 2.82428730e-02 5.17747626e-02 2.90376805e-02
      -1.01926830e-02 -3.63717675e-02 -5.08195274e-02 -4.66170022e-03
      7.74881318e-02 5.79141714e-02 1.39851924e-02 2.90665552e-02
      -6.42459549e-04 -4.21223082e-02 -4.66149077e-02 -2.98799798e-02
      -8.01294949e-03 5.52243441e-02 2.04485301e-02 2.09255759e-02
      5.52220047e-02 4.33993153e-02 -1.79364700e-02 -4.22380902e-02
      -2.55464204e-02 -2.86105312e-02 7.19800442e-02 4.19713147e-02
      4.02918831e-02 6.18512854e-02 5.64793870e-03 -3.86287384e-02
      -3.74044441e-02 -2.63091307e-02 1.13617955e-02 8.18274319e-02
      6.02429397e-02 6.86367452e-02 -5.34221937e-04 -2.04306003e-02
      -5.93529828e-02 -6.42614216e-02 -4.89295758e-02 1.35593312e-02
      7.29522854e-02 5.66752926e-02 4.83813211e-02 3.21971159e-03
      -1.21813416e-02 -5.13860546e-02 -5.89802228e-02 -1.73216276e-02
      1.64433545e-03 9.22964215e-02 7.40279704e-02 7.31396526e-02
      2.69032526e-03 -5.52461110e-02 -4.71653007e-02 -6.65199608e-02
      -2.65950505e-02 2.54991781e-02 8.98748487e-02 8.15412402e-02
      7.85193592e-02 -1.07103372e-02 -5.29059507e-02 -5.85596748e-02
      -3.78518850e-02 -3.77761610e-02 -2.24552932e-03 2.91224662e-02
      1.82537790e-02 4.62569445e-02 4.67642806e-02 -1.65324826e-02
      -4.40433323e-02 -3.81156318e-02 -7.36757461e-03 3.45724449e-02
      6.59211874e-02 4.26501930e-02 4.71773408e-02 3.91657650e-02
      1.53081783e-03 -3.64552252e-02 -3.45166400e-02 -8.04907735e-03
      1.17932307e-02 4.49281335e-02 2.60725096e-02 3.57049182e-02
      1.11227632e-02 -1.55456020e-02 -4.78278138e-02 -4.99000661e-02
      -1.24070626e-02 2.63586603e-02 7.49562457e-02 3.09702177e-02
      4.28510904e-02 5.54736070e-02 -4.33093868e-03 -2.71683410e-02
      -5.90617210e-02 7.12101394e-03 2.36692242e-02 1.43726878e-02
      -2.98386789e-03 2.84793116e-02 5.09123765e-02 -8.53689481e-03
      -2.65269671e-02 -1.94000658e-02 4.49812226e-03 -2.68887170e-02
      -1.96134881e-03 -3.07347793e-02 1.48442527e-02 4.07731161e-02
      1.28279226e-02 -2.98267230e-02 -3.94354314e-02 2.04273243e-03
      2.93586385e-02 3.07993814e-02 -1.91619955e-02 2.27742177e-02
      3.92224267e-02 -1.14505189e-02 -3.26907374e-02 -9.18443501e-03
      2.60474011e-02 2.12994255e-02 6.53198315e-03 -5.99745139e-02
      -1.37360683e-02 7.70074129e-03 1.44318361e-02 -3.41544300e-03
      5.19937836e-03 1.28089124e-02 -3.57586592e-02 -4.22284417e-02
      -3.30283679e-02 7.80256651e-03 3.97816002e-02 4.41613346e-02
      1.74147654e-02 4.58886772e-02 9.79549531e-03 -3.38782892e-02
      -6.34308159e-02 -5.88933118e-02 1.14302142e-02 2.65935007e-02
      3.17819566e-02 5.40629663e-02 1.35058407e-02 2.68621445e-02
      -2.37168353e-02 -3.93342339e-02 -5.97549267e-02 -7.11853849e-03
      1.36499256e-02 2.79453062e-02 4.47188690e-02 5.73980063e-02
      7.84313027e-03 -5.75567223e-02 -6.38027191e-02 -7.36928284e-02
      -1.28119076e-02 -2.11936347e-02 1.86176866e-03 5.29037118e-02
      6.12742268e-02 8.92941840e-03 -2.74929348e-02 -4.70946915e-02
      -7.59570971e-02 -3.89289833e-03 2.00962704e-02 2.00525094e-02
      5.88535070e-02 3.14650759e-02 6.74858131e-03 -2.88446825e-02
      -3.01996991e-02 -3.23409028e-02 -1.92037001e-02 9.05412133e-04
      3.48076709e-02 3.09660956e-02 3.39735486e-02 3.99778457e-03
      -2.23945267e-02 -3.01583409e-02 -7.56021813e-02 -5.36845773e-02
      -9.38775949e-03 5.67618245e-03 4.62280214e-02 3.35588604e-02
      -1.88519116e-02 -1.10174548e-02 -3.48936133e-02 -5.62224314e-02
      -3.97555828e-02 -1.04781408e-02 3.55068892e-02 5.00088222e-02
      -1.62126273e-02 -1.84630249e-02 -7.55920913e-03 -9.62150376e-03
      -7.18007516e-03 -1.20556541e-03 1.91980228e-02 4.89123650e-02
      2.17091776e-02 -6.51479661e-02 -3.37747447e-02 4.52129403e-03
      1.46315778e-02 6.31995220e-03 2.61260681e-02 3.23528647e-02
      3.99006307e-02 -1.17486902e-02 8.07562098e-03 -3.06090117e-02
      -9.48336255e-03 -2.39927694e-02 -5.29007167e-02 -6.64284453e-03
      2.77023911e-02 4.95519862e-02 1.63517036e-02 -5.58796600e-02
      -4.58708256e-02 -1.58135239e-02 -5.59132406e-03 -3.39763984e-03
      1.49574354e-02 1.71911288e-02 5.64071536e-02 -1.44929672e-02
      -3.46562974e-02 -9.06764623e-03 9.47306026e-03 2.79628858e-02
      1.08763017e-02 1.69311967e-02 3.99315245e-02 4.65141796e-02
      -1.72854699e-02 -4.28067520e-02 -2.50407439e-02 -1.40642570e-02
      5.96670508e-02 3.26133408e-02 3.65475565e-02 4.61321734e-02
      1.61886532e-02 -3.06145269e-02 -3.02325245e-02 -2.76236124e-02
      1.32611226e-02 1.04832053e-02 -9.33158398e-03 2.94205733e-02
      5.70168756e-02 6.11773357e-02 -1.72366463e-02 -3.57526466e-02
      -3.93417925e-02 -6.54240884e-03 2.73684561e-02 1.69964414e-02
      7.33730271e-02 6.19480014e-02 1.60993785e-02 -3.34796496e-02
      -6.46430925e-02 -1.38909444e-02 -1.54395495e-03 7.27116913e-02
      6.38237074e-02 7.50827789e-02 1.70842130e-02 -3.86921167e-02
      -5.00025116e-02 -6.13508932e-02 -3.58363166e-02 2.53428295e-02
      6.82014227e-02 9.55431163e-02 8.46673250e-02 -1.26595693e-02
      -7.53668323e-02 -5.40570021e-02 -4.98948880e-02 -4.22165655e-02
      -1.72352586e-02 5.07623181e-02 6.26728982e-02 9.40882638e-02
      2.55051330e-02 -2.28164215e-02 -2.84291878e-02 -4.67508435e-02
      -4.83128689e-02 8.97874404e-03 4.48608920e-02 8.02861229e-02
      8.15263987e-02 1.38614129e-03 -3.71918455e-02 -4.27300110e-02
      -1.78041104e-02 -1.44131677e-02 -2.35959515e-02 4.11707982e-02
      2.36177873e-02 4.21797037e-02 2.25387309e-02 -1.64980609e-02
      -5.03107905e-02 -4.73724157e-02 -9.61518753e-03 1.16899405e-02
      8.01838338e-02 2.08303835e-02 5.74365146e-02 4.52048779e-02
      -1.34171722e-02 -3.22391279e-02 -9.12434701e-03 -9.28954966e-03
      9.54731135e-04 4.94914576e-02 2.08993219e-02 3.26239690e-02
      2.38625631e-02 -1.53567009e-02 -1.64095629e-02 -1.83389094e-02
      5.00932103e-03 4.09161253e-03 2.43979711e-02 1.44808758e-02
      5.73225580e-02 5.25292829e-02 -1.16229905e-02 -2.87398789e-02
      -3.26425768e-02 -1.76017464e-03 2.50618178e-02 6.05637431e-02
      -1.28075089e-02 3.28521766e-02 3.67492661e-02 -1.21402936e-02
      -2.59439442e-02 -1.12344725e-02 2.31038108e-02 5.48781939e-02
      1.68138985e-02 -4.66544069e-02 -2.89566373e-03 -4.10024961e-03
      3.53159441e-04 -5.55794733e-03 2.27232464e-04 2.86486801e-02
      1.68789644e-02 1.06837070e-02 -2.21448690e-02 1.91077758e-02
      1.34825101e-02 -1.42823793e-02 -2.78471541e-02 2.11640503e-02
      3.38788852e-02 4.43652645e-02 -9.32571758e-03 -5.11806458e-02
      -3.10034491e-02 -7.86014181e-03 1.83341969e-02 -1.43572735e-03
      2.26807613e-02 6.34766882e-03 -4.03619185e-03 -3.86308059e-02
      -5.49631640e-02 -1.39542921e-02 -1.51543664e-02 1.09894108e-02
      4.15357910e-02 4.73270081e-02 -1.29055814e-04 -4.92009893e-02
      -3.89866270e-02 -5.31080700e-02 -2.59378292e-02 -3.14554609e-02
      -1.84162450e-03 6.35634139e-02 7.11973682e-02 5.70558608e-02
      -2.06221882e-02 -6.39402345e-02 -7.24035352e-02 -3.36213335e-02
      -1.76968165e-02 2.67225243e-02 7.36056119e-02 9.61669162e-02
      2.40303259e-02 -5.32984957e-02 -7.88754001e-02 -7.71220997e-02
      -3.32730636e-02 -3.14547718e-02 5.73680550e-02 1.23070717e-01
      1.59860570e-02 8.17199331e-03 -1.29707996e-02 -3.79365659e-03
      -5.70829883e-02 -5.99371642e-02 -7.22512556e-03 2.78789438e-02
      4.97966707e-02 1.31677818e-02 -3.53688141e-04 -9.65390913e-03
      -4.55782097e-03 -7.05019832e-02 -2.66049840e-02 1.92624591e-02
      3.85464393e-02 2.00821552e-02 7.36862943e-02 1.77214183e-02
      -4.86538783e-02 -4.23284620e-02 -8.96474719e-02 -5.32844514e-02
      1.57928523e-02 5.39826080e-02 1.05578624e-01 4.95430939e-02
      8.76813568e-03 -4.61404733e-02 -2.36017946e-02 -8.21622312e-02
      -3.11296992e-02 3.02402005e-02 6.44954070e-02 5.39971702e-02
      1.68007170e-03 -2.47776173e-02 -9.79709718e-03 -2.29869783e-02
      -5.90159744e-02 -3.92381521e-03 4.62327711e-02 6.30848259e-02
      2.60979217e-03 -1.97798256e-02 -4.75779772e-02 -2.60043591e-02
      -9.16952733e-03 -2.46010087e-02 3.61150205e-02 4.13776413e-02
      5.78010790e-02 -1.24574732e-02 2.34980080e-02 -2.01174319e-02
      -2.81101000e-02 -2.46720985e-02 -5.28565943e-02 -1.38599295e-02
      5.35405166e-02 5.64187318e-02 7.16824597e-03 -3.27067487e-02
      -3.30823883e-02 -1.79431513e-02 -1.64266117e-02 -3.56251597e-02
      2.49457415e-02 5.74220046e-02 5.45050241e-02 -1.01366383e-03
      -1.04292342e-03 -3.37609723e-02 -2.67925905e-03 5.50340815e-03
      -3.13541219e-02 4.26375009e-02 6.07106090e-02 6.63555861e-02
      1.36715290e-03 -1.84258390e-02 -5.04011065e-02 -1.56597805e-03
      2.31570695e-02 -1.77642703e-02 4.36752029e-02 5.52662686e-02
      3.57549042e-02 -4.86974401e-04 -7.21837953e-03 -1.14114173e-02
      2.52426881e-02 2.32760888e-02 -4.11583260e-02 3.05460189e-02
      5.75960241e-02 3.80626395e-02 1.43654179e-02 -8.70742742e-03
      -1.75723620e-02 1.43526150e-02 1.65904779e-02 -1.74466185e-02
      2.07694024e-02 6.78709075e-02 3.61842550e-02 4.72107649e-06
      -3.69258635e-02 -5.96870072e-02 -1.09588969e-02 4.66982760e-02
      5.90056442e-02 6.17522672e-02 3.30735520e-02 1.68639142e-02
      -1.65888648e-02 -3.00885364e-02 -4.53822091e-02 -5.50171640e-03
      7.32262135e-02 6.63224012e-02 8.32085684e-02 1.46474084e-02
      -1.28431339e-02 -3.70625854e-02 -4.06592786e-02 -2.44028363e-02
      2.31209816e-03 4.08473425e-02 1.98493302e-02 3.36288102e-02
      4.95099574e-02 1.47387609e-02 -4.22150455e-02 -3.74906287e-02
      -2.89930403e-02 7.35535612e-03 5.68741113e-02 3.48232463e-02
      5.34678847e-02 4.86820610e-03 -2.21424196e-02 -6.03235364e-02
      -3.64416279e-02 8.41144705e-04 2.55016815e-02 2.95874216e-02
      1.89935248e-02 5.43984510e-02 2.88985241e-02 -6.19530026e-03
      -3.61483507e-02 -1.43035995e-02 8.69882945e-03 4.43733707e-02
      1.56952403e-02 -1.02428300e-02 4.21277173e-02 4.75396365e-02
      -2.36608107e-02 -1.94570664e-02 -3.87194119e-02 -4.27268893e-02
      1.37615697e-02 2.17892956e-02 2.11523045e-02 6.85755685e-02
      3.17681395e-02 -9.29283258e-03 -3.67343016e-02 -2.90181730e-02
      -1.70814097e-02 3.20823416e-02 2.45222673e-02 4.92851660e-02
      1.46168293e-02 4.98978719e-02 -1.21165942e-02 -1.79470927e-02
      -2.76486832e-03 1.43137351e-02 4.25632633e-02 7.93359336e-03
      -2.06410279e-03 -4.35090903e-03 2.74947621e-02 -2.93523017e-02
      1.36837400e-02 4.25448120e-02 3.43237668e-02 2.89099775e-02
      -2.51938496e-02 -3.21030542e-02 -2.36410853e-02 1.88369118e-02
      -6.89956732e-03 6.48804894e-03 -5.46474531e-02 1.61576187e-04
      2.53474060e-02 2.17978675e-02 8.22302699e-03 -2.83900779e-02
      1.59684122e-02 -6.62482483e-03 4.12615435e-03 -1.40799088e-02
      2.46988591e-02 1.30978934e-02 2.25288477e-02 -6.81341439e-02
      -3.44222374e-02 2.78612114e-02 6.50900742e-03 2.85532605e-02
      7.70506337e-02 4.70790304e-02 1.49403668e-05 -3.97698656e-02
      -6.04162812e-02 -6.30883640e-03 1.34605160e-02 1.89256091e-02
      5.77794053e-02 6.49452284e-02 4.80948947e-02 -2.00894289e-02
      -3.67556401e-02 -7.02733546e-02 -4.28476138e-03 -8.60496238e-03
      4.30789925e-02 7.63903111e-02 4.96248156e-02 9.37492587e-03
      1.54947545e-02 -3.18782739e-02 -7.20453933e-02 -1.07168974e-02
      2.08643619e-02 2.41028313e-02 5.65165468e-02 4.30765040e-02
      -1.60789210e-02 -6.00574017e-02 -6.60934597e-02 -6.65830001e-02
      -1.47935105e-02 -1.26696248e-02 1.22457137e-02 6.13748394e-02
      5.87870143e-02 1.16309123e-02 -1.82791352e-02 -1.96931250e-02
      -7.76957273e-02 -3.30930054e-02 1.41561860e-02 3.68391871e-02
      5.57608828e-02 3.53790596e-02 5.04940143e-03 -1.11657649e-03
      1.63850491e-03 -4.34873253e-02 -4.01777066e-02 2.69839168e-02
      6.64150193e-02 3.67576480e-02 2.27313600e-02 -1.72445960e-02
      -2.98757888e-02 -3.74191478e-02 -5.52800857e-02 -5.94782829e-02
      -1.36902081e-02 4.26875241e-03 4.43270467e-02 2.36052349e-02
      2.29014307e-02 3.66116017e-02 -1.04044760e-02 -4.68945689e-02
      -6.58397749e-02 9.62504558e-03 5.57442680e-02 1.91891454e-02
      -2.39606630e-02 -6.11665659e-03 -2.04527173e-02 -3.76200420e-03
      -1.71921924e-02 -4.50290404e-02 3.22788432e-02 4.95059416e-02
      1.08770160e-02 -3.18971835e-02 -1.82380043e-02 1.64518668e-03
      2.26348624e-04 -2.18288545e-02 -1.09498361e-02 6.16252050e-02
      4.42426763e-02 -1.71047747e-02 -1.41260708e-02 1.01060364e-02
      2.21805666e-02 -2.12485213e-02 -2.09320113e-02 -6.66609779e-02
      1.24566322e-02 3.74925360e-02 -2.24279915e-03 -2.41663791e-02
      -4.71163634e-03 -1.17890863e-03 -2.63471399e-02 5.37159806e-03
      -1.97599493e-02 4.52794507e-02 2.42281202e-02 -3.09333373e-02
      -7.79957231e-03 -1.29312417e-03 3.17852721e-02 3.59991342e-02
      -2.90760007e-02 -2.68721109e-04 6.15892373e-02 4.61683795e-02
      2.12015794e-03 -6.30298583e-03 3.11246724e-03 7.61407195e-03
      3.17094587e-02 -9.25828516e-03 -1.95741858e-02 1.37952045e-02
      1.93032119e-02 -2.46900283e-02 -2.24903580e-02 3.26037197e-03
      1.65327266e-02 1.34968897e-02 4.08314541e-03 1.39088714e-02
      4.92692254e-02 3.44485939e-02 -2.55031586e-02 -7.20783835e-03
      3.54093919e-03 1.02597289e-02 2.60283891e-02 6.22812798e-03
      -3.63206007e-02 1.56336911e-02 -1.86881833e-02 -3.64290848e-02
      -1.13628600e-02 2.64704432e-02 4.10303622e-02 6.27039149e-02
      2.63929684e-02 -7.87417497e-03 1.30934827e-02 -9.16241482e-03
      -4.47722860e-02 -2.53211446e-02 1.75563022e-02 5.45224063e-02
      7.78980032e-02 5.87294362e-02 2.06768811e-02 -3.70480493e-03
      -4.93786409e-02 -6.24144636e-02 -4.85997787e-03 4.37468011e-03
      3.46062556e-02 5.15279099e-02 3.32021788e-02 -2.07178462e-02
      7.64615077e-04 -2.71414984e-02 -3.54415141e-02 -2.89703812e-02
      -8.52672383e-03 3.58192101e-02 5.96740656e-02 2.82040015e-02
      2.07919255e-02 2.49183346e-02 -8.59278813e-03 -3.41165476e-02
      -1.77017786e-02 -2.46208049e-02 8.96595884e-03 3.80782895e-02
      2.37811171e-02 5.23558296e-02 4.18299511e-02 -1.57553554e-02
      -4.07836884e-02 -4.59935330e-02 -4.17686207e-03 4.85857055e-02
      5.15898503e-02 5.43522350e-02 3.09450142e-02 5.27123399e-02
      4.35081981e-02 -4.23609838e-02 -2.96800602e-02 3.54478462e-03
      1.28599759e-02 4.75800335e-02 -1.68777667e-02 1.45577975e-02
      4.11349125e-02 -8.21510796e-03 -3.41800936e-02 -5.90712801e-02
      1.78321693e-02 1.51297618e-02 1.66711863e-02 1.18745137e-02
      5.52957579e-02 7.50230029e-02 4.07509394e-02 -4.09995392e-02
      -5.88811338e-02 1.03334328e-02 4.01408523e-02 3.07267588e-02
      -6.31656963e-04 -6.69596530e-03 2.83386260e-02 7.38288611e-02
      3.26057919e-03 -3.96069214e-02 1.54502448e-02 1.61383972e-02
      4.77958471e-02 -2.18123514e-02 -1.53435790e-03 3.80149446e-02
      6.92368746e-02 6.24745600e-02 -6.89346567e-02 1.18779317e-02
      1.42540066e-02 -1.18445186e-02 -1.16623463e-02 1.52535969e-02
      6.89791664e-02 7.13099912e-02 -2.61273570e-02 -6.49682954e-02
      -2.20990553e-02 -7.70557264e-04 -1.69064719e-02 -2.29986198e-02
      1.14526246e-02 5.91391586e-02 6.96082264e-02 2.07396969e-02
      4.24019247e-02 2.84832716e-02 1.41653074e-02 3.06206290e-02
      6.87314756e-03 -1.52070820e-03 1.63202081e-02 5.21392524e-02
      8.02934021e-02 3.77937704e-02 -5.37817320e-03 -4.22659889e-02
      -4.65769134e-02 -2.95924600e-02 -1.89622305e-02 1.98740326e-02
      2.34451052e-02 5.26073501e-02 -1.21812308e-02 -1.11807594e-02
      -7.50314165e-03 -2.73269136e-03 -5.62896486e-03 2.29149014e-02
      5.79364114e-02 6.06092811e-02 4.03934680e-02 -1.33681446e-02
      -2.45619472e-02 -2.40060650e-02 -3.73870693e-02 -2.35690102e-02
      -7.82847591e-03 4.66253981e-02 4.32361886e-02 4.50490712e-04
      2.80748531e-02 -1.60327535e-02 -2.52412409e-02 -2.68416032e-02
      -2.08243150e-02 -3.69728468e-02 2.09736731e-02 3.49254198e-02
      2.90488843e-02 4.50234525e-02 3.60410623e-02 2.06950307e-02
      -1.09854671e-04 -5.75608313e-02 -3.74493599e-02 2.63875592e-02
      5.46511859e-02 1.68017186e-02 -1.81962457e-02 -1.26566179e-02
      -3.58665884e-02 -2.52289195e-02 -2.37690173e-02 2.01704539e-02
      7.77863562e-02 3.24582309e-02 -9.27824154e-03 -5.86827798e-03
      5.63378595e-02 1.76528990e-02 -1.42265228e-03 -3.23008411e-02
      1.91264600e-02 4.82392088e-02 1.80222262e-02 -1.22367335e-03
      1.20396772e-02 2.19405442e-02 1.16705671e-02 -1.38838254e-02
      -4.92539816e-02 -5.53053804e-02 1.81451477e-02 2.43699718e-02
      -1.12795355e-02 3.05246376e-03 -1.51356328e-02 1.12778191e-02
      1.44637760e-03 3.91529538e-02 2.18923986e-02 5.97654507e-02
      2.11067647e-02 -1.76292732e-02 -3.01536359e-02 3.48441973e-02
      1.93484314e-02 -3.72388586e-03 -5.52068651e-02 -2.69314013e-02
      8.23036768e-03 -2.20228732e-02 -3.69236618e-02 -3.81097086e-02
      -1.51864281e-02 5.09437546e-02 3.93378437e-02 2.24124044e-02
      2.84591354e-02 3.33133377e-02 -2.29541808e-02 -3.82365398e-02
      -1.44883571e-03 1.89636387e-02 3.93079668e-02 8.54359381e-03
      2.27855481e-02 3.48694474e-02 6.88071847e-02 9.66691971e-03
      -1.38710011e-02 -6.24822499e-03 1.81981642e-02 2.80623287e-02
      2.31304541e-02 1.99592486e-02 -8.34462047e-03 5.86031843e-03
      -1.09611563e-02 -1.77761149e-02 -4.36179079e-02 -1.49476081e-02
      7.72486255e-02 3.48774046e-02 2.11393144e-02 4.32174951e-02
      5.10666743e-02 5.61953662e-03 -4.27220911e-02 -3.64373736e-02
      -8.79832916e-03 4.12140489e-02 2.77400985e-02 1.27159255e-02
      3.76276160e-03 2.81394529e-03 -1.65154058e-02 -5.46672530e-02
      3.51798977e-03 2.48969682e-05 3.87265310e-02 5.91629855e-02
      2.82925945e-02 8.32178630e-03 -5.04520815e-03 1.38115129e-02
      -1.70223753e-03 2.21695984e-03 -8.59930832e-03 1.67474058e-02
      6.37620986e-02 3.55621204e-02 7.15210959e-02 2.84644924e-02
      2.76552383e-02 -2.14134320e-03 -9.53126885e-03 -1.93472002e-02
      3.76643203e-02 4.94364239e-02 3.28541324e-02 1.20034227e-02
      -2.33096443e-02 7.29523040e-03 -2.64684763e-02 -4.26826067e-03
      -3.11861429e-02 3.87144461e-02 3.98524739e-02 4.62267734e-02
      7.32144564e-02 -9.55533423e-03 -6.28258847e-03 -1.89767592e-02</_>
    <_>
      3.16335820e-02 5.66045903e-02 6.91412985e-02 2.10845917e-02
      -3.23898867e-02 8.94314051e-02 8.14790949e-02 3.16317007e-02
      -9.66674741e-03 5.84878623e-02 4.64511178e-02 7.78335333e-02
      2.48771925e-02 -6.92912638e-02 -7.81229064e-02 2.94283647e-02
      2.33364776e-02 1.93357281e-02 7.76818544e-02 9.97553244e-02
      4.15125266e-02 3.01949810e-02 -1.10055365e-01 -1.84650309e-02
      6.77696392e-02 8.98906775e-03 2.93420088e-02 3.46283689e-02
      1.04046516e-01 2.04280894e-02 -8.99864081e-03 -1.49262682e-01
      -8.54712352e-02 -1.64262448e-02 9.47807624e-04 1.04009053e-02
      6.00113980e-02 2.23331638e-02 -3.60586494e-02 -4.49486962e-03
      -4.18481641e-02 -5.31110950e-02 -3.02099390e-04 -3.94118987e-02
      4.17608619e-02 6.39039576e-02 1.17046926e-02 -9.67345666e-03
      2.29574628e-02 6.72816634e-02 6.32789135e-02 1.50944805e-03
      -1.04399003e-01 -8.41315649e-03 7.71753350e-03 6.06983230e-02
      -1.27027594e-02 -3.41882147e-02 -7.11373910e-02 -6.05902933e-02
      -9.73707438e-03 -4.31197919e-02 -1.40925229e-03 9.77582857e-03
      3.86281051e-02 1.24726640e-02 1.27161602e-02 3.05064693e-02
      6.30551651e-02 1.59997977e-02 -1.01701528e-01 -3.36202867e-02
      1.00896237e-02 -4.36773822e-02 3.32711972e-02 3.97015065e-02
      5.92403822e-02 6.78665787e-02 2.24320474e-03 -7.66183808e-02
      -2.38880366e-02 1.78081058e-02 -9.78785902e-02 2.57545281e-02
      4.56426479e-03 1.29885050e-02 4.03406657e-02 5.80681413e-02
      -4.71049128e-03 2.36597899e-02 -3.26535441e-02 -3.14363185e-03
      3.07531022e-02 4.26205546e-02 3.37160192e-02 5.93344159e-02
      7.32510211e-03 -4.05999385e-02 -1.82032678e-02 1.32171847e-02
      -1.78436097e-02 -1.27163231e-02 1.33389411e-02 -4.34786342e-02
      4.97539388e-03 3.05197872e-02 2.47713365e-02 6.25556931e-02
      2.09756102e-02 -4.26472388e-02 5.32856062e-02 3.70805222e-03
      2.13579871e-02 3.48112956e-02 5.17280549e-02 -1.75140481e-02
      2.62531303e-02 1.49142661e-03 -3.92421708e-03 8.25842172e-02
      9.94312689e-02 3.63308936e-02 7.65454024e-02 6.95958659e-02
      2.62511820e-02 7.75025263e-02 -1.36089176e-02 -3.76407616e-02
      1.94952358e-02 -8.74120276e-03 -3.41938622e-02 5.37462591e-04
      5.85114807e-02 2.88226735e-02 4.94995937e-02 -2.39278711e-02
      -2.48145070e-02 2.08593421e-02 3.50372009e-02 -7.72067870e-04
      8.88779014e-02 1.31779432e-01 1.19440615e-01 9.08614621e-02
      -4.97013927e-02 -2.59407517e-02 4.80197184e-02 5.70113361e-02
      1.68226957e-02 -4.63447049e-02 -2.61074901e-02 2.95828618e-02
      5.31850420e-02 -4.87497933e-02 -7.66770169e-03 3.96371074e-02
      6.87890649e-02 9.62209925e-02 3.43711264e-02 -6.52656257e-02
      1.08217262e-02 -1.21762827e-02 -2.49957368e-02 -1.89206544e-02
      -3.97294424e-02 -1.07201645e-02 -1.61347296e-02 1.58644579e-02
      5.75053319e-02 8.28049108e-02 4.13596928e-02 -7.93398768e-02
      -1.43843773e-03 4.66205878e-03 4.03769724e-02 6.61401078e-02
      3.86349559e-02 -2.97538973e-02 2.82762889e-02 -4.85242391e-03
      -7.64820278e-02 -1.43508585e-02 -1.74186248e-02 9.07526836e-02
      4.98804413e-02 5.34365401e-02 -1.53706288e-02 -2.09600981e-02
      -6.53899908e-02 -7.22609311e-02 -3.75264697e-02 -2.65566502e-02
      1.61119960e-02 1.42788980e-02 2.68172678e-02 3.26867923e-02
      9.80878994e-03 -2.76985802e-02 -8.40096325e-02 -3.40621267e-03
      7.77634280e-03 5.23696914e-02 3.83254215e-02 3.91023532e-02
      -2.68305987e-02 -1.34746935e-02 -5.95233869e-03 -4.89928313e-02
      -4.99900207e-02 2.25438806e-03 -4.11762372e-02 3.21608665e-03
      5.97694367e-02 4.64839824e-02 9.79120564e-03 -1.11317029e-02
      -5.50067127e-02 -7.18730967e-03 3.94905247e-02 5.44386543e-02
      -5.83147667e-02 1.30115543e-02 4.20253761e-02 1.05705671e-02
      -1.29241571e-02 -2.06344333e-02 -2.64828000e-02 3.55345830e-02
      1.35914609e-01 -1.45149203e-02 9.95421689e-03 6.96493685e-02
      -1.89085864e-02 -5.54751256e-04 -1.67740993e-02 3.00299516e-03
      5.66768721e-02 4.91855491e-04 -6.19265102e-02 5.06556183e-02
      5.33608682e-02 2.45981943e-02 1.32130124e-02 1.85746178e-02
      -1.48995733e-03 5.24287559e-02 1.16236299e-01 -2.13914886e-02
      2.70732120e-02 5.22283651e-02 3.38844047e-03 3.17604430e-02
      6.32539541e-02 6.77185431e-02 5.49244173e-02 6.51003718e-02
      -5.84897697e-02 -8.29238631e-03 1.79346371e-02 2.24279650e-02
      -6.79726509e-05 1.27394190e-02 1.00004807e-01 1.46688521e-03
      5.11823036e-02 -8.41599330e-02 -6.11214824e-02 -1.08841322e-02
      1.94629412e-02 -5.52584464e-03 -2.53047235e-03 5.85774183e-02
      3.81924510e-02 4.39774394e-02 -1.39296846e-02 3.81708220e-02
      2.70651169e-02 2.82307081e-02 -9.94699541e-03 5.07160323e-03
      4.19749282e-02 7.26980492e-02 6.56111613e-02 -3.43522877e-02
      -4.16253768e-02 2.84322817e-02 2.65323278e-02 4.70713787e-02
      1.50869060e-02 5.38241630e-03 -6.32595569e-02 2.06889212e-02
      -5.42503856e-02 -2.37538330e-02 3.54005694e-02 -2.66103558e-02
      -8.41302425e-03 -2.64206883e-02 -1.27091445e-02 -8.35307315e-03
      3.54239158e-02 4.04727506e-03 4.26856838e-02 4.76370305e-02
      -5.01967072e-02 -5.13171926e-02 3.52119543e-02 3.08391303e-02
      -2.13506781e-02 4.60005403e-02 -5.24710119e-02 -4.20194343e-02
      2.22309623e-02 -9.92335379e-03 5.58584891e-02 2.47391239e-02
      5.29249199e-02 -2.72800699e-02 2.74252482e-02 2.51946077e-02
      5.05422764e-02 3.69420573e-02 -6.38777437e-03 5.65250986e-04
      -1.24705052e-02 3.06564029e-02 5.75200655e-02 2.61823032e-02
      1.21703173e-03 4.79827449e-02 3.93154286e-02 4.15990688e-03
      -4.23392057e-02 6.09246604e-02 8.86516005e-04 1.97932534e-02
      1.47699686e-02 -8.16938877e-02 -6.03917316e-02 1.38411950e-02
      2.28162389e-02 1.99292954e-02 1.48305800e-02 5.26132062e-03
      2.78171282e-02 3.87150384e-02 3.76707339e-03 2.87971478e-02
      3.99171375e-02 3.57612185e-02 3.90651776e-03 1.44049330e-02
      1.26472060e-02 -1.20175937e-02 3.19839492e-02 -6.29138723e-02
      -5.04449755e-02 3.41759883e-02 8.02335739e-02 6.61192909e-02
      -2.15732008e-02 -5.51579446e-02 -2.70727812e-03 2.19151583e-02
      2.97964178e-03 -1.84663944e-02 3.42793018e-02 2.01792270e-02
      2.10269280e-02 -1.91522259e-02 -5.11778407e-02 5.89780882e-02
      2.01353468e-02 1.59157217e-02 7.52667263e-02 1.04954898e-01
      1.28103793e-01 8.66284072e-02 1.31204836e-02 -2.01865379e-02
      5.53700188e-03 1.99055001e-02 7.37418011e-02 1.13761937e-02
      -2.48508248e-03 5.62936105e-02 2.89947297e-02 5.30803995e-03
      2.62757787e-03 8.64354074e-02 -1.56647817e-03 -2.06176843e-03
      3.67533639e-02 8.39131512e-03 1.20646529e-01 6.75403401e-02
      8.47334415e-03 -2.10011080e-02 3.14711337e-03 -3.87504511e-02
      -4.05248348e-03 2.50044819e-02 4.37423922e-02 7.73803219e-02
      5.82862720e-02 1.70601010e-02 5.36943041e-03 1.31087499e-02
      4.02674042e-02 1.36346389e-02 1.30473562e-02 -1.20554157e-02
      1.34382080e-02 2.92463694e-02 -3.76909003e-02 -2.24077553e-02
      3.25229624e-03 -4.40220684e-02 -4.34193760e-02 -5.97726833e-03
      1.68986078e-02 8.11036378e-02 1.99617725e-02 -2.22434383e-02
      7.89685268e-03 3.49126793e-02 2.57123038e-02 1.23479795e-02
      4.32530139e-03 1.23353051e-02 6.10315055e-02 -2.26395065e-03
      1.46734258e-02 1.66790420e-03 2.49033570e-02 7.10401610e-02
      -3.12122200e-02 2.02803072e-02 -2.19890233e-02 6.73243869e-03
      3.75424065e-02 -1.20032486e-03 -2.87764333e-02 1.02343317e-02
      1.01888115e-02 -1.86414979e-02 7.91719928e-02 5.33582363e-03
      -7.90139847e-03 -1.74480304e-02 -2.75882855e-02 3.39904763e-02
      3.47374976e-02 6.74657673e-02 8.08013976e-03 5.96643751e-03
      -9.88199841e-03 5.00690341e-02 -1.82397086e-02 -7.44864494e-02
      1.43326037e-02 2.40300130e-02 4.24374901e-02 1.03214160e-02
      2.67304257e-02 -3.05449567e-03 -1.03603303e-03 -8.84565413e-02
      2.44688373e-02 2.75030453e-02 7.17557520e-02 1.12942532e-02
      -7.90385678e-02 5.64158745e-02 1.40809678e-02 1.83615852e-02
      3.13479938e-02 2.66611408e-02 2.84774806e-02 8.19847211e-02
      1.14550106e-01 3.38097638e-03 6.79091439e-02 2.80951206e-02
      3.24227288e-02 4.29237820e-02 -3.55027616e-02 3.94460671e-02
      9.38436761e-02 2.60553323e-02 -8.69414359e-02 3.34253605e-03
      2.32222341e-02 2.49575954e-02 -4.24845479e-02 -4.37734909e-02
      3.80438715e-02 8.00366029e-02 9.17343572e-02 1.13924416e-02
      5.64566478e-02 7.68156946e-02 2.71403007e-02 -5.15512526e-02
      -1.44141959e-02 3.40240858e-02 3.97224762e-02 4.00009453e-02
      4.36520427e-02 6.49831370e-02 7.71312742e-03 4.28658798e-02
      -2.00913940e-03 9.08989273e-03 1.34264445e-02 3.64349373e-02
      2.33305432e-02 -6.55111596e-02 7.34576257e-03 6.25660568e-02
      5.35613224e-02 3.90087776e-02 1.47864539e-02 1.84919871e-02
      1.18057216e-02 7.94010386e-02 3.25761102e-02 3.78326215e-02
      6.97790161e-02 1.01935133e-01 -2.60950509e-03 -4.04859707e-03
      -1.43957930e-02 7.82553572e-03 1.79324150e-02 -4.03424911e-02
      9.86322109e-03 2.15251036e-02 8.64289850e-02 3.04142591e-02
      3.39865051e-02 -2.62381025e-02 -4.89795655e-02 1.65356230e-02
      -5.65250814e-02 1.61902793e-02 5.38003743e-02 2.96499487e-02
      5.54244332e-02 4.31003273e-02 4.45529493e-03 -2.04504025e-03
      2.00768746e-02 3.75120677e-02 4.14144285e-02 3.27372774e-02
      -2.09646039e-02 3.18414569e-02 3.01239286e-02 -7.05495030e-02
      -5.16443029e-02 -1.16651496e-02 -5.61630838e-02 -5.74846938e-03
      2.47928090e-02 5.52413389e-02 5.43268844e-02 8.92984495e-03
